{"type":"LSTM","options":{"inputSize":35,"inputRange":35,"hiddenLayers":[20,20],"outputSize":35,"decayRate":0.999,"smoothEps":1e-8,"regc":0.000001,"clipval":5,"maxPredictionLength":100,"dataFormatter":{"values":["Gabriel","Gabriel é gay","Quem é gay?","Tem postado muitas coisas no facebook","buy me a laptop","code","computer","drive","gosta de dar a bunda","hardware","i broke my pc","i found some bugs in the code","i love computers","i love to play games","i need a new power supply","i swapped the memory","i tested the code","it needs more memory","my unit test failed","power supply","program","programming","software","the drive has a 2TB capacity","tried the program, but it was buggy","unit-tests","é gay"],"indexTable":{"2":28,"G":0,"a":1,"b":2,"r":3,"i":4,"e":5,"l":6," ":7,"é":8,"g":9,"y":10,"Q":11,"u":12,"m":13,"?":14,"T":15,"p":16,"o":17,"s":18,"t":19,"d":20,"c":21,"n":22,"f":23,"k":24,"v":25,"h":26,"w":27,"B":29,",":30,"-":31,"stop-input":32,"start-output":33,"unrecognized":34},"characterTable":{"0":"G","1":"a","2":"b","3":"r","4":"i","5":"e","6":"l","7":" ","8":"é","9":"g","10":"y","11":"Q","12":"u","13":"m","14":"?","15":"T","16":"p","17":"o","18":"s","19":"t","20":"d","21":"c","22":"n","23":"f","24":"k","25":"v","26":"h","27":"w","28":"2","29":"B","30":",","31":"-","32":null,"33":null,"34":null},"characters":["G","a","b","r","i","e","l"," ","é","g","y","Q","u","m","?","T","p","o","s","t","d","c","n","f","k","v","h","w","2","B",",","-","stop-input","start-output","unrecognized"],"specialIndexes":[32,33,34]}},"input":{"rows":36,"columns":35,"weights":{"0":-2.064504623413086,"1":0.8460460305213928,"2":0.4705233871936798,"3":0.004492076579481363,"4":1.7033283710479736,"5":1.1865830421447754,"6":-0.04020257294178009,"7":-1.1928740739822388,"8":-0.17059415578842163,"9":1.1904628276824951,"10":-0.06372664868831635,"11":0.008065948262810707,"12":0.2224394679069519,"13":-0.06098010018467903,"14":-1.5224320888519287,"15":-0.20450422167778015,"16":-1.686497688293457,"17":1.2240759134292603,"18":0.981432318687439,"19":-2.488872766494751,"20":-0.682237446308136,"21":0.18639451265335083,"22":-0.9491776823997498,"23":0.11109920591115952,"24":-1.7594683170318604,"25":-0.7094409465789795,"26":-0.8839318752288818,"27":0.9602441191673279,"28":0.32146361470222473,"29":1.1596325635910034,"30":0.7861776351928711,"31":-2.476550817489624,"32":0.4602895975112915,"33":-2.005765199661255,"34":1.8199399709701538,"35":6.947908401489258,"36":2.2489101886749268,"37":-0.12048277258872986,"38":1.0751053094863892,"39":-3.6923460960388184,"40":-1.2716926336288452,"41":-0.9328475594520569,"42":3.8044450283050537,"43":-0.9730320572853088,"44":-5.044073581695557,"45":-0.45440295338630676,"46":1.4326109886169434,"47":2.220043420791626,"48":-5.5863776206970215,"49":2.4164040088653564,"50":2.654435634613037,"51":2.6517586708068848,"52":1.0654613971710205,"53":2.43318247795105,"54":6.3583173751831055,"55":0.6867116093635559,"56":1.862892985343933,"57":1.245546579360962,"58":-1.3539448976516724,"59":6.430261135101318,"60":0.8515492081642151,"61":3.0749073028564453,"62":-0.3452394902706146,"63":-3.3957438468933105,"64":1.2541762590408325,"65":3.639530897140503,"66":0.7065229415893555,"67":0.2809998095035553,"68":-0.1375611573457718,"69":3.6461071968078613,"70":0.0841001495718956,"71":0.8284261226654053,"72":-0.4966171383857727,"73":0.41041553020477295,"74":-0.9376539587974548,"75":-1.3965619802474976,"76":0.2293998748064041,"77":1.7789056301116943,"78":-0.28203341364860535,"79":0.6933317184448242,"80":0.42350661754608154,"81":-0.323119580745697,"82":1.3776702880859375,"83":-0.5696211457252502,"84":-0.9055335521697998,"85":0.6722818613052368,"86":2.6365268230438232,"87":0.05953817069530487,"88":1.6069563627243042,"89":-0.2697645425796509,"90":-0.18418098986148834,"91":-0.023862754926085472,"92":0.839777946472168,"93":-0.3701525330543518,"94":0.33664777874946594,"95":-0.03174120932817459,"96":-0.35458311438560486,"97":-0.8298190832138062,"98":-2.2467854022979736,"99":-0.1425316035747528,"100":0.10909220576286316,"101":-0.10292839258909225,"102":-0.3917200267314911,"103":0.5143628120422363,"104":1.0525301694869995,"105":-0.3421176075935364,"106":1.1632673740386963,"107":-1.2898372411727905,"108":-0.4858265817165375,"109":1.6234978437423706,"110":0.5348402261734009,"111":-0.09781067818403244,"112":-1.628624439239502,"113":-0.0035308038350194693,"114":1.1597893238067627,"115":2.8033599853515625,"116":-0.6511217355728149,"117":-2.90999436378479,"118":-2.1915454864501953,"119":1.124909520149231,"120":-2.184696912765503,"121":2.1653435230255127,"122":1.3766816854476929,"123":-5.517202854156494,"124":-4.956673622131348,"125":0.7507849335670471,"126":2.393490791320801,"127":1.9663896560668945,"128":1.6120383739471436,"129":1.7032829523086548,"130":1.3868738412857056,"131":-2.35503888130188,"132":5.485503673553467,"133":1.3104732036590576,"134":1.4284645318984985,"135":1.5311644077301025,"136":1.0141026973724365,"137":2.9390549659729004,"138":-0.3496819734573364,"139":2.696720838546753,"140":1.3618487119674683,"141":0.13025371730327606,"142":0.9169753193855286,"143":1.5787324905395508,"144":0.5493401288986206,"145":0.6841183304786682,"146":1.8278189897537231,"147":-0.4726306200027466,"148":0.001318915281444788,"149":-0.16893243789672852,"150":1.1351712942123413,"151":0.8646623492240906,"152":-0.5156726837158203,"153":-0.270293653011322,"154":0.7679480314254761,"155":-0.6664907932281494,"156":0.2630848288536072,"157":-0.9844054579734802,"158":1.074650764465332,"159":-1.0797570943832397,"160":1.0683159828186035,"161":-1.8187998533248901,"162":2.121910333633423,"163":-0.7802950143814087,"164":0.8223263621330261,"165":-0.3757226765155792,"166":-1.4033077955245972,"167":-0.4269702732563019,"168":-0.7063055038452148,"169":3.976806163787842,"170":1.5950456857681274,"171":-0.7443512082099915,"172":-1.1754608154296875,"173":1.0599828958511353,"174":0.9996952414512634,"175":2.220496416091919,"176":0.3813170790672302,"177":1.5895006656646729,"178":2.1958529949188232,"179":0.7815101146697998,"180":-0.08861993253231049,"181":2.055793523788452,"182":1.8777281045913696,"183":-0.10701894760131836,"184":-0.3796694576740265,"185":2.2201359272003174,"186":-2.213806629180908,"187":1.4372550249099731,"188":-0.12620142102241516,"189":1.2916123867034912,"190":0.0077951811254024506,"191":3.376814603805542,"192":0.045182965695858,"193":1.9403597116470337,"194":1.9547630548477173,"195":1.2602864503860474,"196":-4.02800178527832,"197":0.032142914831638336,"198":-1.1259260177612305,"199":-1.2060185670852661,"200":-1.8226721286773682,"201":-1.3845245838165283,"202":-0.07160081714391708,"203":-1.9610456228256226,"204":-0.6831529140472412,"205":0.9969814419746399,"206":0.4629325568675995,"207":-0.5148769021034241,"208":-0.3128483295440674,"209":-1.2483173608779907,"210":0.057600803673267365,"211":2.1505777835845947,"212":0.8812240958213806,"213":0.46113306283950806,"214":0.12025383114814758,"215":0.666795551776886,"216":0.3077447712421417,"217":-0.7153589725494385,"218":-1.0374678373336792,"219":0.8979718089103699,"220":-2.0277795791625977,"221":1.4051623344421387,"222":0.6436572074890137,"223":-0.8998979330062866,"224":1.429545283317566,"225":1.780839443206787,"226":-1.1134107112884521,"227":-0.2784292995929718,"228":1.0416486263275146,"229":0.28810346126556396,"230":-2.7018990516662598,"231":-0.5969777703285217,"232":-1.182149052619934,"233":-1.1348776817321777,"234":0.01515937875956297,"235":-0.5173790454864502,"236":-1.1416172981262207,"237":-0.09227533638477325,"238":-2.486835241317749,"239":-0.29777878522872925,"240":1.034226417541504,"241":-1.5627965927124023,"242":-1.3524950742721558,"243":-0.8627208471298218,"244":-0.9481251835823059,"245":0.23858428001403809,"246":-6.00036096572876,"247":-0.7148717641830444,"248":-0.40036100149154663,"249":-2.3374948501586914,"250":0.31203198432922363,"251":4.024991512298584,"252":-1.6314690113067627,"253":2.8972725868225098,"254":-0.3418450355529785,"255":-1.5969018936157227,"256":2.1984670162200928,"257":-5.120208740234375,"258":-1.4398181438446045,"259":4.250975131988525,"260":-4.029345512390137,"261":-2.8061625957489014,"262":-5.026791095733643,"263":-4.27512264251709,"264":-0.008288209326565266,"265":0.041970763355493546,"266":-3.760042428970337,"267":-1.4609631299972534,"268":0.056153878569602966,"269":2.6363401412963867,"270":-0.2927410304546356,"271":1.1687333583831787,"272":1.2056585550308228,"273":4.452285289764404,"274":2.2215664386749268,"275":-2.2683372497558594,"276":-1.884717583656311,"277":-3.4993958473205566,"278":3.006488561630249,"279":0.09154143184423447,"280":-2.3435606956481934,"281":-1.4166905879974365,"282":-0.05515820160508156,"283":2.170903205871582,"284":0.7541587948799133,"285":-1.3102980852127075,"286":-0.2007112205028534,"287":-1.1529221534729004,"288":0.9353067874908447,"289":3.2567851543426514,"290":0.13459256291389465,"291":-1.1224524974822998,"292":1.5733410120010376,"293":-1.7128525972366333,"294":-1.27043616771698,"295":-1.4436376094818115,"296":-0.1990761011838913,"297":2.0354576110839844,"298":-2.3557357788085938,"299":-5.899494647979736,"300":-0.3091922998428345,"301":0.34837594628334045,"302":-3.317025899887085,"303":0.2727249264717102,"304":-0.9539346098899841,"305":0.5728292465209961,"306":-1.7266935110092163,"307":1.1166093349456787,"308":-0.9687210321426392,"309":-0.4135070741176605,"310":-1.0635014772415161,"311":-2.323317527770996,"312":2.607769250869751,"313":-1.442215085029602,"314":-0.0925239622592926,"315":2.9997270107269287,"316":2.4800469875335693,"317":4.939398288726807,"318":-3.487069845199585,"319":-3.2590107917785645,"320":-0.4161665141582489,"321":3.2714362144470215,"322":-0.24558056890964508,"323":0.0938418060541153,"324":-3.6655943393707275,"325":7.375413417816162,"326":-5.665385723114014,"327":1.6222721338272095,"328":0.3042428195476532,"329":-6.943368434906006,"330":3.3104703426361084,"331":1.0432326793670654,"332":5.504361152648926,"333":0.5573017597198486,"334":3.753575086593628,"335":4.934807777404785,"336":4.40647554397583,"337":-4.255634307861328,"338":3.49890398979187,"339":0.9596114754676819,"340":5.704068660736084,"341":4.967647075653076,"342":-4.599198341369629,"343":-2.3605430126190186,"344":-5.1946845054626465,"345":2.7633841037750244,"346":2.135056734085083,"347":1.1733652353286743,"348":-2.017096519470215,"349":-2.1761178970336914,"350":-0.21670140326023102,"351":-1.697995662689209,"352":2.2273473739624023,"353":-0.594341516494751,"354":-2.2766408920288086,"355":-4.9256062507629395,"356":-4.844851493835449,"357":1.5871871709823608,"358":1.8316645622253418,"359":2.4214956760406494,"360":4.656763553619385,"361":-1.3725767135620117,"362":1.7837852239608765,"363":0.7787623405456543,"364":-5.505751609802246,"365":-1.8206632137298584,"366":0.37463703751564026,"367":3.2904555797576904,"368":1.8387359380722046,"369":1.9805458784103394,"370":2.3741142749786377,"371":4.631454944610596,"372":-4.331089019775391,"373":3.2750957012176514,"374":-2.061265707015991,"375":1.5983699560165405,"376":-1.5081766843795776,"377":-0.9561431407928467,"378":-1.7033532857894897,"379":-1.5506740808486938,"380":-3.8289847373962402,"381":-8.348973274230957,"382":0.3370470106601715,"383":-5.329668998718262,"384":-1.653670072555542,"385":0.47084829211235046,"386":3.8899941444396973,"387":2.086168050765991,"388":2.3157780170440674,"389":1.861124038696289,"390":3.835371971130371,"391":1.3846735954284668,"392":-0.09144312143325806,"393":-2.36706805229187,"394":-0.7755429744720459,"395":-4.8053412437438965,"396":-0.8798446655273438,"397":3.1481375694274902,"398":-0.0407363623380661,"399":0.44471481442451477,"400":2.9033219814300537,"401":-0.9711702466011047,"402":-3.7745447158813477,"403":2.163245439529419,"404":-0.09615417569875717,"405":-0.31260254979133606,"406":-1.2865360975265503,"407":1.380545973777771,"408":-1.6719872951507568,"409":-0.7866464853286743,"410":-3.6628575325012207,"411":-0.12455764412879944,"412":-0.3337090015411377,"413":-1.7214434146881104,"414":0.8625050187110901,"415":0.17263023555278778,"416":0.9845529198646545,"417":1.0890687704086304,"418":1.932626724243164,"419":0.17554877698421478,"420":3.428501844406128,"421":-1.307064175605774,"422":2.337233066558838,"423":5.8164381980896,"424":-0.9862852692604065,"425":6.712501049041748,"426":10.211037635803223,"427":-5.586811542510986,"428":2.530979633331299,"429":3.231172800064087,"430":-7.237059593200684,"431":-0.7655861377716064,"432":-6.522441864013672,"433":-7.532159805297852,"434":10.375039100646973,"435":-11.461824417114258,"436":2.5828769207000732,"437":-6.5660247802734375,"438":-9.470319747924805,"439":2.6145660877227783,"440":4.7749786376953125,"441":-13.501629829406738,"442":8.302157402038574,"443":-9.894742012023926,"444":2.4275856018066406,"445":-5.114395618438721,"446":-4.107246398925781,"447":-3.980746269226074,"448":3.7720510959625244,"449":10.665016174316406,"450":1.501613974571228,"451":1.8216464519500732,"452":3.103494882583618,"453":8.050780296325684,"454":8.313469886779785,"455":3.643594264984131,"456":-5.792722702026367,"457":-2.464891195297241,"458":2.3389089107513428,"459":-3.3938746452331543,"460":0.5088034868240356,"461":-0.6252319812774658,"462":2.5938315391540527,"463":-1.1639384031295776,"464":0.2475745975971222,"465":0.2791447639465332,"466":3.1179776191711426,"467":-2.984816312789917,"468":-1.3539953231811523,"469":-0.18421944975852966,"470":-2.4187636375427246,"471":0.48381128907203674,"472":-3.690918207168579,"473":1.4532849788665771,"474":3.4392402172088623,"475":0.4681980013847351,"476":-1.9852358102798462,"477":1.5852503776550293,"478":-1.5162664651870728,"479":3.7695932388305664,"480":-1.717936635017395,"481":1.1954634189605713,"482":-2.621471881866455,"483":0.4003273546695709,"484":2.5675270557403564,"485":-0.05219229683279991,"486":-1.257370948791504,"487":-1.1525322198867798,"488":4.330574989318848,"489":2.688169240951538,"490":-0.06722234189510345,"491":-2.24929141998291,"492":2.545503854751587,"493":1.8751424551010132,"494":-0.7447252869606018,"495":0.04175538942217827,"496":-0.037223488092422485,"497":0.8521451950073242,"498":1.3972094058990479,"499":-1.7374329566955566,"500":0.9728878140449524,"501":-3.538869857788086,"502":-2.1594717502593994,"503":-0.021647853776812553,"504":3.4647023677825928,"505":-1.1454979181289673,"506":2.05671763420105,"507":-2.065347909927368,"508":-0.7115796804428101,"509":0.5231468081474304,"510":0.924905002117157,"511":1.3498857021331787,"512":0.9318011403083801,"513":0.47458615899086,"514":-0.07259641587734222,"515":0.36483773589134216,"516":2.900696277618408,"517":3.2147257328033447,"518":1.3897979259490967,"519":1.6652930974960327,"520":4.521978378295898,"521":3.0222487449645996,"522":0.8168826699256897,"523":4.195079326629639,"524":3.422677993774414,"525":-7.843879699707031,"526":-2.6989927291870117,"527":7.560047149658203,"528":-10.614984512329102,"529":9.432146072387695,"530":6.405216217041016,"531":-9.50612735748291,"532":-5.614907264709473,"533":0.6155602931976318,"534":3.821249008178711,"535":1.6604255437850952,"536":13.554219245910645,"537":-9.739633560180664,"538":5.897434234619141,"539":-8.502511024475098,"540":3.203185796737671,"541":-9.414107322692871,"542":-15.338961601257324,"543":2.712214708328247,"544":10.367067337036133,"545":0.8085627555847168,"546":3.029798746109009,"547":3.6791865825653076,"548":2.9648401737213135,"549":-7.032406806945801,"550":-3.3262667655944824,"551":-8.606179237365723,"552":-1.6873189210891724,"553":9.10594367980957,"554":-2.6214733123779297,"555":-11.967249870300293,"556":-2.794403553009033,"557":-0.7854979634284973,"558":-6.221795082092285,"559":-2.9151601791381836,"560":-7.440462112426758,"561":7.836090087890625,"562":-1.5441654920578003,"563":6.740781307220459,"564":-1.3402729034423828,"565":2.27571439743042,"566":10.918726921081543,"567":-0.055319856852293015,"568":-4.418451309204102,"569":4.029829025268555,"570":-13.758156776428223,"571":-0.286119669675827,"572":6.058009624481201,"573":4.23295259475708,"574":9.767014503479004,"575":7.929364204406738,"576":-0.12495169043540955,"577":-8.833282470703125,"578":0.6185112595558167,"579":-0.8952723741531372,"580":-7.8176493644714355,"581":-9.627070426940918,"582":0.047687992453575134,"583":-8.588895797729492,"584":0.8173031806945801,"585":-8.743695259094238,"586":0.9098331928253174,"587":-9.121315002441406,"588":-2.0443100929260254,"589":6.5572123527526855,"590":-6.1836466789245605,"591":1.1873151063919067,"592":-9.780671119689941,"593":4.722884178161621,"594":-1.4006669521331787,"595":-2.5867764949798584,"596":0.10847444832324982,"597":-1.007529854774475,"598":0.08602745831012726,"599":1.267274022102356,"600":0.011474291794002056,"601":-0.9251539707183838,"602":-1.1620409488677979,"603":3.164071798324585,"604":1.6925537586212158,"605":1.532107949256897,"606":0.6746976375579834,"607":0.19970445334911346,"608":-1.2038788795471191,"609":-2.193180561065674,"610":-0.6195904612541199,"611":-0.5105706453323364,"612":-0.11281509697437286,"613":0.14108701050281525,"614":0.7959663271903992,"615":-1.1203807592391968,"616":-0.8932252526283264,"617":-1.3152066469192505,"618":0.9601409435272217,"619":0.5555077195167542,"620":0.24739597737789154,"621":-5.013024806976318,"622":0.25290563702583313,"623":-1.540317416191101,"624":-0.5777655839920044,"625":-0.7358142733573914,"626":-4.230709075927734,"627":0.5646481513977051,"628":0.12427162379026413,"629":1.511978030204773,"630":0.058626752346754074,"631":-1.127800703048706,"632":-0.7443200945854187,"633":-0.35966771841049194,"634":-0.32001686096191406,"635":-0.25624167919158936,"636":0.9819353222846985,"637":-0.3056037127971649,"638":0.8538219928741455,"639":0.8360230326652527,"640":-0.2468021959066391,"641":0.932543933391571,"642":0.12373724579811096,"643":0.015183958224952221,"644":0.056904878467321396,"645":-0.02062639780342579,"646":-0.1840783804655075,"647":-0.43561309576034546,"648":-0.03052983246743679,"649":-1.597355842590332,"650":0.28091442584991455,"651":-1.4256788492202759,"652":0.8807792663574219,"653":-0.1827109307050705,"654":0.5663739442825317,"655":-0.2287607640028,"656":-1.2009221315383911,"657":-0.12737050652503967,"658":0.569741427898407,"659":0.3821834325790405,"660":-0.2697591781616211,"661":-0.6900529265403748,"662":0.2642812132835388,"663":1.1696592569351196,"664":0.4552936553955078,"665":0.9479461908340454,"666":0.31673645973205566,"667":1.1560989618301392,"668":0.11885189265012741,"669":-0.9015496373176575,"670":3.0330007076263428,"671":0.6049467921257019,"672":-0.8459382057189941,"673":-1.6713351011276245,"674":-0.033848512917757034,"675":-1.3440791368484497,"676":-0.13721442222595215,"677":-0.0774139016866684,"678":0.5271655321121216,"679":-1.048635721206665,"680":-0.03180341050028801,"681":-0.9161974191665649,"682":0.7978708744049072,"683":0.36818912625312805,"684":-0.7783087491989136,"685":0.6542246341705322,"686":-1.5154491662979126,"687":0.8269577026367188,"688":-1.3332667350769043,"689":-0.21525847911834717,"690":-1.2235056161880493,"691":0.0115210535004735,"692":-1.134812355041504,"693":-1.3503497838974,"694":0.21036426723003387,"695":-0.3297847509384155,"696":-1.56592857837677,"697":-0.41945749521255493,"698":0.486962229013443,"699":0.5046223998069763,"700":-1.8192776441574097,"701":-2.344313859939575,"702":-0.8683720231056213,"703":4.165901184082031,"704":-3.240021228790283,"705":-0.5813549160957336,"706":1.6774014234542847,"707":0.9730079770088196,"708":-2.228583335876465,"709":1.6729998588562012,"710":-1.805970311164856,"711":-2.2889952659606934,"712":-1.4870256185531616,"713":-0.8821960687637329,"714":0.9301319718360901,"715":-0.02393951639533043,"716":1.7878409624099731,"717":-0.0010404241038486362,"718":-2.3216514587402344,"719":0.03322945907711983,"720":-0.9214379191398621,"721":-0.4639004170894623,"722":-1.3537312746047974,"723":-0.6236600279808044,"724":0.3648742139339447,"725":-0.06139538437128067,"726":0.8454160094261169,"727":0.43266934156417847,"728":-0.15989479422569275,"729":3.6907739639282227,"730":-0.3364905118942261,"731":0.47383612394332886,"732":-2.2181477546691895,"733":1.8494024276733398,"734":2.014134407043457,"735":-2.2040822505950928,"736":1.4672956466674805,"737":2.373145341873169,"738":1.385056972503662,"739":1.8779528141021729,"740":-0.6988706588745117,"741":0.8627955913543701,"742":-1.3454457521438599,"743":-2.8457279205322266,"744":-1.6071423292160034,"745":0.309074342250824,"746":-0.31444671750068665,"747":1.7500885725021362,"748":1.6823559999465942,"749":-0.8227518200874329,"750":0.7879670858383179,"751":0.29974988102912903,"752":4.772760391235352,"753":-0.2549644708633423,"754":2.179629325866699,"755":-0.6848080158233643,"756":-0.2734372019767761,"757":-1.2114112377166748,"758":-2.2681467533111572,"759":-3.5524816513061523,"760":1.3322169780731201,"761":1.725846290588379,"762":-1.0618466138839722,"763":-0.8401479721069336,"764":1.935105323791504,"765":4.078004837036133,"766":3.4409446716308594,"767":-0.607744038105011,"768":-1.3393299579620361,"769":-2.0083982944488525,"770":-2.7902402877807617,"771":-0.17078205943107605,"772":3.22664475440979,"773":7.5329413414001465,"774":1.740520715713501,"775":3.7393524646759033,"776":8.270750999450684,"777":-0.8409188985824585,"778":-1.2436434030532837,"779":-3.40796160697937,"780":-1.4548300504684448,"781":-10.352465629577637,"782":5.666184902191162,"783":2.630406618118286,"784":-0.14662280678749084,"785":0.6816015839576721,"786":-1.8788228034973145,"787":0.17746905982494354,"788":1.03758704662323,"789":-0.2428625524044037,"790":1.248010516166687,"791":-3.4561209678649902,"792":-3.9890289306640625,"793":-3.6882524490356445,"794":-2.6961960792541504,"795":-0.9071363806724548,"796":-0.10590431839227676,"797":-4.82442045211792,"798":-3.4680049419403076,"799":8.252692222595215,"800":-0.15629522502422333,"801":4.040336608886719,"802":-4.107084274291992,"803":1.904211401939392,"804":-0.11294028162956238,"805":-1.6367131471633911,"806":2.1360878944396973,"807":-3.969738006591797,"808":3.3812012672424316,"809":-0.15583549439907074,"810":-0.6923203468322754,"811":0.5028263330459595,"812":4.838367462158203,"813":-0.7731605768203735,"814":3.390944004058838,"815":-1.3727351427078247,"816":3.8711917400360107,"817":2.762742519378662,"818":-1.4668076038360596,"819":-0.17449074983596802,"820":3.3147220611572266,"821":2.6625823974609375,"822":-0.8206549882888794,"823":-1.2771475315093994,"824":2.410999298095703,"825":-1.922180414199829,"826":-0.7918468117713928,"827":1.663081407546997,"828":-0.7755481004714966,"829":2.455653667449951,"830":-1.9519872665405273,"831":-3.3128082752227783,"832":-4.260466575622559,"833":-2.6442339420318604,"834":3.086463689804077,"835":-3.8844735622406006,"836":-4.141768455505371,"837":-4.557035446166992,"838":-0.4930180609226227,"839":1.1845684051513672,"840":-1.585060715675354,"841":1.171761155128479,"842":0.24972784519195557,"843":-0.33533233404159546,"844":0.03830460086464882,"845":-1.5262452363967896,"846":-0.253913551568985,"847":-2.498122453689575,"848":0.9299691319465637,"849":-0.06842329353094101,"850":2.785781145095825,"851":-0.8632684350013733,"852":-0.06390135735273361,"853":-0.9264174699783325,"854":-3.9028713703155518,"855":-1.2773100137710571,"856":-2.620588779449463,"857":3.579589605331421,"858":-2.0191490650177,"859":-2.7379367351531982,"860":1.0657297372817993,"861":1.9156566858291626,"862":-2.348909854888916,"863":1.5617586374282837,"864":-1.9760991334915161,"865":3.5371298789978027,"866":0.11568669974803925,"867":4.866475582122803,"868":0.12459468841552734,"869":-1.059251308441162,"870":1.2365916967391968,"871":0.05649523064494133,"872":3.6218225955963135,"873":-1.5700381994247437,"874":-1.2908426523208618,"875":-0.2802950441837311,"876":5.5302228927612305,"877":-0.25010761618614197,"878":1.4848793745040894,"879":8.913811683654785,"880":15.135114669799805,"881":2.5293736457824707,"882":-9.514881134033203,"883":-3.816831350326538,"884":1.6708035469055176,"885":0.7454507946968079,"886":3.1411728858947754,"887":1.1655473709106445,"888":5.339267730712891,"889":0.08397475630044937,"890":-0.4459192752838135,"891":-6.564836025238037,"892":-4.786323547363281,"893":1.5242730379104614,"894":-0.7111185193061829,"895":0.40422526001930237,"896":-1.1428563594818115,"897":6.876116752624512,"898":-4.990901470184326,"899":1.133960247039795,"900":-7.952393054962158,"901":-3.964197874069214,"902":-1.0426347255706787,"903":-0.20612944662570953,"904":8.308440208435059,"905":0.5930343270301819,"906":-1.3275928497314453,"907":1.8462508916854858,"908":2.499145984649658,"909":4.373111724853516,"910":-6.5301947593688965,"911":3.1930153369903564,"912":1.5350106954574585,"913":3.409130096435547,"914":-1.7885853052139282,"915":-1.979362964630127,"916":4.52810525894165,"917":2.6529552936553955,"918":2.8215606212615967,"919":3.9319608211517334,"920":-5.407048225402832,"921":4.329779148101807,"922":4.408127307891846,"923":3.7024118900299072,"924":1.138880968093872,"925":0.8839272260665894,"926":-0.31892120838165283,"927":1.694892406463623,"928":3.4792308807373047,"929":-2.8279287815093994,"930":-10.870786666870117,"931":-7.650899410247803,"932":-1.6715459823608398,"933":-1.7639505863189697,"934":1.539482831954956,"935":-6.760223388671875,"936":-10.902562141418457,"937":-2.831434965133667,"938":1.3262594938278198,"939":4.559741973876953,"940":2.612773895263672,"941":2.4985015392303467,"942":-0.7062962055206299,"943":3.9886374473571777,"944":-0.18692965805530548,"945":-0.6211636662483215,"946":0.8269234895706177,"947":5.265478610992432,"948":-1.5181889533996582,"949":-0.8036826252937317,"950":0.27129897475242615,"951":-0.4989231824874878,"952":-2.199850082397461,"953":1.0191313028335571,"954":-3.272435188293457,"955":-0.7663396596908569,"956":-0.7124454379081726,"957":0.03281109780073166,"958":-0.003282306483015418,"959":1.037786841392517,"960":0.2586132884025574,"961":-0.6056029796600342,"962":2.0987627506256104,"963":0.10608413815498352,"964":-0.8922252058982849,"965":-2.094552755355835,"966":-0.2514585554599762,"967":1.137526273727417,"968":0.7422118186950684,"969":-0.7879496812820435,"970":1.46560800075531,"971":1.9387913942337036,"972":1.5732190608978271,"973":-0.3258856534957886,"974":-1.9563206434249878,"975":3.811244010925293,"976":1.3198413848876953,"977":1.175997257232666,"978":-0.7716126441955566,"979":-2.9118127822875977,"980":2.5143380165100098,"981":1.8173627853393555,"982":5.003719329833984,"983":0.7468940615653992,"984":-0.02901644818484783,"985":1.4990501403808594,"986":2.47424578666687,"987":-1.0905362367630005,"988":0.24006430804729462,"989":-1.6652544736862183,"990":0.9901267290115356,"991":-2.4103009700775146,"992":0.8824331760406494,"993":0.3561305105686188,"994":1.4457554817199707,"995":2.109739065170288,"996":-0.08756604045629501,"997":0.19489619135856628,"998":-0.6316990256309509,"999":1.40249764919281,"1000":0.1663919985294342,"1001":-1.505411982536316,"1002":-1.2941862344741821,"1003":1.3947409391403198,"1004":0.27091893553733826,"1005":0.5214127898216248,"1006":-0.035162705928087234,"1007":-0.6974062919616699,"1008":-1.3663206100463867,"1009":-0.9400144815444946,"1010":2.7411749362945557,"1011":1.5779227018356323,"1012":-0.052910298109054565,"1013":0.831809401512146,"1014":-2.759528875350952,"1015":-2.62717342376709,"1016":-0.1963525116443634,"1017":2.103008985519409,"1018":-11.51191234588623,"1019":5.447878360748291,"1020":-0.9578487277030945,"1021":3.582549810409546,"1022":-14.622336387634277,"1023":-9.380110740661621,"1024":4.42859411239624,"1025":1.088983416557312,"1026":6.62354850769043,"1027":-2.269879102706909,"1028":10.787089347839355,"1029":-8.450952529907227,"1030":8.372265815734863,"1031":-8.75838851928711,"1032":13.355278015136719,"1033":1.993737816810608,"1034":-6.940475940704346,"1035":3.1988372802734375,"1036":5.197707176208496,"1037":-10.575502395629883,"1038":0.7353408336639404,"1039":-5.6755242347717285,"1040":-6.413760185241699,"1041":-3.9231936931610107,"1042":-1.5353758335113525,"1043":0.5549753308296204,"1044":-9.031113624572754,"1045":2.6834142208099365,"1046":-4.328278064727783,"1047":8.912938117980957,"1048":-9.509679794311523,"1049":-16.17874526977539,"1050":4.0413618087768555,"1051":9.109986305236816,"1052":9.032116889953613,"1053":9.874509811401367,"1054":-6.9018402099609375,"1055":1.64393949508667,"1056":1.843724012374878,"1057":7.149752140045166,"1058":3.5274319648742676,"1059":1.4455472230911255,"1060":-1.208904504776001,"1061":0.34063106775283813,"1062":12.989622116088867,"1063":-1.694596290588379,"1064":-3.412005662918091,"1065":3.989764451980591,"1066":11.604643821716309,"1067":11.746979713439941,"1068":-11.029226303100586,"1069":5.145174503326416,"1070":-5.5846757888793945,"1071":-7.080448627471924,"1072":-9.683205604553223,"1073":-3.7761709690093994,"1074":-4.155858516693115,"1075":-5.601196765899658,"1076":-0.5529181957244873,"1077":-12.251886367797852,"1078":-11.389148712158203,"1079":-5.481232166290283,"1080":5.1557464599609375,"1081":0.05886990576982498,"1082":1.706560730934143,"1083":-3.6573588848114014,"1084":-4.0883893966674805,"1085":-12.310590744018555,"1086":8.76047420501709,"1087":8.7484130859375,"1088":0.908568263053894,"1089":-6.271916389465332,"1090":5.784060001373291,"1091":12.502686500549316,"1092":-7.949584484100342,"1093":-12.168519020080566,"1094":3.334026575088501,"1095":-4.893581867218018,"1096":2.3509373664855957,"1097":9.613371849060059,"1098":2.5430359840393066,"1099":10.229145050048828,"1100":13.002761840820312,"1101":-5.291690826416016,"1102":-3.4826931953430176,"1103":2.2613515853881836,"1104":-1.356317162513733,"1105":-4.287614822387695,"1106":-3.17364501953125,"1107":-12.888593673706055,"1108":-1.89707350730896,"1109":1.4591045379638672,"1110":-5.470307350158691,"1111":-0.44293299317359924,"1112":-6.9297590255737305,"1113":-5.166833400726318,"1114":5.753896713256836,"1115":7.374410629272461,"1116":3.4356019496917725,"1117":0.05320942774415016,"1118":9.023691177368164,"1119":1.7184269428253174,"1120":-1.1809115409851074,"1121":-5.7727580070495605,"1122":11.883586883544922,"1123":12.033811569213867,"1124":-9.924777030944824,"1125":-4.445216178894043,"1126":3.0713047981262207,"1127":5.012134075164795,"1128":1.015643835067749,"1129":-5.802386283874512,"1130":2.629183053970337,"1131":-18.13211441040039,"1132":-7.862884521484375,"1133":-1.3346354961395264,"1134":2.4823193550109863,"1135":-2.0666418075561523,"1136":-0.3596954941749573,"1137":-5.639912128448486,"1138":3.091367244720459,"1139":8.881050109863281,"1140":12.066330909729004,"1141":11.174464225769043,"1142":-1.4494364261627197,"1143":12.111985206604004,"1144":7.465847969055176,"1145":7.513350486755371,"1146":15.685855865478516,"1147":5.334197521209717,"1148":-1.5422899723052979,"1149":-0.38812869787216187,"1150":-1.3034048080444336,"1151":6.1399617195129395,"1152":-1.3085981607437134,"1153":0.20853139460086823,"1154":-3.778463840484619,"1155":-1.6767672300338745,"1156":1.7307345867156982,"1157":3.5134706497192383,"1158":-0.1470019519329071,"1159":1.0380656719207764,"1160":2.3714821338653564,"1161":0.8940161466598511,"1162":-1.1575632095336914,"1163":-0.10110204666852951,"1164":-1.0067744255065918,"1165":0.7468526363372803,"1166":0.3224838674068451,"1167":1.1328356266021729,"1168":2.02036714553833,"1169":2.418231248855591,"1170":-0.48811963200569153,"1171":-1.8721188306808472,"1172":-0.49757713079452515,"1173":1.4866998195648193,"1174":-1.513535976409912,"1175":-0.35631754994392395,"1176":-3.7917592525482178,"1177":-1.5001084804534912,"1178":0.6386179327964783,"1179":1.044790506362915,"1180":-1.3037374019622803,"1181":-0.28678733110427856,"1182":-1.0309877395629883,"1183":1.2106519937515259,"1184":0.9383059740066528,"1185":1.5163686275482178,"1186":2.569183111190796,"1187":0.07256023585796356,"1188":0.6133836507797241,"1189":-1.0156786441802979,"1190":-1.619842290878296,"1191":0.22025589644908905,"1192":-1.2216613292694092,"1193":-0.5509853363037109,"1194":0.9662529826164246,"1195":-0.59947669506073,"1196":-0.6957127451896667,"1197":-2.732107400894165,"1198":-0.6147257089614868,"1199":-1.0932120084762573,"1200":-1.109134316444397,"1201":-0.21080666780471802,"1202":0.8791981935501099,"1203":1.1518139839172363,"1204":0.3718804717063904,"1205":0.04703603684902191,"1206":-0.34346893429756165,"1207":-0.7813595533370972,"1208":1.684785008430481,"1209":-1.353498101234436,"1210":0.7745662927627563,"1211":1.0282634496688843,"1212":0.009401751682162285,"1213":-1.4954769611358643,"1214":-1.0241107940673828,"1215":0.5039178729057312,"1216":-0.9952612519264221,"1217":1.1586929559707642,"1218":0.24848394095897675,"1219":0.8123642802238464,"1220":0.5040878653526306,"1221":-0.724044919013977,"1222":0.6768856048583984,"1223":1.1543158292770386,"1224":0.24675849080085754,"1225":-0.051176708191633224,"1226":0.04284447059035301,"1227":0.006187379360198975,"1228":-0.006248702295124531,"1229":0.0624920018017292,"1230":0.07088397443294525,"1231":-0.028464702889323235,"1232":0.021549591794610023,"1233":0.07606064528226852,"1234":0.016849923878908157,"1235":-0.009293838404119015,"1236":0.01637432724237442,"1237":-0.010395773686468601,"1238":-0.028207823634147644,"1239":0.05540332570672035,"1240":-0.022402063012123108,"1241":-0.06175084412097931,"1242":-0.07011715322732925,"1243":0.00020251669047866017,"1244":-0.06380496174097061,"1245":0.041548628360033035,"1246":-0.05312565714120865,"1247":-0.054645370692014694,"1248":-0.05444705858826637,"1249":0.019010554999113083,"1250":0.06737067550420761,"1251":-0.04872478172183037,"1252":0.04936709627509117,"1253":0.052118849009275436,"1254":-0.06435561180114746,"1255":-0.00036168479709886014,"1256":-0.04034339636564255,"1257":0.006286208052188158,"1258":-0.012702357955276966,"1259":-0.0007090754224918783}},"hiddenLayers":[{"inputMatrix":{"rows":20,"columns":35,"weights":{"0":-0.9891675710678101,"1":-0.7485602498054504,"2":1.9234483242034912,"3":-1.054751992225647,"4":1.865309476852417,"5":0.5373353362083435,"6":-0.40767669677734375,"7":-1.9707303047180176,"8":0.16003407537937164,"9":-1.5086820125579834,"10":2.267120122909546,"11":-1.1209728717803955,"12":-1.057391881942749,"13":2.343862295150757,"14":0.11751560121774673,"15":-1.868492603302002,"16":-1.725278377532959,"17":1.0481942892074585,"18":-0.7598547339439392,"19":0.10708092898130417,"20":0.6920731067657471,"21":0.9255800843238831,"22":-1.500549077987671,"23":1.2057937383651733,"24":-1.1466301679611206,"25":1.6335399150848389,"26":2.355756998062134,"27":0.8680477142333984,"28":2.8118321895599365,"29":0.9363904595375061,"30":0.12739138305187225,"31":3.008892774581909,"32":0.5345373153686523,"33":0.10312455147504807,"34":-0.17403824627399445,"35":0.6542894840240479,"36":3.7366769313812256,"37":1.8527586460113525,"38":-0.27463430166244507,"39":-0.779385507106781,"40":0.826778769493103,"41":0.9903473854064941,"42":0.32354000210762024,"43":-0.26517805457115173,"44":-1.5402586460113525,"45":-0.1266849786043167,"46":0.5266537666320801,"47":1.3504424095153809,"48":0.7830057740211487,"49":1.2733746767044067,"50":2.1459672451019287,"51":0.5520626902580261,"52":-0.972148597240448,"53":1.353454828262329,"54":0.47041425108909607,"55":-0.7492451071739197,"56":-0.10487383604049683,"57":-0.10398267209529877,"58":-0.8419064879417419,"59":1.0825859308242798,"60":-0.6207292079925537,"61":0.12011855095624924,"62":-1.788413166999817,"63":-2.4902193546295166,"64":0.12403030693531036,"65":0.8572736978530884,"66":-0.6757473945617676,"67":-0.2122313231229782,"68":0.5004412531852722,"69":-0.8743441700935364,"70":1.298627257347107,"71":0.22764919698238373,"72":1.9536011219024658,"73":0.27280113101005554,"74":0.8418007493019104,"75":2.633341073989868,"76":0.5576760768890381,"77":-1.1574630737304688,"78":-0.5313804149627686,"79":-1.261506199836731,"80":1.2478668689727783,"81":-0.470899760723114,"82":-0.7390321493148804,"83":0.771438717842102,"84":1.3541481494903564,"85":-0.7119545936584473,"86":-1.7080837488174438,"87":-2.641897678375244,"88":0.44042280316352844,"89":1.1321598291397095,"90":1.105903148651123,"91":-1.246469259262085,"92":1.1485412120819092,"93":-0.2582348883152008,"94":-0.8850430846214294,"95":-0.6284213066101074,"96":1.238659143447876,"97":-0.9742436408996582,"98":0.5637854337692261,"99":0.8138815760612488,"100":0.7604103088378906,"101":0.6199368834495544,"102":-1.2257258892059326,"103":0.9071693420410156,"104":-0.3463256061077118,"105":-0.27860966324806213,"106":-0.3736145496368408,"107":1.9120901823043823,"108":1.892561674118042,"109":0.1843668818473816,"110":2.5841312408447266,"111":1.2157663106918335,"112":-1.3067892789840698,"113":1.1712555885314941,"114":1.6416198015213013,"115":0.017809268087148666,"116":-0.7699892520904541,"117":-0.35092291235923767,"118":0.1312490701675415,"119":1.7212828397750854,"120":0.31207942962646484,"121":0.44468146562576294,"122":0.03133994713425636,"123":-1.216931700706482,"124":-0.2549041211605072,"125":-1.533305287361145,"126":-2.434352159500122,"127":0.15979599952697754,"128":0.3561791777610779,"129":-0.3245176076889038,"130":-0.9108718037605286,"131":-1.1169214248657227,"132":0.5662775635719299,"133":-0.11506146192550659,"134":0.7019075751304626,"135":1.5086978673934937,"136":-0.5911816358566284,"137":-0.04997711628675461,"138":0.5952789187431335,"139":-0.13473984599113464,"140":-1.6921361684799194,"141":0.00253582326695323,"142":-0.9567906260490417,"143":-1.2469135522842407,"144":0.0520484633743763,"145":0.562608003616333,"146":-0.01832449994981289,"147":-0.5890973210334778,"148":1.0476245880126953,"149":1.0056358575820923,"150":-0.47403955459594727,"151":1.1887253522872925,"152":0.760334849357605,"153":0.2156607210636139,"154":0.046280037611722946,"155":0.7503134608268738,"156":-1.1074495315551758,"157":-0.3707316815853119,"158":-0.8140785098075867,"159":-0.3024446368217468,"160":-1.2303026914596558,"161":-0.3776356875896454,"162":-1.7147270441055298,"163":0.7123678922653198,"164":-0.17517347633838654,"165":-0.34850355982780457,"166":-0.8414779305458069,"167":-0.23622626066207886,"168":0.6196475028991699,"169":-0.9431672692298889,"170":-2.340481758117676,"171":-1.2827589511871338,"172":0.41939735412597656,"173":-0.6411427855491638,"174":-1.0288801193237305,"175":-0.05746885761618614,"176":2.6333436965942383,"177":1.5925726890563965,"178":0.7627419829368591,"179":0.07212847471237183,"180":0.22197821736335754,"181":1.386551022529602,"182":-0.7048469185829163,"183":-2.325730085372925,"184":-1.1335420608520508,"185":-1.2034189701080322,"186":-0.6245123744010925,"187":2.231490135192871,"188":1.5869566202163696,"189":-0.19449609518051147,"190":1.7936887741088867,"191":0.020823221653699875,"192":2.77065110206604,"193":2.807621479034424,"194":0.2291366010904312,"195":-0.7613934278488159,"196":-0.8332765102386475,"197":-0.2295512557029724,"198":-1.3079086542129517,"199":0.26333269476890564,"200":-0.7530198693275452,"201":0.8990631699562073,"202":-1.4001444578170776,"203":-1.0851843357086182,"204":2.319570302963257,"205":1.6344408988952637,"206":-0.58041912317276,"207":-1.752806544303894,"208":-0.5964394211769104,"209":-0.3814721703529358,"210":0.7536938190460205,"211":0.9927901029586792,"212":0.8344499468803406,"213":2.0794103145599365,"214":-0.417140394449234,"215":0.7326980233192444,"216":2.3166909217834473,"217":0.480131059885025,"218":-2.78271222114563,"219":2.1548097133636475,"220":-0.0035042371600866318,"221":0.001537427888251841,"222":1.518744707107544,"223":-0.22244666516780853,"224":1.44527268409729,"225":0.15325959026813507,"226":0.12832871079444885,"227":0.40220949053764343,"228":0.5655374526977539,"229":1.950965404510498,"230":-1.3539485931396484,"231":-1.8424525260925293,"232":0.19393889605998993,"233":-1.55836820602417,"234":-0.40847548842430115,"235":-1.2680785655975342,"236":-1.0281356573104858,"237":-2.252113103866577,"238":-0.5129208564758301,"239":-0.7585480809211731,"240":2.1449215412139893,"241":-0.08886291831731796,"242":-2.228179931640625,"243":0.7876349687576294,"244":0.3912544846534729,"245":0.4533745348453522,"246":-1.7122251987457275,"247":-1.7738101482391357,"248":-2.6403610706329346,"249":-1.2549386024475098,"250":-2.197549819946289,"251":-0.48371219635009766,"252":0.7617932558059692,"253":1.038812518119812,"254":-0.8848201632499695,"255":-1.8691120147705078,"256":-0.01434952113777399,"257":-2.3571698665618896,"258":-0.020747562870383263,"259":-0.3122304379940033,"260":-1.0503685474395752,"261":0.5692804455757141,"262":-0.4269384741783142,"263":-1.9256677627563477,"264":-0.5868636965751648,"265":0.6292392611503601,"266":-0.4105969965457916,"267":1.426413655281067,"268":0.945095419883728,"269":1.203598141670227,"270":-0.42393237352371216,"271":1.4901772737503052,"272":2.5143849849700928,"273":2.6192493438720703,"274":-0.15728406608104706,"275":0.4683408737182617,"276":2.5038530826568604,"277":1.1770797967910767,"278":1.065246820449829,"279":0.5301622748374939,"280":0.40136778354644775,"281":1.4724334478378296,"282":1.4510419368743896,"283":3.5295352935791016,"284":-0.03632192313671112,"285":1.330914855003357,"286":1.0426530838012695,"287":0.8096539378166199,"288":-2.0201172828674316,"289":-0.13464438915252686,"290":0.5535817742347717,"291":-0.1939690113067627,"292":0.8822159171104431,"293":-0.2680565416812897,"294":0.35817721486091614,"295":1.5906705856323242,"296":1.0272890329360962,"297":0.6337987184524536,"298":0.5855774283409119,"299":2.7959306240081787,"300":0.49657896161079407,"301":-0.8133044838905334,"302":-0.48768481612205505,"303":-1.1739377975463867,"304":0.079384446144104,"305":-0.976733386516571,"306":1.0849074125289917,"307":-2.6968421936035156,"308":-3.0799925327301025,"309":1.1992061138153076,"310":1.16172456741333,"311":0.463998019695282,"312":-2.293675184249878,"313":0.3519589602947235,"314":0.34725651144981384,"315":-1.4575729370117188,"316":-0.6237590312957764,"317":-1.0468894243240356,"318":-1.6837953329086304,"319":1.0767697095870972,"320":-0.39060211181640625,"321":-1.4843508005142212,"322":-0.6424369215965271,"323":2.018686056137085,"324":0.3029792308807373,"325":-0.9564508199691772,"326":0.07245898246765137,"327":-1.277820110321045,"328":0.2263161540031433,"329":1.0004631280899048,"330":-1.1623338460922241,"331":-1.179455280303955,"332":-1.1703795194625854,"333":-0.3423060476779938,"334":-2.8944716453552246,"335":-0.5314633250236511,"336":-0.6728572845458984,"337":0.975671648979187,"338":0.5980551838874817,"339":-0.0833873301744461,"340":0.13621123135089874,"341":-0.6786915063858032,"342":2.5444581508636475,"343":1.7501606941223145,"344":-1.0643854141235352,"345":0.2117922455072403,"346":0.6693424582481384,"347":2.10707950592041,"348":1.4765949249267578,"349":0.605167031288147,"350":0.5113614201545715,"351":1.9259064197540283,"352":0.2692576050758362,"353":-0.27589553594589233,"354":0.30812352895736694,"355":-0.21547165513038635,"356":0.41777685284614563,"357":0.6585001349449158,"358":-0.8087583780288696,"359":0.3539353311061859,"360":0.5729409456253052,"361":-0.6532812118530273,"362":3.198864698410034,"363":1.3984311819076538,"364":0.4347900152206421,"365":2.36458420753479,"366":0.3816990256309509,"367":1.899783968925476,"368":2.7021446228027344,"369":0.5760606527328491,"370":0.23877662420272827,"371":-0.4402063190937042,"372":-1.0801210403442383,"373":-0.7832635045051575,"374":-1.8764361143112183,"375":-0.6868980526924133,"376":-0.6256496906280518,"377":-0.8982146978378296,"378":-1.3113703727722168,"379":-0.8877776265144348,"380":0.28555241227149963,"381":1.0498155355453491,"382":-0.40414151549339294,"383":-1.0483578443527222,"384":-0.8670914769172668,"385":-1.19295334815979,"386":1.3259435892105103,"387":-0.2131909430027008,"388":-1.606110692024231,"389":1.951040267944336,"390":0.9854786396026611,"391":0.07050976902246475,"392":-0.521756649017334,"393":0.09811639785766602,"394":0.773566484451294,"395":-0.8243992328643799,"396":2.0112578868865967,"397":1.024734377861023,"398":0.7480524182319641,"399":-0.06816335767507553,"400":1.035267949104309,"401":-1.3737139701843262,"402":-1.231474757194519,"403":1.1834462881088257,"404":-2.6376709938049316,"405":-0.5126880407333374,"406":-0.6475803852081299,"407":0.4231244921684265,"408":0.7628265023231506,"409":0.1919662207365036,"410":-1.271820306777954,"411":-3.8724496364593506,"412":-0.19549116492271423,"413":0.5729794502258301,"414":0.20866285264492035,"415":-1.0086650848388672,"416":-3.5974295139312744,"417":0.22341769933700562,"418":-0.02909240499138832,"419":-0.7731291055679321,"420":-0.7066368460655212,"421":-0.3887074589729309,"422":1.5589629411697388,"423":1.3354138135910034,"424":-0.05455992743372917,"425":1.2329000234603882,"426":-1.1956812143325806,"427":0.37953218817710876,"428":-0.8968747854232788,"429":-1.2753700017929077,"430":-0.7183229327201843,"431":0.22907918691635132,"432":-2.311551332473755,"433":-0.5111258029937744,"434":1.7969813346862793,"435":-0.5654264688491821,"436":-0.30331021547317505,"437":-1.4306749105453491,"438":-0.2255135476589203,"439":0.33173882961273193,"440":-0.27915555238723755,"441":0.911585807800293,"442":0.6855851411819458,"443":-0.21362537145614624,"444":1.5080064535140991,"445":0.002713465364649892,"446":1.434285283088684,"447":0.451558917760849,"448":1.571557879447937,"449":1.985345482826233,"450":-0.190638467669487,"451":0.7439734935760498,"452":-0.511188268661499,"453":-0.09451540559530258,"454":2.045886993408203,"455":0.7499979138374329,"456":-0.6368194818496704,"457":-0.9237449169158936,"458":-1.1380860805511475,"459":1.4237364530563354,"460":0.46967050433158875,"461":-0.06939345598220825,"462":-2.772535800933838,"463":1.6358071565628052,"464":0.6563940644264221,"465":-0.36204275488853455,"466":1.3097573518753052,"467":-0.6690708994865417,"468":-0.4866928160190582,"469":-1.2628493309020996,"470":-1.9794219732284546,"471":-1.118280291557312,"472":0.009921564720571041,"473":-2.114941120147705,"474":-0.3121272921562195,"475":0.45851510763168335,"476":-0.3010272681713104,"477":0.7429365515708923,"478":0.10245342552661896,"479":-1.0053791999816895,"480":-0.02053949236869812,"481":-2.4064931869506836,"482":1.8972718715667725,"483":0.9173361659049988,"484":-0.35701707005500793,"485":-1.5781090259552002,"486":-1.4896354675292969,"487":1.3825432062149048,"488":-1.118936538696289,"489":-0.7458992600440979,"490":-2.8439252376556396,"491":0.9247885942459106,"492":0.3789915442466736,"493":0.20835743844509125,"494":0.3299795985221863,"495":0.5650839805603027,"496":0.7354468107223511,"497":-1.281855583190918,"498":-0.7226328253746033,"499":0.6133865118026733,"500":-1.0953681468963623,"501":0.05751093849539757,"502":-0.12967033684253693,"503":-0.06118030473589897,"504":0.4080180525779724,"505":0.5203962922096252,"506":-1.1026321649551392,"507":-0.24348941445350647,"508":-0.30930033326148987,"509":-3.0515999794006348,"510":-0.5408661365509033,"511":-0.10544199496507645,"512":-0.7985793948173523,"513":0.10357324779033661,"514":0.8187150955200195,"515":-0.34785616397857666,"516":-1.36541748046875,"517":0.4184190034866333,"518":-0.3446759581565857,"519":0.9963294267654419,"520":-0.832086980342865,"521":-1.001062273979187,"522":-0.6540102958679199,"523":-0.14913664758205414,"524":-0.06800834089517593,"525":-1.6389049291610718,"526":-0.48623594641685486,"527":-1.4414547681808472,"528":1.0152649879455566,"529":1.6109929084777832,"530":-2.1643898487091064,"531":-1.1064529418945312,"532":0.09364604949951172,"533":0.4501204192638397,"534":-0.012013018131256104,"535":1.594706654548645,"536":-2.223073959350586,"537":0.06699609756469727,"538":-0.3981514871120453,"539":-1.01011061668396,"540":-1.3338332176208496,"541":0.7830163836479187,"542":1.085353136062622,"543":0.2133583128452301,"544":-0.5323280692100525,"545":0.4647388756275177,"546":1.8745098114013672,"547":0.1886570155620575,"548":-0.6044569611549377,"549":-1.2043319940567017,"550":2.2158048152923584,"551":-0.18346361815929413,"552":1.823789358139038,"553":0.15996797382831573,"554":1.2549469470977783,"555":-0.14082886278629303,"556":-0.05369052290916443,"557":0.3086963891983032,"558":-0.6609774231910706,"559":0.6589346528053284,"560":-1.5376626253128052,"561":0.06713742762804031,"562":0.5593518018722534,"563":-1.9472486972808838,"564":0.5110720992088318,"565":-1.2815626859664917,"566":-0.048633769154548645,"567":-1.0792996883392334,"568":0.33617886900901794,"569":2.054291248321533,"570":-0.3685566782951355,"571":1.4839214086532593,"572":0.9880087971687317,"573":0.7174758911132812,"574":0.08220499008893967,"575":0.6884671449661255,"576":-1.6155387163162231,"577":2.3000283241271973,"578":-0.027409318834543228,"579":-2.2021520137786865,"580":-1.5322353839874268,"581":0.0069116102531552315,"582":-2.6511013507843018,"583":-0.166663259267807,"584":-0.1551441252231598,"585":0.05842757970094681,"586":-1.07794988155365,"587":-0.16871951520442963,"588":0.9121940732002258,"589":-0.7033464908599854,"590":0.9913365244865417,"591":-0.46512308716773987,"592":1.2577073574066162,"593":-0.24715639650821686,"594":-2.09372878074646,"595":-1.1307796239852905,"596":0.49692484736442566,"597":2.512830972671509,"598":-0.7461411952972412,"599":2.2018120288848877,"600":1.1178600788116455,"601":-0.7995042204856873,"602":-1.872773289680481,"603":-0.5398046374320984,"604":1.0640748739242554,"605":1.4875426292419434,"606":-0.893058717250824,"607":-0.8588547110557556,"608":2.192486524581909,"609":-1.7504514455795288,"610":0.16053715348243713,"611":-2.2628135681152344,"612":1.9976227283477783,"613":0.399891197681427,"614":0.313528448343277,"615":-0.31765997409820557,"616":0.24099154770374298,"617":-2.5613176822662354,"618":1.2152174711227417,"619":-0.8763275146484375,"620":0.47662410140037537,"621":1.4064230918884277,"622":-1.0385180711746216,"623":-0.17488138377666473,"624":-1.0035040378570557,"625":-0.9324192404747009,"626":0.5020453333854675,"627":-0.49312952160835266,"628":-2.6825332641601562,"629":-1.7111631631851196,"630":1.1174719333648682,"631":-0.6146181225776672,"632":0.3671778440475464,"633":0.09268950670957565,"634":1.1423931121826172,"635":1.9932432174682617,"636":-0.2789861261844635,"637":0.1251111626625061,"638":0.5618850588798523,"639":-1.1238821744918823,"640":1.3514933586120605,"641":0.47674667835235596,"642":-0.5856558680534363,"643":0.612933337688446,"644":0.689963161945343,"645":-0.8642099499702454,"646":-0.3913702666759491,"647":-1.4902372360229492,"648":0.2172788828611374,"649":-0.16683518886566162,"650":-0.009752495214343071,"651":-0.29873794317245483,"652":1.063425898551941,"653":0.30406731367111206,"654":-0.8104827404022217,"655":-0.0847533568739891,"656":-0.4859987199306488,"657":0.0427703820168972,"658":0.39385518431663513,"659":0.5628426671028137,"660":0.5335068106651306,"661":-0.15930412709712982,"662":0.40754732489585876,"663":0.6397103071212769,"664":1.224035382270813,"665":-0.39151450991630554,"666":-0.8460467457771301,"667":-1.001339077949524,"668":-1.2074775695800781,"669":-1.6322613954544067,"670":0.013195416890084743,"671":-0.5739291906356812,"672":0.41099026799201965,"673":0.21604564785957336,"674":0.7187891006469727,"675":-0.9233227372169495,"676":1.214940071105957,"677":0.06482423096895218,"678":-0.2430044710636139,"679":-0.30015262961387634,"680":0.3210468292236328,"681":-1.1738115549087524,"682":-1.7368206977844238,"683":-0.34639817476272583,"684":0.7773826122283936,"685":-1.2703875303268433,"686":-0.1648237407207489,"687":-0.7985926270484924,"688":-0.11896105110645294,"689":0.6347098350524902,"690":-0.4875616133213043,"691":-0.25673049688339233,"692":-0.7650381326675415,"693":-0.13705722987651825,"694":-0.7807902097702026,"695":-1.9494186639785767,"696":-2.250981569290161,"697":-0.12998047471046448,"698":-0.21320700645446777,"699":0.2631073594093323}},"inputHidden":{"rows":20,"columns":20,"weights":{"0":-0.3908054828643799,"1":0.04819120839238167,"2":0.276991605758667,"3":0.3316587209701538,"4":-0.6755852103233337,"5":0.7530137896537781,"6":1.3300836086273193,"7":0.16738329827785492,"8":-1.6010445356369019,"9":0.98338383436203,"10":1.0163111686706543,"11":-1.3922730684280396,"12":1.6161773204803467,"13":0.47889646887779236,"14":0.31036487221717834,"15":1.1673696041107178,"16":0.49243873357772827,"17":-0.6945090293884277,"18":-0.4370174705982208,"19":0.41709664463996887,"20":-0.5158019065856934,"21":0.385317862033844,"22":-1.6228924989700317,"23":-0.6685001850128174,"24":0.27330055832862854,"25":-0.38910311460494995,"26":-1.5173437595367432,"27":0.7792074084281921,"28":0.36688342690467834,"29":0.6373602747917175,"30":-0.9146389961242676,"31":-0.5194564461708069,"32":0.01805957406759262,"33":0.3343164324760437,"34":0.8836828470230103,"35":0.8862331509590149,"36":-1.240727186203003,"37":0.9881641268730164,"38":-1.4665051698684692,"39":-0.8170627355575562,"40":2.676386833190918,"41":-1.3746334314346313,"42":-2.007615804672241,"43":1.9453071355819702,"44":-2.097243309020996,"45":1.883536696434021,"46":2.9924967288970947,"47":1.4207786321640015,"48":0.12662772834300995,"49":1.3855218887329102,"50":1.4930732250213623,"51":-0.3296906352043152,"52":1.2554682493209839,"53":1.1155256032943726,"54":0.7852518558502197,"55":4.646779537200928,"56":1.8871080875396729,"57":-1.9755260944366455,"58":-3.886430025100708,"59":-0.6587280631065369,"60":1.5638880729675293,"61":1.5782815217971802,"62":-2.933398723602295,"63":-0.37324076890945435,"64":-0.7431554794311523,"65":3.8004302978515625,"66":-1.2729923725128174,"67":-0.5864376425743103,"68":1.0856119394302368,"69":1.1224385499954224,"70":-3.812896966934204,"71":-2.0760421752929688,"72":1.3106642961502075,"73":-0.8672441244125366,"74":-1.3462263345718384,"75":0.5680461525917053,"76":-0.8492221832275391,"77":-1.7205829620361328,"78":-1.828401803970337,"79":-0.7643639445304871,"80":2.2528905868530273,"81":-2.6840953826904297,"82":-2.1582791805267334,"83":-1.2011394500732422,"84":-1.6777675151824951,"85":2.89524245262146,"86":0.14198805391788483,"87":2.5466647148132324,"88":-2.030470848083496,"89":1.4129307270050049,"90":-1.1943951845169067,"91":-5.687156677246094,"92":-1.7917063236236572,"93":2.2031641006469727,"94":3.215104103088379,"95":-1.508147120475769,"96":-6.195376396179199,"97":0.7223601937294006,"98":4.270261764526367,"99":1.3262078762054443,"100":0.2826983630657196,"101":-0.8205715417861938,"102":1.5340632200241089,"103":-0.7763078212738037,"104":-0.3314085900783539,"105":0.9497452974319458,"106":-0.2051929533481598,"107":0.07586067914962769,"108":-1.0396226644515991,"109":0.7516887784004211,"110":0.45180216431617737,"111":-0.16160963475704193,"112":0.5337917804718018,"113":-2.8395237922668457,"114":-0.4486590623855591,"115":1.9737844467163086,"116":0.3454071581363678,"117":0.4852549433708191,"118":-0.2562633454799652,"119":1.2322750091552734,"120":0.9322689771652222,"121":-1.264929175376892,"122":1.3267054557800293,"123":-1.7365446090698242,"124":0.21709544956684113,"125":3.052663803100586,"126":1.4810740947723389,"127":3.774449110031128,"128":1.2544265985488892,"129":3.365190267562866,"130":0.29898402094841003,"131":-2.41494083404541,"132":4.1914963722229,"133":3.6734304428100586,"134":-1.1991775035858154,"135":5.041001319885254,"136":-0.20709070563316345,"137":2.5744309425354004,"138":-2.102357864379883,"139":-1.9714101552963257,"140":-0.971685528755188,"141":0.5768728852272034,"142":0.045935600996017456,"143":0.061985988169908524,"144":0.7908704876899719,"145":-0.560008704662323,"146":0.32804274559020996,"147":1.6711505651474,"148":0.7972604036331177,"149":1.2829310894012451,"150":-0.06831382215023041,"151":0.9444323182106018,"152":-2.9149622917175293,"153":0.24230359494686127,"154":-0.12222512066364288,"155":0.7519209384918213,"156":-0.8395577073097229,"157":-0.6740624308586121,"158":-2.233196973800659,"159":0.6845017671585083,"160":1.4215314388275146,"161":-2.2539143562316895,"162":-1.4065375328063965,"163":0.88267582654953,"164":-2.1790671348571777,"165":0.18573899567127228,"166":-0.2899340093135834,"167":-1.302329182624817,"168":1.2314674854278564,"169":-0.5030356049537659,"170":-0.15630103647708893,"171":2.0590717792510986,"172":-0.026464339345693588,"173":-2.6761245727539062,"174":-1.4680122137069702,"175":0.9794958233833313,"176":-0.22751347720623016,"177":-0.17146164178848267,"178":-1.211684226989746,"179":1.029884934425354,"180":-0.3591656982898712,"181":0.41721639037132263,"182":1.4485173225402832,"183":0.3042154610157013,"184":-0.04656774550676346,"185":-1.3376643657684326,"186":0.6953696012496948,"187":1.2091361284255981,"188":-0.07225735485553741,"189":-0.09880905598402023,"190":1.2621859312057495,"191":-0.09449724107980728,"192":-0.3978927433490753,"193":1.5220067501068115,"194":1.4037418365478516,"195":0.5668007135391235,"196":-2.9942073822021484,"197":1.2193779945373535,"198":-0.8182914853096008,"199":-0.1124817356467247,"200":3.7309787273406982,"201":2.842302083969116,"202":3.937136173248291,"203":-2.447983980178833,"204":-2.8300464153289795,"205":0.8106873035430908,"206":0.6460360288619995,"207":-0.6574486494064331,"208":3.238785982131958,"209":0.40753796696662903,"210":4.157632827758789,"211":2.5512781143188477,"212":2.1963913440704346,"213":2.1062355041503906,"214":0.48132333159446716,"215":2.089020013809204,"216":-4.438643932342529,"217":1.0688799619674683,"218":-2.5784826278686523,"219":-2.131207227706909,"220":3.8501267433166504,"221":-3.0591986179351807,"222":2.395860195159912,"223":0.9044291973114014,"224":-2.492471218109131,"225":3.359180450439453,"226":4.136633396148682,"227":0.14264486730098724,"228":-2.11700177192688,"229":-0.6694936752319336,"230":0.5235694646835327,"231":-1.2865408658981323,"232":-0.3412739932537079,"233":1.6087367534637451,"234":0.3985520005226135,"235":-2.212528705596924,"236":-1.4382389783859253,"237":1.4825912714004517,"238":2.0128116607666016,"239":-0.596560537815094,"240":-3.0234711170196533,"241":-0.6321521401405334,"242":-2.026580810546875,"243":1.6898597478866577,"244":-1.0869640111923218,"245":1.834883451461792,"246":1.2730460166931152,"247":1.7272014617919922,"248":-1.4471392631530762,"249":1.5512973070144653,"250":-4.787595748901367,"251":-3.9736640453338623,"252":-2.316199541091919,"253":2.8394525051116943,"254":2.852743625640869,"255":-0.30612021684646606,"256":-1.579429268836975,"257":1.1286672353744507,"258":3.7603890895843506,"259":-0.7981165647506714,"260":-1.9570064544677734,"261":-3.7659413814544678,"262":-4.208069801330566,"263":-1.7566800117492676,"264":0.9268030524253845,"265":-1.8353052139282227,"266":-2.8966119289398193,"267":-0.5010547637939453,"268":-2.1129212379455566,"269":-1.4298791885375977,"270":-4.2531609535217285,"271":2.213958501815796,"272":-5.84684944152832,"273":-1.4634027481079102,"274":-1.6638128757476807,"275":-0.8986903429031372,"276":3.9193296432495117,"277":-0.4781191349029541,"278":0.5397752523422241,"279":-2.090207576751709,"280":3.6492388248443604,"281":-3.1034421920776367,"282":-2.878267288208008,"283":0.6367087960243225,"284":3.204894542694092,"285":-1.5358017683029175,"286":0.002150734420865774,"287":-3.936842441558838,"288":-2.5381085872650146,"289":-3.930779457092285,"290":-2.4059455394744873,"291":-0.09066502004861832,"292":-1.2087382078170776,"293":-3.695237159729004,"294":-2.642566442489624,"295":-0.6565091609954834,"296":-2.9802560806274414,"297":0.26046299934387207,"298":2.4471065998077393,"299":3.5102927684783936,"300":-2.095794439315796,"301":-3.8221752643585205,"302":0.9524447321891785,"303":2.5290169715881348,"304":4.754410266876221,"305":1.4011026620864868,"306":-0.07671397924423218,"307":-2.991626024246216,"308":-2.4336767196655273,"309":-2.9884707927703857,"310":0.22380661964416504,"311":3.1428656578063965,"312":-0.6641596555709839,"313":-0.6479946374893188,"314":-5.075760364532471,"315":0.3457501232624054,"316":2.383345365524292,"317":3.2578845024108887,"318":0.4865477383136749,"319":0.9783387184143066,"320":-0.12753038108348846,"321":2.2116036415100098,"322":-2.214278221130371,"323":-2.2273752689361572,"324":-1.5073412656784058,"325":-0.4380645155906677,"326":-3.3215603828430176,"327":0.6264827847480774,"328":1.4804539680480957,"329":0.7559260129928589,"330":0.9819185733795166,"331":-0.1165827214717865,"332":1.6548634767532349,"333":2.1387152671813965,"334":4.862208843231201,"335":0.009900175034999847,"336":-1.9607737064361572,"337":0.9951753616333008,"338":-2.45697021484375,"339":-2.9692280292510986,"340":2.727168083190918,"341":-0.21376155316829681,"342":-2.2252132892608643,"343":-0.2206801027059555,"344":-1.0580382347106934,"345":0.554036021232605,"346":1.537269115447998,"347":-2.0996317863464355,"348":0.0797940269112587,"349":-3.5251123905181885,"350":-1.3390554189682007,"351":-2.16117525100708,"352":2.6375575065612793,"353":-0.947059690952301,"354":-1.1808584928512573,"355":-0.3706132471561432,"356":-0.30503496527671814,"357":-0.8991072177886963,"358":2.707573890686035,"359":-0.30204877257347107,"360":-0.17443187534809113,"361":-3.2049238681793213,"362":-0.6310091018676758,"363":2.9551162719726562,"364":-0.39814335107803345,"365":2.6415622234344482,"366":0.4051862061023712,"367":2.1545722484588623,"368":-2.8737096786499023,"369":2.4188883304595947,"370":-5.293725490570068,"371":-2.382164239883423,"372":1.5690728425979614,"373":3.2584502696990967,"374":-2.455470085144043,"375":1.4537708759307861,"376":1.4618637561798096,"377":0.942034900188446,"378":-1.4880187511444092,"379":-0.34400996565818787,"380":2.2573957443237305,"381":-0.5089997053146362,"382":1.1976354122161865,"383":-0.9691179990768433,"384":-3.1696455478668213,"385":4.442680358886719,"386":2.825282573699951,"387":-0.3573160469532013,"388":-0.9976754188537598,"389":3.4143195152282715,"390":-3.8847360610961914,"391":-4.146393775939941,"392":4.001750946044922,"393":1.4661505222320557,"394":0.13449721038341522,"395":-0.20743320882320404,"396":0.4249906837940216,"397":2.2177212238311768,"398":-0.5520458817481995,"399":-2.883704662322998}},"inputBias":{"rows":20,"columns":1,"weights":{"0":-0.5647280812263489,"1":-0.2028358280658722,"2":-1.573603868484497,"3":-0.9001252055168152,"4":-1.3976657390594482,"5":1.711568832397461,"6":-1.4130809307098389,"7":-0.5092578530311584,"8":-1.1041556596755981,"9":-0.0476071760058403,"10":0.008628269657492638,"11":0.15500394999980927,"12":0.7152073979377747,"13":-0.5232192277908325,"14":0.1604011505842209,"15":2.365994930267334,"16":-0.532692015171051,"17":0.20041966438293457,"18":0.27129068970680237,"19":-1.5702362060546875}},"forgetMatrix":{"rows":20,"columns":35,"weights":{"0":1.6261622905731201,"1":-0.8283500075340271,"2":-0.9550297260284424,"3":-1.1573338508605957,"4":-1.7381072044372559,"5":-2.3503103256225586,"6":-1.7604055404663086,"7":1.9358466863632202,"8":0.3642781674861908,"9":-0.6854919195175171,"10":1.9374459981918335,"11":-1.1043537855148315,"12":0.7962301969528198,"13":-0.5356144309043884,"14":-1.6802006959915161,"15":1.4465577602386475,"16":1.897692084312439,"17":0.44091862440109253,"18":-0.9772513508796692,"19":-0.2528519630432129,"20":-0.6973084807395935,"21":2.0523152351379395,"22":0.5332496166229248,"23":1.539954423904419,"24":2.8130156993865967,"25":1.4889873266220093,"26":1.4773530960083008,"27":0.6054614186286926,"28":-0.28575024008750916,"29":-2.6348512172698975,"30":1.1869651079177856,"31":0.3043312430381775,"32":1.0036709308624268,"33":0.8242086172103882,"34":0.4019283056259155,"35":0.5447725057601929,"36":-0.13204708695411682,"37":-1.6144506931304932,"38":-1.7174999713897705,"39":0.32349956035614014,"40":0.39534100890159607,"41":-1.1404114961624146,"42":-0.4243689477443695,"43":-1.1380293369293213,"44":1.5148881673812866,"45":0.11816643178462982,"46":4.207406997680664,"47":-0.8328251242637634,"48":-0.16121068596839905,"49":-1.2753089666366577,"50":-0.0859907791018486,"51":-1.2058223485946655,"52":0.06014861539006233,"53":1.550884485244751,"54":-0.33655068278312683,"55":0.008765480481088161,"56":0.4350096583366394,"57":2.0820472240448,"58":-0.24353308975696564,"59":0.5627002120018005,"60":-0.18845507502555847,"61":-1.1240030527114868,"62":-0.33251145482063293,"63":-0.6897916197776794,"64":0.5071008205413818,"65":-1.0077334642410278,"66":-0.6970862150192261,"67":-0.44746875762939453,"68":-1.222251057624817,"69":0.43605583906173706,"70":1.2443599700927734,"71":-0.7685146331787109,"72":-1.5227516889572144,"73":1.7341331243515015,"74":-0.2754548490047455,"75":0.24433834850788116,"76":0.9729195833206177,"77":1.2366758584976196,"78":0.026133868843317032,"79":-0.16900663077831268,"80":0.5105112195014954,"81":-0.3652888238430023,"82":0.5423980355262756,"83":-1.4489980936050415,"84":0.5275431871414185,"85":-0.52146315574646,"86":1.2083642482757568,"87":-2.6656150817871094,"88":0.4972609281539917,"89":1.181065559387207,"90":1.2963885068893433,"91":-0.3454819321632385,"92":2.837599992752075,"93":0.25370290875434875,"94":1.4248839616775513,"95":-0.9075223207473755,"96":0.282230943441391,"97":1.4896491765975952,"98":0.47219735383987427,"99":1.9804325103759766,"100":-0.8140902519226074,"101":0.13826391100883484,"102":0.38893529772758484,"103":1.012131929397583,"104":1.8914297819137573,"105":-0.07919144630432129,"106":1.4725288152694702,"107":0.797039806842804,"108":-1.911323070526123,"109":0.4146740138530731,"110":1.480621099472046,"111":-0.5568544268608093,"112":-0.2877715826034546,"113":-0.8080212473869324,"114":0.07035882025957108,"115":-1.40742826461792,"116":0.6272828578948975,"117":0.41919055581092834,"118":-0.8053404688835144,"119":-2.07722806930542,"120":1.5802626609802246,"121":-0.4587949514389038,"122":1.227335810661316,"123":-0.3237546980381012,"124":0.5641764402389526,"125":-1.0406897068023682,"126":1.6787843704223633,"127":1.3348605632781982,"128":-0.21001677215099335,"129":-0.0706000104546547,"130":0.12201064825057983,"131":0.8734291195869446,"132":-0.6820505857467651,"133":-1.3877794742584229,"134":-1.844030737876892,"135":-0.6037405133247375,"136":-0.6074902415275574,"137":1.1589996814727783,"138":-0.9341925382614136,"139":0.5318859219551086,"140":0.3386671841144562,"141":-0.1754111349582672,"142":-0.6548696756362915,"143":-0.2161160409450531,"144":0.12371021509170532,"145":-0.2833434045314789,"146":-0.9169782996177673,"147":2.4463307857513428,"148":0.28066733479499817,"149":0.2535098195075989,"150":1.2184293270111084,"151":-0.04516167193651199,"152":0.27322253584861755,"153":-0.1824004203081131,"154":-0.2986285090446472,"155":0.2322656512260437,"156":0.9166106581687927,"157":-2.2187302112579346,"158":1.819106101989746,"159":2.381031036376953,"160":-1.427573800086975,"161":0.6154524683952332,"162":0.3716992437839508,"163":1.3746123313903809,"164":-0.26316511631011963,"165":0.08588933944702148,"166":-0.11528429388999939,"167":0.10552728921175003,"168":-0.46250152587890625,"169":-1.8588037490844727,"170":0.24136865139007568,"171":-0.21386373043060303,"172":0.9163604378700256,"173":-0.2694567143917084,"174":0.350446879863739,"175":0.9006498456001282,"176":-0.8572667241096497,"177":-0.6954372525215149,"178":-0.4149947166442871,"179":0.0337354876101017,"180":2.249202251434326,"181":-0.2802104651927948,"182":-2.371065616607666,"183":-1.301764726638794,"184":2.1753580570220947,"185":-2.136237144470215,"186":1.3728899955749512,"187":-1.9777146577835083,"188":0.2540648877620697,"189":-0.5224941372871399,"190":0.054705437272787094,"191":-2.6522467136383057,"192":-1.1874847412109375,"193":-0.001220746780745685,"194":-0.9377378821372986,"195":-1.1682988405227661,"196":0.94645094871521,"197":0.33349719643592834,"198":-1.0364036560058594,"199":-0.7256239056587219,"200":-0.45515668392181396,"201":-1.0275750160217285,"202":0.006730727385729551,"203":-0.5921587944030762,"204":-0.7943121790885925,"205":0.10689996182918549,"206":-3.0915045738220215,"207":-1.2502022981643677,"208":0.00004354238626547158,"209":0.32502874732017517,"210":-0.7527961134910583,"211":-0.6135067343711853,"212":-0.7777428030967712,"213":-1.0808837413787842,"214":0.17071151733398438,"215":-0.7841299176216125,"216":-1.5164917707443237,"217":0.4975273609161377,"218":0.6667725443840027,"219":0.4473860263824463,"220":1.7490755319595337,"221":-0.305439293384552,"222":0.15294456481933594,"223":1.229824423789978,"224":-1.4885834455490112,"225":-0.34136858582496643,"226":0.09549306333065033,"227":-1.1771199703216553,"228":0.29547980427742004,"229":-1.8080121278762817,"230":2.3913443088531494,"231":1.5665324926376343,"232":-1.0070596933364868,"233":0.3460078239440918,"234":-1.5163171291351318,"235":0.7122215628623962,"236":-0.12780527770519257,"237":0.8640924096107483,"238":0.4236900210380554,"239":-1.5887833833694458,"240":-2.0748751163482666,"241":-1.7643208503723145,"242":0.10669081658124924,"243":0.6751775741577148,"244":0.3326750695705414,"245":2.096374034881592,"246":-0.7179216742515564,"247":1.0152288675308228,"248":0.8061177134513855,"249":0.8982571959495544,"250":0.6733931303024292,"251":1.0102125406265259,"252":0.21114188432693481,"253":0.25564563274383545,"254":-1.6473467350006104,"255":1.0615471601486206,"256":-1.1685594320297241,"257":-1.8603379726409912,"258":-1.114162564277649,"259":0.6641563773155212,"260":-2.6494529247283936,"261":0.3420456647872925,"262":-0.9920822381973267,"263":-0.049805786460638046,"264":0.9211680889129639,"265":0.48962855339050293,"266":-0.02225313149392605,"267":1.1644501686096191,"268":0.4524464011192322,"269":-0.2817050516605377,"270":0.7657601833343506,"271":0.8863182067871094,"272":0.9807778000831604,"273":-0.6657075881958008,"274":-1.432877540588379,"275":3.280749797821045,"276":1.5697957277297974,"277":0.28420671820640564,"278":-0.16961735486984253,"279":-1.0829029083251953,"280":-0.19184339046478271,"281":-0.60813969373703,"282":-2.0935420989990234,"283":-2.077777147293091,"284":1.2669185400009155,"285":1.0951027870178223,"286":-0.3577966094017029,"287":-1.219920039176941,"288":1.3074637651443481,"289":-0.11669611930847168,"290":-1.6652156114578247,"291":0.11656086891889572,"292":-0.6691835522651672,"293":0.5579323768615723,"294":0.8561723232269287,"295":0.41821810603141785,"296":-1.8880685567855835,"297":-4.03016996383667,"298":1.1903448104858398,"299":-0.2786712646484375,"300":1.1318613290786743,"301":0.6302151083946228,"302":0.9388566017150879,"303":-0.7480152249336243,"304":-0.13446828722953796,"305":0.14733117818832397,"306":1.4333194494247437,"307":0.7074818015098572,"308":3.3983542919158936,"309":-0.1467907875776291,"310":-0.6806703209877014,"311":1.1899096965789795,"312":0.5588284730911255,"313":1.2492040395736694,"314":0.20599474012851715,"315":-1.6358466148376465,"316":-0.6803969144821167,"317":-0.05457987263798714,"318":-0.44190898537635803,"319":1.0497933626174927,"320":0.3363910913467407,"321":-1.3909486532211304,"322":-0.7096317410469055,"323":0.05438711494207382,"324":-0.08582539856433868,"325":1.3079063892364502,"326":-1.4450092315673828,"327":-1.8224726915359497,"328":1.23369562625885,"329":0.48133939504623413,"330":-1.4883496761322021,"331":-0.8899794816970825,"332":-0.372313529253006,"333":-0.5624906420707703,"334":-0.5020204782485962,"335":1.1182736158370972,"336":1.6614887714385986,"337":-0.8519771099090576,"338":1.5110259056091309,"339":-1.0425363779067993,"340":0.32782337069511414,"341":1.021263837814331,"342":1.491532325744629,"343":1.711624026298523,"344":-0.8979496359825134,"345":0.4348287284374237,"346":1.6981161832809448,"347":0.5913600325584412,"348":-1.36585533618927,"349":-0.07813587039709091,"350":0.1500513106584549,"351":-1.0542309284210205,"352":0.1768272966146469,"353":-1.6211471557617188,"354":0.17615506052970886,"355":0.3721456825733185,"356":-2.3285303115844727,"357":0.05751414969563484,"358":0.10316207259893417,"359":-1.0849303007125854,"360":-0.09998767077922821,"361":0.7963296175003052,"362":-1.266157865524292,"363":0.28656280040740967,"364":-0.3865472972393036,"365":-0.749801754951477,"366":-0.859342098236084,"367":-2.8240408897399902,"368":0.4447248578071594,"369":-0.11216334253549576,"370":0.5063980221748352,"371":2.976146936416626,"372":2.261934757232666,"373":0.8960233926773071,"374":-0.011884353123605251,"375":1.0005463361740112,"376":0.11682330816984177,"377":0.8821808695793152,"378":2.152569532394409,"379":-0.5992636680603027,"380":0.47860679030418396,"381":-0.28242290019989014,"382":0.9482815861701965,"383":1.563724398612976,"384":0.8559331297874451,"385":1.2710223197937012,"386":0.9887155294418335,"387":-3.1971004009246826,"388":2.9241416454315186,"389":-0.4137793779373169,"390":-0.3053469955921173,"391":0.26171377301216125,"392":2.323610782623291,"393":-0.15944772958755493,"394":0.7924550175666809,"395":-1.4060516357421875,"396":-0.04546680301427841,"397":2.699923038482666,"398":-1.8078722953796387,"399":2.0366971492767334,"400":1.2399592399597168,"401":1.564304232597351,"402":-2.422557830810547,"403":1.3120063543319702,"404":1.323354959487915,"405":-1.0726860761642456,"406":0.7190109491348267,"407":0.3832303285598755,"408":-2.1224281787872314,"409":-1.1392240524291992,"410":-0.69243985414505,"411":-0.9197896122932434,"412":0.5042162537574768,"413":-1.6571797132492065,"414":1.5506681203842163,"415":-0.1458539068698883,"416":0.054289963096380234,"417":-0.8810788989067078,"418":0.09265949577093124,"419":0.003531395923346281,"420":0.5024508833885193,"421":0.3186892569065094,"422":-1.587357997894287,"423":0.15602554380893707,"424":0.14541518688201904,"425":-0.6757131814956665,"426":0.7694306373596191,"427":0.9365992546081543,"428":0.03881840035319328,"429":-0.38903704285621643,"430":0.06814458221197128,"431":-0.3684924840927124,"432":-0.9531650543212891,"433":-0.30967268347740173,"434":2.1330831050872803,"435":0.0924706906080246,"436":2.1330177783966064,"437":-1.3451166152954102,"438":0.4603869616985321,"439":0.3957885205745697,"440":0.6345606446266174,"441":0.38269925117492676,"442":1.2701308727264404,"443":-0.5614534020423889,"444":0.8056137561798096,"445":1.0137817859649658,"446":-0.07422089576721191,"447":0.24900032579898834,"448":0.720254123210907,"449":1.852932333946228,"450":-0.45008477568626404,"451":1.2541782855987549,"452":-0.46099910140037537,"453":0.8150293827056885,"454":1.3454276323318481,"455":-2.2879607677459717,"456":0.19881467521190643,"457":-0.6290731430053711,"458":0.7601999044418335,"459":0.2337953895330429,"460":-1.0757200717926025,"461":-1.4846831560134888,"462":-0.04026865214109421,"463":1.0796208381652832,"464":1.0339032411575317,"465":1.0773085355758667,"466":-2.609180212020874,"467":0.14264589548110962,"468":-0.6566914916038513,"469":-1.6185623407363892,"470":-0.8162935376167297,"471":0.49542853236198425,"472":0.3352718651294708,"473":-0.5026019811630249,"474":-0.4528191089630127,"475":-1.31707763671875,"476":2.5502920150756836,"477":-1.1830172538757324,"478":0.7683236002922058,"479":-0.7635366916656494,"480":2.012002468109131,"481":0.773065447807312,"482":1.9628304243087769,"483":-0.17991004884243011,"484":-0.5279703140258789,"485":0.11200205981731415,"486":0.7469797730445862,"487":1.6625150442123413,"488":-0.8022996783256531,"489":1.4394081830978394,"490":-1.132881999015808,"491":-1.4002211093902588,"492":0.8878306746482849,"493":-1.330100417137146,"494":1.0714861154556274,"495":-0.7262901663780212,"496":-1.78058922290802,"497":-0.473654568195343,"498":0.3945223093032837,"499":-2.475557804107666,"500":0.27666980028152466,"501":0.49372321367263794,"502":-1.0689749717712402,"503":1.13846755027771,"504":-0.4967712461948395,"505":0.4577785134315491,"506":-0.24804504215717316,"507":-1.1501837968826294,"508":0.2339416742324829,"509":1.394376277923584,"510":0.6349858641624451,"511":1.2165570259094238,"512":-0.27133774757385254,"513":0.07131922245025635,"514":-2.4452545642852783,"515":1.2820795774459839,"516":1.8166751861572266,"517":0.28882983326911926,"518":0.5745238065719604,"519":-1.0383425951004028,"520":0.9808294773101807,"521":1.8090683221817017,"522":0.2498389333486557,"523":-1.2565560340881348,"524":-2.1304209232330322,"525":-0.34139060974121094,"526":-0.7459360361099243,"527":-2.0320308208465576,"528":0.04284772276878357,"529":-0.6430933475494385,"530":-1.60354483127594,"531":-1.0909191370010376,"532":1.5999351739883423,"533":1.5037115812301636,"534":1.2040611505508423,"535":1.9282550811767578,"536":-0.47792983055114746,"537":0.757457971572876,"538":-1.1160091161727905,"539":-1.9254344701766968,"540":-0.17608053982257843,"541":1.6273537874221802,"542":-0.10425140708684921,"543":-1.3602081537246704,"544":-0.319844514131546,"545":0.8939411640167236,"546":1.7025192975997925,"547":-0.8842694759368896,"548":0.47291478514671326,"549":0.18202614784240723,"550":-0.33371663093566895,"551":-1.3600648641586304,"552":0.7627310156822205,"553":0.21554304659366608,"554":-1.2556674480438232,"555":-2.003420114517212,"556":-1.0740312337875366,"557":2.079927921295166,"558":-0.9379056692123413,"559":1.3074345588684082,"560":-0.8882161378860474,"561":0.36418500542640686,"562":1.2463266849517822,"563":-2.2736399173736572,"564":-0.4476689398288727,"565":1.5029529333114624,"566":0.30339673161506653,"567":-0.24756772816181183,"568":-0.01561904139816761,"569":-2.232346296310425,"570":1.5785953998565674,"571":-2.0607094764709473,"572":2.1841988563537598,"573":1.1577425003051758,"574":1.6695348024368286,"575":1.9871735572814941,"576":-0.4470541179180145,"577":-1.8051745891571045,"578":0.24162983894348145,"579":1.1246026754379272,"580":1.724879264831543,"581":1.1430670022964478,"582":-1.7238821983337402,"583":0.8044266104698181,"584":-0.6046149730682373,"585":0.09246502816677094,"586":3.250755786895752,"587":1.4454102516174316,"588":2.18670916557312,"589":-0.0933656170964241,"590":0.3549104332923889,"591":3.084940195083618,"592":0.8947075009346008,"593":-0.14250695705413818,"594":-1.0521208047866821,"595":-0.08169802278280258,"596":0.9225432276725769,"597":1.352599859237671,"598":0.11491786688566208,"599":0.73525470495224,"600":0.6712656617164612,"601":0.07096412777900696,"602":0.08859352022409439,"603":1.1782780885696411,"604":-2.5634305477142334,"605":1.792168378829956,"606":-0.42997440695762634,"607":1.5403754711151123,"608":0.5071200132369995,"609":0.6562840938568115,"610":0.12408967316150665,"611":-0.9676535725593567,"612":-0.4403834044933319,"613":0.45892345905303955,"614":0.5599281191825867,"615":0.9459341764450073,"616":0.03750448673963547,"617":-0.8440659642219543,"618":1.0139483213424683,"619":0.8118607401847839,"620":0.4403977394104004,"621":0.5784078240394592,"622":-0.46437758207321167,"623":0.4675430953502655,"624":0.4929259419441223,"625":0.695823609828949,"626":1.4779537916183472,"627":-0.0755545124411583,"628":-0.21779677271842957,"629":0.36138197779655457,"630":-1.4755178689956665,"631":0.14190706610679626,"632":-0.9215003252029419,"633":-1.401639461517334,"634":2.0363821983337402,"635":-0.07966307550668716,"636":-0.9096396565437317,"637":-1.4276961088180542,"638":0.5931254029273987,"639":0.6240673661231995,"640":0.3761799931526184,"641":0.7161014676094055,"642":0.12536653876304626,"643":1.0779540538787842,"644":0.4640679955482483,"645":-0.9034601449966431,"646":-1.6309095621109009,"647":0.6804941296577454,"648":-0.947566568851471,"649":-0.6083237528800964,"650":0.16510798037052155,"651":-0.4206227958202362,"652":-1.389035701751709,"653":0.15803921222686768,"654":-1.7975239753723145,"655":0.9178659915924072,"656":-1.1583263874053955,"657":-0.4520247280597687,"658":2.0284483432769775,"659":-0.6176102757453918,"660":-0.3046506941318512,"661":0.9123160243034363,"662":0.5412357449531555,"663":-2.1765408515930176,"664":-2.1708462238311768,"665":-0.7805227041244507,"666":0.268807977437973,"667":-0.9466939568519592,"668":0.5568413734436035,"669":-0.1535571962594986,"670":-0.15198718011379242,"671":-2.4351468086242676,"672":0.7194007635116577,"673":-0.06918533146381378,"674":0.874944806098938,"675":1.929518461227417,"676":-0.6393444538116455,"677":1.6037468910217285,"678":0.4718167185783386,"679":-1.6888986825942993,"680":1.570167899131775,"681":0.1361512839794159,"682":0.7104496955871582,"683":-0.7342026829719543,"684":1.2060470581054688,"685":0.1569252610206604,"686":2.109980344772339,"687":-1.7409279346466064,"688":2.332263708114624,"689":-0.44147759675979614,"690":0.9869583249092102,"691":-0.18484720587730408,"692":0.9102833271026611,"693":-1.8372888565063477,"694":-0.7176159024238586,"695":-1.6144534349441528,"696":-0.43120554089546204,"697":1.0778486728668213,"698":-1.5511317253112793,"699":0.7196069955825806}},"forgetHidden":{"rows":20,"columns":20,"weights":{"0":1.5871120691299438,"1":-1.0770525932312012,"2":-1.7565603256225586,"3":-0.17547500133514404,"4":0.6609471440315247,"5":0.6847598552703857,"6":1.2115888595581055,"7":0.1888451874256134,"8":-0.9805055260658264,"9":-2.4744930267333984,"10":1.3731297254562378,"11":1.0440205335617065,"12":0.32686862349510193,"13":-3.0968878269195557,"14":-1.8958244323730469,"15":1.209349513053894,"16":-1.6059848070144653,"17":-0.6914699077606201,"18":0.9372254014015198,"19":-1.5008609294891357,"20":2.817843198776245,"21":-2.785888671875,"22":-2.829054355621338,"23":-1.289910912513733,"24":-2.6137588024139404,"25":4.239534378051758,"26":-2.5756185054779053,"27":0.05786573886871338,"28":-4.242799282073975,"29":0.7122135758399963,"30":0.08017413318157196,"31":-0.7287012338638306,"32":0.49358776211738586,"33":-0.08643101900815964,"34":-2.391540765762329,"35":-1.2081140279769897,"36":-3.006711721420288,"37":1.4881309270858765,"38":2.878786325454712,"39":0.7499541640281677,"40":-1.0973163843154907,"41":-2.8826115131378174,"42":-4.201329231262207,"43":1.3359434604644775,"44":-0.050348978489637375,"45":-1.9884904623031616,"46":-1.128956913948059,"47":0.18371731042861938,"48":-0.6940935254096985,"49":0.07597745209932327,"50":-0.6968013644218445,"51":-1.797540307044983,"52":-1.2007548809051514,"53":3.4723410606384277,"54":0.3984941244125366,"55":-1.483292579650879,"56":1.3278931379318237,"57":-0.717132568359375,"58":-2.823341131210327,"59":-1.1211317777633667,"60":1.111971139907837,"61":-0.0714528039097786,"62":-2.8426408767700195,"63":-2.114985704421997,"64":-0.7309315204620361,"65":-2.555629014968872,"66":-5.6615376472473145,"67":1.0255277156829834,"68":-1.1124465465545654,"69":1.4191861152648926,"70":-1.244113564491272,"71":1.5475577116012573,"72":2.7777912616729736,"73":2.0323853492736816,"74":1.5687271356582642,"75":-0.29927968978881836,"76":-2.574075222015381,"77":-0.26018404960632324,"78":-1.0885231494903564,"79":-1.0403308868408203,"80":0.8582527041435242,"81":-4.100616455078125,"82":2.04152774810791,"83":0.5162529349327087,"84":-0.20377784967422485,"85":1.638271450996399,"86":0.6908208131790161,"87":1.9309378862380981,"88":-1.4577841758728027,"89":2.840181589126587,"90":0.5546494126319885,"91":-0.5503485202789307,"92":0.5079824924468994,"93":0.19119077920913696,"94":1.0164132118225098,"95":4.885238170623779,"96":-0.737673282623291,"97":1.9595682621002197,"98":-2.770129442214966,"99":-0.21699227392673492,"100":1.4326978921890259,"101":-4.535120010375977,"102":3.539339542388916,"103":1.4927235841751099,"104":-2.7451305389404297,"105":-1.6930792331695557,"106":2.6825809478759766,"107":0.5827513933181763,"108":-1.8600401878356934,"109":2.1925292015075684,"110":2.057810068130493,"111":3.461665153503418,"112":1.0562812089920044,"113":-1.2288049459457397,"114":-4.00657844543457,"115":1.6906344890594482,"116":1.9930343627929688,"117":2.8278563022613525,"118":0.16289620101451874,"119":2.984126567840576,"120":1.2510685920715332,"121":-1.8857265710830688,"122":4.559832572937012,"123":1.5160846710205078,"124":4.225748062133789,"125":-1.4956494569778442,"126":-0.6684367060661316,"127":-1.6387217044830322,"128":-1.0229027271270752,"129":-2.155822992324829,"130":1.8748489618301392,"131":-0.6955923438072205,"132":2.863241672515869,"133":1.3655952215194702,"134":-4.278163909912109,"135":2.2851696014404297,"136":0.8554050922393799,"137":1.6921215057373047,"138":-0.5457583069801331,"139":-0.49602842330932617,"140":-0.034002479165792465,"141":-2.582707405090332,"142":-0.326571524143219,"143":1.2875378131866455,"144":-0.3807249367237091,"145":0.15368986129760742,"146":0.7054689526557922,"147":1.7776238918304443,"148":-1.7073593139648438,"149":-0.2850877642631531,"150":1.3156968355178833,"151":-2.007443904876709,"152":-0.7964229583740234,"153":-1.199181079864502,"154":-0.9620609283447266,"155":2.1868062019348145,"156":1.8692418336868286,"157":-1.1673091650009155,"158":1.5747160911560059,"159":2.0720560550689697,"160":3.8783421516418457,"161":2.084494113922119,"162":2.0705933570861816,"163":0.5517395734786987,"164":1.4029265642166138,"165":-3.348912000656128,"166":0.6741226315498352,"167":-0.2374504953622818,"168":0.3883073925971985,"169":3.362095594406128,"170":5.481328010559082,"171":3.873844861984253,"172":1.6287977695465088,"173":0.7814959287643433,"174":-1.5746870040893555,"175":2.0703485012054443,"176":-1.767217755317688,"177":-1.2133612632751465,"178":-3.318145275115967,"179":-3.186087131500244,"180":-3.4710750579833984,"181":-0.7959535717964172,"182":1.5528167486190796,"183":-0.686404824256897,"184":-0.5341295003890991,"185":0.09529720991849899,"186":-2.002182722091675,"187":2.7404513359069824,"188":0.10120072960853577,"189":2.5378799438476562,"190":4.190595626831055,"191":0.09128391742706299,"192":0.6928843855857849,"193":2.5014126300811768,"194":0.9733900427818298,"195":2.0101678371429443,"196":1.1969399452209473,"197":3.606595039367676,"198":-0.37403586506843567,"199":-1.188880205154419,"200":0.12893827259540558,"201":-1.3373916149139404,"202":4.960011959075928,"203":1.4910540580749512,"204":0.6365945339202881,"205":-1.0752311944961548,"206":1.4863135814666748,"207":-0.9559520483016968,"208":-0.5124525427818298,"209":1.1026880741119385,"210":-0.22582580149173737,"211":1.4893282651901245,"212":2.7780449390411377,"213":-1.443278193473816,"214":-0.46864378452301025,"215":1.0083247423171997,"216":1.5150322914123535,"217":-0.9386153221130371,"218":-1.2969409227371216,"219":1.562569499015808,"220":0.27914971113204956,"221":-1.1525394916534424,"222":2.9545109272003174,"223":-0.9036945104598999,"224":-2.624865770339966,"225":-5.1266279220581055,"226":-1.1082818508148193,"227":-0.0790286585688591,"228":-1.7593824863433838,"229":-1.335929036140442,"230":4.794419765472412,"231":0.35597556829452515,"232":3.471327781677246,"233":1.9666872024536133,"234":-0.9082988500595093,"235":0.6896829605102539,"236":-1.1811681985855103,"237":0.8070045709609985,"238":-1.2405701875686646,"239":0.7463333606719971,"240":-2.2833943367004395,"241":-0.3262879550457001,"242":-1.2003480195999146,"243":-1.1800692081451416,"244":-1.925141453742981,"245":1.0941095352172852,"246":0.5618959665298462,"247":3.4233906269073486,"248":-0.9828612804412842,"249":1.3479880094528198,"250":-1.447234869003296,"251":-0.30412378907203674,"252":-0.9446934461593628,"253":2.3248705863952637,"254":3.0483617782592773,"255":2.111151933670044,"256":-1.8692502975463867,"257":0.6341447830200195,"258":-0.4585556387901306,"259":0.773126482963562,"260":1.288485050201416,"261":-0.1402137726545334,"262":-1.2147934436798096,"263":5.34213924407959,"264":0.2869396209716797,"265":0.5964607000350952,"266":2.0595321655273438,"267":-0.5980506539344788,"268":-2.9152708053588867,"269":1.2297829389572144,"270":1.0099620819091797,"271":0.06637454777956009,"272":4.269297122955322,"273":-1.4747602939605713,"274":-0.8210710287094116,"275":3.2139363288879395,"276":0.052146267145872116,"277":-0.6053633689880371,"278":-0.1739737093448639,"279":2.3614282608032227,"280":-3.410324811935425,"281":-1.4562029838562012,"282":4.400511264801025,"283":0.451580673456192,"284":-1.320688247680664,"285":0.616741955280304,"286":0.7706971764564514,"287":0.5534554123878479,"288":-0.9155536890029907,"289":-0.12558121979236603,"290":3.0906057357788086,"291":-2.551661491394043,"292":1.777664065361023,"293":0.2597864270210266,"294":0.4055415987968445,"295":-1.314419150352478,"296":0.9252065420150757,"297":3.6162636280059814,"298":0.24096107482910156,"299":-1.8067585229873657,"300":-0.1427178978919983,"301":-1.0648303031921387,"302":-0.21537014842033386,"303":-0.24359971284866333,"304":-0.7324045896530151,"305":1.611175298690796,"306":1.0805789232254028,"307":2.249255657196045,"308":-1.3024624586105347,"309":2.0688071250915527,"310":-0.42066720128059387,"311":-0.6494123339653015,"312":-0.046569496393203735,"313":0.7582184672355652,"314":-0.8781890869140625,"315":0.7320001125335693,"316":0.8458081483840942,"317":1.9084028005599976,"318":-1.9853659868240356,"319":-0.03570134565234184,"320":-2.403609275817871,"321":0.3978157937526703,"322":-4.3117828369140625,"323":-0.7094627022743225,"324":-0.6703176498413086,"325":-2.093977451324463,"326":-1.019652009010315,"327":2.3242812156677246,"328":-1.9884426593780518,"329":0.8378043174743652,"330":-0.8627332448959351,"331":-2.168566942214966,"332":-0.4743460416793823,"333":2.584007501602173,"334":-1.417346477508545,"335":-0.9372256398200989,"336":-0.7390040159225464,"337":3.64542293548584,"338":0.6566948294639587,"339":-2.735915184020996,"340":1.338093638420105,"341":1.6205439567565918,"342":-1.001034140586853,"343":1.1295719146728516,"344":0.4736153781414032,"345":5.423595905303955,"346":0.06328627467155457,"347":1.550822377204895,"348":0.334636390209198,"349":0.827276349067688,"350":-1.0486681461334229,"351":-1.0801657438278198,"352":0.7742255926132202,"353":1.0533169507980347,"354":1.2210767269134521,"355":-0.4149486720561981,"356":4.252370834350586,"357":0.6567292809486389,"358":-0.07463225722312927,"359":-1.1513645648956299,"360":-2.5296993255615234,"361":-1.3832283020019531,"362":-1.9076770544052124,"363":-1.3818135261535645,"364":-1.6202598810195923,"365":-0.7219618558883667,"366":-2.7836923599243164,"367":3.168024778366089,"368":0.7850127220153809,"369":1.489721655845642,"370":-0.941165566444397,"371":1.6688146591186523,"372":-1.1793463230133057,"373":2.6735951900482178,"374":4.137725353240967,"375":2.1293225288391113,"376":-1.6441832780838013,"377":0.3092551827430725,"378":-1.3175121545791626,"379":0.04087481647729874,"380":0.3131697475910187,"381":-0.38057196140289307,"382":0.022588005289435387,"383":0.533085286617279,"384":0.08392902463674545,"385":1.2565211057662964,"386":0.8175888657569885,"387":0.8740652203559875,"388":-0.3859371840953827,"389":2.4454100131988525,"390":-1.0310310125350952,"391":0.8737166523933411,"392":1.0851777791976929,"393":0.6447713375091553,"394":-0.6072826385498047,"395":1.4189376831054688,"396":0.8016553521156311,"397":0.9599431157112122,"398":-2.4945967197418213,"399":0.7175413370132446}},"forgetBias":{"rows":20,"columns":1,"weights":{"0":0,"1":0,"2":0,"3":0,"4":0,"5":0,"6":0,"7":0,"8":0,"9":0,"10":0,"11":0,"12":0,"13":0,"14":0,"15":0,"16":0,"17":0,"18":0,"19":0}},"outputMatrix":{"rows":20,"columns":35,"weights":{"0":0.39239051938056946,"1":1.5271472930908203,"2":1.9001258611679077,"3":0.6400526762008667,"4":-0.364021897315979,"5":-0.24593046307563782,"6":0.516664445400238,"7":1.4065386056900024,"8":0.412224680185318,"9":-1.6695789098739624,"10":-0.05390528216958046,"11":-0.5444479584693909,"12":0.8988660573959351,"13":0.16764530539512634,"14":1.3631021976470947,"15":0.4337417781352997,"16":1.4481500387191772,"17":0.3630760610103607,"18":0.5264762043952942,"19":2.218024253845215,"20":-0.9673924446105957,"21":-0.4152405261993408,"22":-0.3308168053627014,"23":0.47931334376335144,"24":0.55436110496521,"25":-0.1886344850063324,"26":1.051031231880188,"27":-1.1350959539413452,"28":-0.5405576229095459,"29":-0.028680898249149323,"30":1.2848408222198486,"31":3.749889373779297,"32":-1.1550798416137695,"33":-0.12475059181451797,"34":-0.20020423829555511,"35":2.020406723022461,"36":0.8282089829444885,"37":0.5230045318603516,"38":-0.12371847778558731,"39":-0.3243786096572876,"40":0.3746958076953888,"41":-0.18915225565433502,"42":-0.12108046561479568,"43":-3.314737558364868,"44":-0.5007732510566711,"45":-2.4438068866729736,"46":-2.0560178756713867,"47":0.28170913457870483,"48":-0.2029336839914322,"49":-0.11203625053167343,"50":3.3783302307128906,"51":1.115452766418457,"52":1.8320571184158325,"53":-0.6743469834327698,"54":1.5170382261276245,"55":-1.6141632795333862,"56":0.12975862622261047,"57":0.8980510234832764,"58":-1.0181692838668823,"59":-0.41843321919441223,"60":1.1994842290878296,"61":2.2931442260742188,"62":-0.6275151968002319,"63":-3.9790477752685547,"64":-1.5715281963348389,"65":0.47570568323135376,"66":-0.1004822701215744,"67":-1.1526269912719727,"68":-1.1519254446029663,"69":-1.2624351978302002,"70":1.0464345216751099,"71":-0.8069218397140503,"72":0.7070752382278442,"73":0.5812898278236389,"74":1.0707643032073975,"75":1.7655941247940063,"76":0.7133959531784058,"77":0.5610600709915161,"78":0.7411067485809326,"79":-0.7511588931083679,"80":0.9967301487922668,"81":-0.3145374059677124,"82":0.040953367948532104,"83":0.460884153842926,"84":0.08550206571817398,"85":-1.3782850503921509,"86":-0.3400824964046478,"87":-3.72717022895813,"88":1.0402940511703491,"89":-0.34743088483810425,"90":2.2828001976013184,"91":-1.4689620733261108,"92":2.057638168334961,"93":0.14945124089717865,"94":0.36390483379364014,"95":-1.4509552717208862,"96":-0.2559870481491089,"97":-0.06387408822774887,"98":0.7902575731277466,"99":0.3918149173259735,"100":-0.8422841429710388,"101":1.1735063791275024,"102":-0.05760759115219116,"103":0.9358140230178833,"104":-0.22583821415901184,"105":1.0078544616699219,"106":0.1340108960866928,"107":2.784484386444092,"108":0.05641894415020943,"109":-2.0728554725646973,"110":1.991501808166504,"111":2.566390037536621,"112":-0.9161118268966675,"113":1.391704797744751,"114":-1.0333139896392822,"115":-2.695997953414917,"116":0.8404224514961243,"117":-1.8578108549118042,"118":-0.6352778673171997,"119":1.9601871967315674,"120":-0.1378684639930725,"121":-0.2814151346683502,"122":-1.7273658514022827,"123":-0.9930837750434875,"124":0.5794993042945862,"125":-1.0298190116882324,"126":-3.8569045066833496,"127":0.4022509753704071,"128":-0.03672724962234497,"129":2.1275787353515625,"130":-0.8322126269340515,"131":-0.20408539474010468,"132":-0.7608848810195923,"133":0.9640476107597351,"134":0.6462874412536621,"135":0.826038122177124,"136":1.3774988651275635,"137":0.2121429145336151,"138":2.347156286239624,"139":-0.2316383421421051,"140":-0.8735597729682922,"141":0.675674319267273,"142":-2.612215518951416,"143":-0.8769485950469971,"144":-0.11585329473018646,"145":0.012218257412314415,"146":-0.37813621759414673,"147":0.38960930705070496,"148":0.556980550289154,"149":0.708225429058075,"150":0.08847542852163315,"151":1.9170818328857422,"152":-1.6185468435287476,"153":-0.07063493877649307,"154":-0.7532103061676025,"155":0.02211480401456356,"156":0.6768490076065063,"157":-0.4769606292247772,"158":-2.02120304107666,"159":0.27021604776382446,"160":-1.2063761949539185,"161":-0.1267949491739273,"162":2.0336432456970215,"163":0.1346910297870636,"164":2.801290512084961,"165":-0.382305383682251,"166":-1.4166526794433594,"167":-1.310699701309204,"168":1.4690585136413574,"169":0.14777472615242004,"170":-2.0325121879577637,"171":0.23927800357341766,"172":-0.362262099981308,"173":1.3938488960266113,"174":1.6697338819503784,"175":0.4674796462059021,"176":3.9205381870269775,"177":2.860116958618164,"178":-1.0690152645111084,"179":0.6768288016319275,"180":0.5645772814750671,"181":0.7763988375663757,"182":-1.1949306726455688,"183":-0.42604848742485046,"184":-1.7146289348602295,"185":1.714410662651062,"186":-1.0121467113494873,"187":2.9345314502716064,"188":0.628406286239624,"189":0.7134654521942139,"190":0.8840150833129883,"191":-0.6063603162765503,"192":2.059797525405884,"193":2.9338386058807373,"194":-0.5673209428787231,"195":0.6871629357337952,"196":0.18958741426467896,"197":-0.32861092686653137,"198":-0.4460451304912567,"199":-0.7005568146705627,"200":0.9944057464599609,"201":0.20914706587791443,"202":-1.3420244455337524,"203":-1.9695583581924438,"204":1.2003487348556519,"205":3.5614848136901855,"206":2.0014150142669678,"207":-1.2139743566513062,"208":-0.15228186547756195,"209":0.01959492638707161,"210":0.25338688492774963,"211":2.1634557247161865,"212":0.6876147985458374,"213":3.62502384185791,"214":-0.5376405715942383,"215":0.1647699624300003,"216":0.941975474357605,"217":-0.04017939791083336,"218":-2.111778497695923,"219":0.32881030440330505,"220":-1.0186643600463867,"221":0.0932588055729866,"222":1.0349853038787842,"223":0.903169572353363,"224":1.983261227607727,"225":0.8158138990402222,"226":0.8942124843597412,"227":-1.200999140739441,"228":1.3648102283477783,"229":1.0548090934753418,"230":-0.21491554379463196,"231":-0.7109711170196533,"232":0.6029984951019287,"233":-1.7643522024154663,"234":0.5687159299850464,"235":-1.5760033130645752,"236":0.0790366604924202,"237":-1.0218267440795898,"238":-0.7134931087493896,"239":1.5389634370803833,"240":2.450329065322876,"241":-0.041632648557424545,"242":-1.6053389310836792,"243":1.9499187469482422,"244":1.1225810050964355,"245":1.1103065013885498,"246":-3.019512176513672,"247":-1.2276265621185303,"248":0.9175546765327454,"249":-1.2306805849075317,"250":-0.9494181871414185,"251":0.8749003410339355,"252":0.4186866283416748,"253":0.7630331516265869,"254":1.3566699028015137,"255":2.7151827812194824,"256":0.09992647171020508,"257":-1.409346342086792,"258":-3.0724740028381348,"259":-0.4271325469017029,"260":-2.887181282043457,"261":0.5935968160629272,"262":-1.319151759147644,"263":-0.5929355025291443,"264":0.26117756962776184,"265":1.3550214767456055,"266":-0.28260186314582825,"267":-0.026644734665751457,"268":0.1853008270263672,"269":0.7288193106651306,"270":0.39942002296447754,"271":-0.4711192548274994,"272":1.8392571210861206,"273":0.7992038726806641,"274":-0.6519786715507507,"275":0.7523637413978577,"276":-0.9195141792297363,"277":0.3686806559562683,"278":-0.03866531699895859,"279":0.711747407913208,"280":0.9368088841438293,"281":-0.7192122936248779,"282":-1.3101080656051636,"283":1.393174171447754,"284":-1.691650152206421,"285":-1.4862722158432007,"286":1.054877519607544,"287":0.312618613243103,"288":-0.48312658071517944,"289":2.056889295578003,"290":-2.547813892364502,"291":-1.0895744562149048,"292":0.9585109353065491,"293":-2.738351821899414,"294":-0.015771614387631416,"295":0.4813777804374695,"296":1.0259778499603271,"297":-0.1310136467218399,"298":0.3907963037490845,"299":-0.03445737063884735,"300":0.6303396224975586,"301":-1.2867703437805176,"302":-0.34328708052635193,"303":-1.9633318185806274,"304":-0.6409665942192078,"305":-0.6463344693183899,"306":-1.0057166814804077,"307":-1.0686383247375488,"308":-2.3978378772735596,"309":1.0566623210906982,"310":-1.4610660076141357,"311":-1.8146038055419922,"312":-0.6188519597053528,"313":1.1801873445510864,"314":1.9843944311141968,"315":1.1266857385635376,"316":-0.346088171005249,"317":-1.2272861003875732,"318":-3.945958375930786,"319":-1.1325340270996094,"320":-3.208836317062378,"321":0.9344847798347473,"322":-0.051284462213516235,"323":1.1724010705947876,"324":-2.090217113494873,"325":-2.0170199871063232,"326":0.08099932223558426,"327":-0.6942885518074036,"328":-1.0845035314559937,"329":0.8424049615859985,"330":-0.02318408526480198,"331":1.3889200687408447,"332":-0.7684469819068909,"333":-0.8264381885528564,"334":-1.5369899272918701,"335":2.2684364318847656,"336":0.575508713722229,"337":2.843390464782715,"338":-0.11162445694208145,"339":1.0731221437454224,"340":2.380572557449341,"341":1.5767104625701904,"342":2.6616387367248535,"343":1.6203393936157227,"344":-1.1021000146865845,"345":1.40381920337677,"346":1.8357185125350952,"347":1.7229400873184204,"348":1.4130723476409912,"349":0.9467958211898804,"350":-1.2804354429244995,"351":-0.021194832399487495,"352":0.04919811710715294,"353":2.6020007133483887,"354":-0.6503703594207764,"355":-1.0853761434555054,"356":0.007224807050079107,"357":2.52799916267395,"358":0.9007508158683777,"359":-0.9072455167770386,"360":-0.23934316635131836,"361":-0.04142677038908005,"362":1.3256661891937256,"363":-1.539249300956726,"364":3.9437544345855713,"365":0.7121551632881165,"366":1.5798234939575195,"367":-0.2952224016189575,"368":0.31977465748786926,"369":1.2746846675872803,"370":-2.006821393966675,"371":-1.3121731281280518,"372":0.018601728603243828,"373":-0.3292766809463501,"374":-0.08462025970220566,"375":0.004591773264110088,"376":0.7092113494873047,"377":1.1599794626235962,"378":-0.9647137522697449,"379":1.38716721534729,"380":2.631218910217285,"381":2.584216356277466,"382":-1.7895772457122803,"383":0.6095578670501709,"384":-0.6616290807723999,