{"type":"LSTM","options":{"inputSize":33,"inputRange":33,"hiddenLayers":[20,20],"outputSize":33,"decayRate":0.999,"smoothEps":1e-8,"regc":0.000001,"clipval":5,"maxPredictionLength":100,"dataFormatter":{"values":["Gabriel","Gabriel é gay","Tem postado muitas coisas no facebook","buy me a laptop","code","computer","drive","gosta de dar a bunda","hardware","i broke my pc","i found some bugs in the code","i love computers","i love to play games","i need a new power supply","i swapped the memory","i tested the code","it needs more memory","my unit test failed","power supply","program","programming","software","the drive has a 2TB capacity","tried the program, but it was buggy","unit-tests","é gay"],"indexTable":{"2":26,"G":0,"a":1,"b":2,"r":3,"i":4,"e":5,"l":6," ":7,"é":8,"g":9,"y":10,"T":11,"m":12,"p":13,"o":14,"s":15,"t":16,"d":17,"u":18,"c":19,"n":20,"f":21,"k":22,"v":23,"h":24,"w":25,"B":27,",":28,"-":29,"stop-input":30,"start-output":31,"unrecognized":32},"characterTable":{"0":"G","1":"a","2":"b","3":"r","4":"i","5":"e","6":"l","7":" ","8":"é","9":"g","10":"y","11":"T","12":"m","13":"p","14":"o","15":"s","16":"t","17":"d","18":"u","19":"c","20":"n","21":"f","22":"k","23":"v","24":"h","25":"w","26":"2","27":"B","28":",","29":"-","30":null,"31":null,"32":null},"characters":["G","a","b","r","i","e","l"," ","é","g","y","T","m","p","o","s","t","d","u","c","n","f","k","v","h","w","2","B",",","-","stop-input","start-output","unrecognized"],"specialIndexes":[30,31,32]}},"input":{"rows":34,"columns":33,"weights":{"0":-1.7158032655715942,"1":-0.6752235293388367,"2":0.2868633568286896,"3":0.1520281732082367,"4":0.007120909169316292,"5":0.2781686782836914,"6":0.5365610718727112,"7":-0.3938828110694885,"8":-0.07570420950651169,"9":0.19015200436115265,"10":0.609592080116272,"11":1.1562305688858032,"12":-0.2569156885147095,"13":-0.44218745827674866,"14":0.8349753022193909,"15":0.6400169134140015,"16":0.7595619559288025,"17":-0.22438320517539978,"18":-0.3927271068096161,"19":0.2816843092441559,"20":-1.1924411058425903,"21":1.0212188959121704,"22":-1.2404884099960327,"23":-2.2857062816619873,"24":-0.8852272033691406,"25":0.7285349369049072,"26":0.4245283603668213,"27":-1.288039207458496,"28":-0.09695370495319366,"29":0.15951991081237793,"30":0.31719860434532166,"31":-0.15624761581420898,"32":-0.9993711113929749,"33":-0.4114607572555542,"34":1.6043282747268677,"35":1.4571949243545532,"36":-3.132335901260376,"37":0.13364194333553314,"38":2.124236583709717,"39":-3.109529733657837,"40":-4.983468055725098,"41":-6.317050457000732,"42":-0.9789724349975586,"43":-0.8095145225524902,"44":-4.871358871459961,"45":-4.663516044616699,"46":4.490193843841553,"47":-4.907138824462891,"48":-1.422118902206421,"49":-8.811579704284668,"50":-1.1647005081176758,"51":0.3705030381679535,"52":-3.439852714538574,"53":4.252726078033447,"54":1.0058645009994507,"55":-2.8218626976013184,"56":-1.5375864505767822,"57":-5.297117233276367,"58":-0.04241479933261871,"59":-2.896867036819458,"60":-0.01515176147222519,"61":5.5435638427734375,"62":-0.46086931228637695,"63":2.8907265663146973,"64":6.560728549957275,"65":2.487041711807251,"66":0.5949437618255615,"67":1.0788911581039429,"68":0.10566630959510803,"69":-0.7278410196304321,"70":0.026728063821792603,"71":-0.8276587128639221,"72":-1.4375476837158203,"73":-0.5680803656578064,"74":0.6796546578407288,"75":-0.8723574876785278,"76":-0.9732094407081604,"77":-0.696672260761261,"78":0.9792603850364685,"79":1.4606441259384155,"80":-0.13710545003414154,"81":-1.1474493741989136,"82":-0.32994571328163147,"83":-0.4521125257015228,"84":1.6270126104354858,"85":-1.2223790884017944,"86":1.488649606704712,"87":0.06907235085964203,"88":-0.6259469389915466,"89":0.3318214416503906,"90":-0.8123235106468201,"91":1.2950762510299683,"92":-0.9429486393928528,"93":-0.1508619487285614,"94":0.9078391790390015,"95":0.20297649502754211,"96":0.45214638113975525,"97":0.2052544802427292,"98":0.11508022993803024,"99":1.3422346115112305,"100":2.3758015632629395,"101":-2.0703835487365723,"102":-1.4142898321151733,"103":-2.175821542739868,"104":2.3206169605255127,"105":0.8388961553573608,"106":1.0633320808410645,"107":-7.931939601898193,"108":0.8822242617607117,"109":-0.9489015936851501,"110":-5.550826072692871,"111":-0.7668671011924744,"112":-0.43140268325805664,"113":-0.8258185982704163,"114":-0.6008245348930359,"115":-0.7875680923461914,"116":-2.192316770553589,"117":0.10952967405319214,"118":1.4767494201660156,"119":3.006251335144043,"120":-3.469001293182373,"121":-0.6646283864974976,"122":0.46838557720184326,"123":-1.260894536972046,"124":-0.39188718795776367,"125":-3.172572612762451,"126":5.227006912231445,"127":-0.2687213718891144,"128":-1.4823914766311646,"129":0.11009575426578522,"130":0.4327641427516937,"131":4.2885003089904785,"132":2.2811810970306396,"133":0.1323338747024536,"134":-0.8461287617683411,"135":-0.04926726967096329,"136":-1.1294052600860596,"137":-0.0937725082039833,"138":-1.984960675239563,"139":-0.48860377073287964,"140":0.3961007297039032,"141":-1.5371098518371582,"142":-1.580330729484558,"143":1.3244292736053467,"144":3.2632367610931396,"145":-0.1725613921880722,"146":-0.4028520882129669,"147":-0.45285964012145996,"148":1.5108604431152344,"149":-1.1888397932052612,"150":1.3577795028686523,"151":-1.236875057220459,"152":0.9816399812698364,"153":-1.010730504989624,"154":-0.5235342979431152,"155":1.9406040906906128,"156":0.6405978798866272,"157":1.058807611465454,"158":-0.34291011095046997,"159":0.4795009195804596,"160":0.2594143748283386,"161":0.00435580825433135,"162":0.49354487657546997,"163":-1.9223697185516357,"164":-0.8262951970100403,"165":2.793959617614746,"166":0.7983971238136292,"167":-0.5450815558433533,"168":-0.9710058569908142,"169":0.2465892732143402,"170":0.22219888865947723,"171":-0.2681264877319336,"172":1.062515377998352,"173":0.4489171802997589,"174":-1.894804835319519,"175":-2.5676116943359375,"176":-0.543721079826355,"177":4.082234859466553,"178":0.10857430100440979,"179":-1.7271943092346191,"180":-1.472149133682251,"181":1.4661527872085571,"182":0.22119729220867157,"183":2.401752233505249,"184":-0.565762460231781,"185":3.2647531032562256,"186":-0.0953822210431099,"187":-0.9035259485244751,"188":2.3400731086730957,"189":2.242750883102417,"190":2.791649103164673,"191":-1.3989572525024414,"192":0.34797918796539307,"193":-1.2928801774978638,"194":0.38124462962150574,"195":0.37463584542274475,"196":-1.1656078100204468,"197":-1.0442523956298828,"198":0.16330215334892273,"199":0.518153190612793,"200":0.7877920866012573,"201":-0.1902976781129837,"202":-0.2965647578239441,"203":2.2162728309631348,"204":-0.18957464396953583,"205":-1.0114200115203857,"206":-0.1844773143529892,"207":-0.8417121171951294,"208":0.03847072273492813,"209":-0.7043818831443787,"210":0.45214930176734924,"211":-0.523463785648346,"212":-0.9328403472900391,"213":-0.18559207022190094,"214":-0.5199105143547058,"215":-0.11999449133872986,"216":0.17038360238075256,"217":-1.5475925207138062,"218":0.8401368856430054,"219":-0.38007867336273193,"220":-0.4054461121559143,"221":-0.07228788733482361,"222":-0.08964331448078156,"223":-0.061073511838912964,"224":-0.7104822397232056,"225":1.1820704936981201,"226":-0.07674790918827057,"227":0.8075575232505798,"228":0.770548939704895,"229":-0.14314863085746765,"230":-0.26897379755973816,"231":-0.3651222586631775,"232":0.736676037311554,"233":0.5720857381820679,"234":1.431693196296692,"235":1.9658299684524536,"236":4.3339667320251465,"237":-4.194243907928467,"238":-2.442160129547119,"239":-0.6290513873100281,"240":0.4359835088253021,"241":-0.037118636071681976,"242":-1.7401020526885986,"243":1.1690340042114258,"244":1.7733300924301147,"245":1.1132711172103882,"246":-2.724147319793701,"247":-1.5165455341339111,"248":1.3466953039169312,"249":3.6091959476470947,"250":-5.820728778839111,"251":-1.6716817617416382,"252":2.3845181465148926,"253":-1.525710940361023,"254":-0.3611306846141815,"255":-2.070951223373413,"256":-1.5994864702224731,"257":0.9896839261054993,"258":-0.5676880478858948,"259":0.8454161882400513,"260":2.758408308029175,"261":-0.7328870892524719,"262":-2.384901285171509,"263":-5.164376735687256,"264":3.4593331813812256,"265":1.303871989250183,"266":-0.17423748970031738,"267":-1.700515627861023,"268":-1.190821886062622,"269":0.9022404551506042,"270":0.790874719619751,"271":1.551345944404602,"272":0.18813122808933258,"273":-0.2932978570461273,"274":-0.552773654460907,"275":0.220102459192276,"276":-0.6973593831062317,"277":0.6038047075271606,"278":0.41561731696128845,"279":-0.2113315612077713,"280":-0.5276647806167603,"281":-0.16717468202114105,"282":1.2944812774658203,"283":0.5265084505081177,"284":2.7570176124572754,"285":-2.6538312435150146,"286":0.9241549372673035,"287":4.363903999328613,"288":1.8584107160568237,"289":-0.8219062685966492,"290":-0.8805960416793823,"291":1.0109015703201294,"292":-1.4404510259628296,"293":0.9467566013336182,"294":0.016827544197440147,"295":0.7753101587295532,"296":1.1950056552886963,"297":0.41538649797439575,"298":1.5636860132217407,"299":3.6696012020111084,"300":-6.8526291847229,"301":0.9779471755027771,"302":1.5473397970199585,"303":-6.596285343170166,"304":-4.210256576538086,"305":0.5457483530044556,"306":-1.2387079000473022,"307":0.3523482382297516,"308":-6.424705505371094,"309":-0.876992404460907,"310":2.3517277240753174,"311":-4.140953063964844,"312":0.20553769171237946,"313":0.9859773516654968,"314":0.32323798537254333,"315":7.926971435546875,"316":-8.9641752243042,"317":6.962027072906494,"318":0.4983186721801758,"319":-0.5616179704666138,"320":0.7505863308906555,"321":1.1148449182510376,"322":0.805436909198761,"323":-1.3027540445327759,"324":0.060175132006406784,"325":6.437716960906982,"326":2.004711389541626,"327":6.4443464279174805,"328":3.7816107273101807,"329":2.6607818603515625,"330":1.5780858993530273,"331":-1.1177630424499512,"332":-1.0733842849731445,"333":2.156811237335205,"334":-1.4742857217788696,"335":-2.6187212467193604,"336":5.382498741149902,"337":3.1877856254577637,"338":0.0892086774110794,"339":2.324223756790161,"340":-0.35153627395629883,"341":1.2057133913040161,"342":-0.9135925769805908,"343":-1.4359169006347656,"344":2.7791593074798584,"345":0.9040406942367554,"346":-1.4344089031219482,"347":-0.9230619668960571,"348":-4.0208306312561035,"349":2.626643180847168,"350":-2.5630404949188232,"351":-1.025626540184021,"352":1.2490838766098022,"353":2.0425801277160645,"354":4.983693599700928,"355":-1.394216537475586,"356":-0.4726134240627289,"357":-0.5086867213249207,"358":-3.4562628269195557,"359":-3.320406198501587,"360":-3.7243149280548096,"361":-1.656265377998352,"362":3.766564130783081,"363":-1.8059219121932983,"364":0.5386415123939514,"365":1.5018503665924072,"366":-3.7916603088378906,"367":1.7901796102523804,"368":-1.7090387344360352,"369":-1.6547850370407104,"370":-1.3009666204452515,"371":-0.654221773147583,"372":-3.944659471511841,"373":-1.107965111732483,"374":-1.391175627708435,"375":-0.9398778676986694,"376":-0.36429452896118164,"377":-1.7827554941177368,"378":-1.0748118162155151,"379":2.0947508811950684,"380":1.3544164896011353,"381":2.3687400817871094,"382":-1.3595693111419678,"383":1.1887285709381104,"384":2.3029112815856934,"385":-1.4305951595306396,"386":-1.3571562767028809,"387":0.8234498500823975,"388":3.6298763751983643,"389":0.9941275715827942,"390":-0.4512362778186798,"391":0.29349908232688904,"392":0.8075622916221619,"393":0.6480309367179871,"394":2.975214958190918,"395":0.7352802157402039,"396":3.507669687271118,"397":3.749032497406006,"398":-0.10541936010122299,"399":-4.431135654449463,"400":0.04652088135480881,"401":9.471451759338379,"402":-0.5366420745849609,"403":-3.2676210403442383,"404":-7.064802646636963,"405":-2.6737523078918457,"406":-3.154337167739868,"407":0.40998703241348267,"408":1.563274621963501,"409":-5.271707057952881,"410":-5.02842378616333,"411":-3.3104379177093506,"412":1.269762396812439,"413":1.335294246673584,"414":-2.0742478370666504,"415":-2.419907569885254,"416":5.561788082122803,"417":-3.315685510635376,"418":-2.0756824016571045,"419":4.195580005645752,"420":3.588252067565918,"421":2.512075424194336,"422":-1.694953441619873,"423":6.113681793212891,"424":3.048323392868042,"425":7.467151165008545,"426":-2.3930540084838867,"427":-0.18138711154460907,"428":-2.2919869422912598,"429":-2.042111396789551,"430":-0.6378989815711975,"431":3.924156427383423,"432":1.3250013589859009,"433":0.6379543542861938,"434":1.7530771493911743,"435":-0.7993615865707397,"436":-0.22820736467838287,"437":-2.725682020187378,"438":0.9171414971351624,"439":-0.9913610219955444,"440":-1.5178325176239014,"441":2.426119089126587,"442":0.9800530076026917,"443":-0.7479441165924072,"444":-1.5539608001708984,"445":-4.410284042358398,"446":0.35826119780540466,"447":1.020853877067566,"448":-1.1107192039489746,"449":-3.783198833465576,"450":4.266764163970947,"451":0.10024341940879822,"452":-2.7037854194641113,"453":1.0142091512680054,"454":-1.6696425676345825,"455":-0.6944181323051453,"456":1.853749394416809,"457":1.2238597869873047,"458":-3.195802927017212,"459":-1.126658320426941,"460":-1.6134891510009766,"461":-5.347712993621826,"462":0.48190224170684814,"463":-0.425782173871994,"464":0.7671032547950745,"465":0.8743488788604736,"466":-1.6080018281936646,"467":-1.6845765113830566,"468":0.8998959064483643,"469":0.24762418866157532,"470":0.16726459562778473,"471":1.8922308683395386,"472":1.8831266164779663,"473":0.4824618995189667,"474":0.7870941162109375,"475":1.573401927947998,"476":1.306882381439209,"477":0.07599390298128128,"478":-0.7303043007850647,"479":-0.5337291955947876,"480":0.7913661599159241,"481":1.196427345275879,"482":-1.2777680158615112,"483":-1.2172777652740479,"484":-0.5912028551101685,"485":-0.09160303324460983,"486":-0.7515406012535095,"487":-0.9074863791465759,"488":-0.9806000590324402,"489":1.935961365699768,"490":-0.8052675127983093,"491":0.8449786305427551,"492":0.05191430822014809,"493":-2.409202814102173,"494":-0.40612417459487915,"495":-1.6203967332839966,"496":-0.1456671506166458,"497":0.5869354009628296,"498":0.16170205175876617,"499":-1.5840322971343994,"500":0.5872063040733337,"501":-3.8388352394104004,"502":-1.0072379112243652,"503":-0.5690039992332458,"504":0.36512085795402527,"505":0.9389100670814514,"506":0.10451900213956833,"507":-1.2824424505233765,"508":1.87809157371521,"509":-1.5123341083526611,"510":-0.34684011340141296,"511":-0.4284287393093109,"512":-1.3893499374389648,"513":1.5094776153564453,"514":-1.6926108598709106,"515":-0.8931207656860352,"516":1.0999797582626343,"517":0.036248136311769485,"518":-2.1544318199157715,"519":-2.4566988945007324,"520":-3.9647114276885986,"521":-0.3277234435081482,"522":2.1069729328155518,"523":-1.53396475315094,"524":1.1706328392028809,"525":0.137460857629776,"526":-1.2856144905090332,"527":-0.3963308334350586,"528":-0.4625839591026306,"529":-0.008235350251197815,"530":-0.13882552087306976,"531":-0.7006024122238159,"532":1.3031060695648193,"533":0.9448482990264893,"534":0.9339261651039124,"535":0.6504240036010742,"536":-0.11453426629304886,"537":0.7342727184295654,"538":-0.8870634436607361,"539":0.318974107503891,"540":0.3026268780231476,"541":-0.5639289021492004,"542":0.09613421559333801,"543":0.18075542151927948,"544":2.1701812744140625,"545":1.0802550315856934,"546":-0.16570720076560974,"547":0.30267858505249023,"548":-0.3264577388763428,"549":0.47904348373413086,"550":0.2976076006889343,"551":-0.402334064245224,"552":-0.059194210916757584,"553":1.0756375789642334,"554":1.0806574821472168,"555":-0.5438637733459473,"556":-0.39776477217674255,"557":0.12064481526613235,"558":-0.18628256022930145,"559":-1.8966960906982422,"560":-0.10155642777681351,"561":-0.42839062213897705,"562":-0.7308886051177979,"563":0.14211799204349518,"564":0.5626270771026611,"565":0.13044503331184387,"566":-1.2360719442367554,"567":-2.83552885055542,"568":-0.315653920173645,"569":0.4682226777076721,"570":0.5825543403625488,"571":0.5378912687301636,"572":-0.4679844379425049,"573":-1.1915456056594849,"574":1.5153027772903442,"575":0.3670651316642761,"576":0.24633586406707764,"577":-0.9909419417381287,"578":-0.4529764950275421,"579":1.501691460609436,"580":-0.06534223258495331,"581":-0.2844479978084564,"582":0.536210298538208,"583":0.6688229441642761,"584":-0.152652308344841,"585":-2.105391025543213,"586":-1.7101134061813354,"587":0.010606730356812477,"588":0.26730865240097046,"589":0.8856547474861145,"590":0.10670803487300873,"591":2.0745182037353516,"592":0.644841194152832,"593":0.02577538788318634,"594":0.1523008495569229,"595":-0.8918424248695374,"596":2.2054123878479004,"597":0.1470775455236435,"598":0.40602678060531616,"599":-0.7770766019821167,"600":0.0028304187580943108,"601":0.2605687975883484,"602":0.2654402554035187,"603":-0.28285858035087585,"604":2.3036751747131348,"605":-0.04384437948465347,"606":-0.6474816203117371,"607":1.0818078517913818,"608":-0.5951004028320312,"609":1.0124266147613525,"610":-2.6332387924194336,"611":1.1014379262924194,"612":-0.7496549487113953,"613":0.522973895072937,"614":1.161567211151123,"615":0.5580193996429443,"616":0.38626450300216675,"617":0.0022825500927865505,"618":0.6969411969184875,"619":-0.7683746218681335,"620":-0.2559451162815094,"621":0.06106886267662048,"622":-0.31354889273643494,"623":-0.9976596236228943,"624":-0.35688892006874084,"625":3.3006532192230225,"626":1.0153595209121704,"627":0.037814635783433914,"628":2.108461380004883,"629":-1.9101552963256836,"630":-0.6746007800102234,"631":-0.8768787384033203,"632":-0.5611914992332458,"633":-1.6270145177841187,"634":-0.06561360508203506,"635":-1.0188262462615967,"636":-1.0055960416793823,"637":-4.14157772064209,"638":-3.34814453125,"639":3.309814929962158,"640":-1.3620587587356567,"641":-1.755111813545227,"642":-4.780570030212402,"643":2.471545934677124,"644":-2.1491806507110596,"645":2.2409629821777344,"646":-1.9962639808654785,"647":0.791042685508728,"648":0.776488721370697,"649":-1.3995834589004517,"650":-0.48491325974464417,"651":0.6164484620094299,"652":0.36879271268844604,"653":-3.195687770843506,"654":1.0989060401916504,"655":-0.44059988856315613,"656":0.8738661408424377,"657":1.8228459358215332,"658":-1.2155002355575562,"659":0.6002739667892456,"660":-1.3504091501235962,"661":1.946294903755188,"662":2.6022324562072754,"663":-2.826228618621826,"664":2.0380666255950928,"665":1.5096993446350098,"666":-3.7771501541137695,"667":-1.073731780052185,"668":-1.1710736751556396,"669":-0.21554748713970184,"670":1.8602086305618286,"671":1.077893614768982,"672":-0.5467107892036438,"673":1.0169755220413208,"674":1.0984418392181396,"675":-0.47710639238357544,"676":3.951476812362671,"677":2.4918501377105713,"678":6.26906681060791,"679":-3.2429041862487793,"680":-1.2826876640319824,"681":2.874677896499634,"682":-0.4793599843978882,"683":-1.2392351627349854,"684":1.067160964012146,"685":1.2699040174484253,"686":2.785949945449829,"687":-1.911302924156189,"688":-1.5507923364639282,"689":1.2279013395309448,"690":-0.46617183089256287,"691":2.9711568355560303,"692":1.1841684579849243,"693":0.2172364890575409,"694":2.438565254211426,"695":-0.11630545556545258,"696":0.07989718019962311,"697":-1.4032801389694214,"698":-0.18253085017204285,"699":-1.3620216846466064,"700":-1.8239902257919312,"701":-2.3137903213500977,"702":-0.12544262409210205,"703":-3.094609260559082,"704":-4.337601661682129,"705":3.4379703998565674,"706":0.7721582651138306,"707":-2.3358025550842285,"708":-4.979945659637451,"709":-0.22142955660820007,"710":-0.831680178642273,"711":3.1741621494293213,"712":-4.2121171951293945,"713":0.7936864495277405,"714":0.16981658339500427,"715":-3.667128086090088,"716":-0.18453723192214966,"717":-0.32585933804512024,"718":1.0305743217468262,"719":-4.083456993103027,"720":3.0216825008392334,"721":3.319451332092285,"722":1.3910435438156128,"723":1.0244394540786743,"724":-3.216722249984741,"725":-1.8331106901168823,"726":0.5011975169181824,"727":-0.6939622163772583,"728":-1.057686686515808,"729":1.4466513395309448,"730":-2.0306639671325684,"731":-0.23591814935207367,"732":0.24418674409389496,"733":2.360942840576172,"734":-0.357342928647995,"735":1.5457864999771118,"736":-0.8951650857925415,"737":0.7204448580741882,"738":2.5214195251464844,"739":0.8717499375343323,"740":-0.7476984262466431,"741":-0.12222382426261902,"742":-0.42876625061035156,"743":-1.7269395589828491,"744":0.9162099957466125,"745":0.6654433012008667,"746":-1.01725172996521,"747":-2.4058825969696045,"748":-3.758354663848877,"749":-0.4953354597091675,"750":0.8851849436759949,"751":-0.43787452578544617,"752":-2.1948165893554688,"753":1.8821362257003784,"754":-1.9473707675933838,"755":-2.399447441101074,"756":-2.339447259902954,"757":-4.487501621246338,"758":-3.1108531951904297,"759":1.3722361326217651,"760":-6.121681213378906,"761":-1.6577204465866089,"762":5.301836013793945,"763":-2.5166738033294678,"764":-8.104363441467285,"765":2.9462552070617676,"766":-1.8686919212341309,"767":9.190220832824707,"768":3.3145828247070312,"769":6.751899719238281,"770":0.5557665228843689,"771":-2.3714492321014404,"772":-0.12962739169597626,"773":7.06948184967041,"774":-2.0451345443725586,"775":1.8112467527389526,"776":0.06655984371900558,"777":-0.5962414741516113,"778":-3.4719884395599365,"779":-5.6387176513671875,"780":-5.047738075256348,"781":5.729252338409424,"782":0.8837453722953796,"783":5.107253551483154,"784":-5.401308059692383,"785":-1.0812264680862427,"786":-2.0832667350769043,"787":-5.218090534210205,"788":-1.0513496398925781,"789":-3.631603479385376,"790":-5.171447277069092,"791":11.72701644897461,"792":3.178067445755005,"793":-0.4611530005931854,"794":-4.070549488067627,"795":5.697894096374512,"796":-1.959242820739746,"797":-7.832991600036621,"798":4.4013872146606445,"799":1.608700156211853,"800":7.9816107749938965,"801":2.062527894973755,"802":-2.232147455215454,"803":2.4091506004333496,"804":-2.6342484951019287,"805":3.4614689350128174,"806":0.4559534192085266,"807":1.0606039762496948,"808":-0.3460620641708374,"809":-1.2444698810577393,"810":-4.819575309753418,"811":1.1323837041854858,"812":-1.6879814863204956,"813":-0.15533475577831268,"814":4.396414756774902,"815":2.990957736968994,"816":5.11220645904541,"817":-3.637113094329834,"818":-0.5706868171691895,"819":-3.1231801509857178,"820":-5.567883491516113,"821":-6.204129695892334,"822":-1.2400704622268677,"823":-2.2753310203552246,"824":8.061391830444336,"825":1.095657467842102,"826":0.6554461717605591,"827":1.8612583875656128,"828":-2.152219295501709,"829":0.4803786277770996,"830":3.012748956680298,"831":0.03689954802393913,"832":-0.869909942150116,"833":-0.029824279248714447,"834":-1.2776036262512207,"835":-0.637573778629303,"836":-0.3357273042201996,"837":0.1852349191904068,"838":-0.6841254234313965,"839":-0.2070244550704956,"840":-0.4305339753627777,"841":-5.418308258056641,"842":0.07253586500883102,"843":-0.5629704594612122,"844":-0.16287896037101746,"845":1.892799735069275,"846":-1.2270309925079346,"847":-0.19732621312141418,"848":0.5650846362113953,"849":-0.8890334963798523,"850":-1.231106162071228,"851":0.14810527861118317,"852":2.341853618621826,"853":-0.2223128378391266,"854":0.31636685132980347,"855":-0.6181865930557251,"856":0.8874356150627136,"857":-1.3309686183929443,"858":-0.8985726237297058,"859":0.18297341465950012,"860":0.4012405276298523,"861":-3.037020444869995,"862":0.8027143478393555,"863":1.3643990755081177,"864":-1.7250056266784668,"865":-0.14068974554538727,"866":-0.18922702968120575,"867":-0.9332568049430847,"868":0.8670663237571716,"869":0.29455605149269104,"870":-1.00962495803833,"871":0.8941658139228821,"872":-1.0973984003067017,"873":0.6723432540893555,"874":0.8839096426963806,"875":0.4080718755722046,"876":2.227835178375244,"877":-0.3376910984516144,"878":2.3263230323791504,"879":1.3440608978271484,"880":0.04166174679994583,"881":-0.7886101603507996,"882":-0.33505576848983765,"883":0.6158046126365662,"884":1.6145458221435547,"885":-1.5421370267868042,"886":0.3278873860836029,"887":1.7542288303375244,"888":0.43544867634773254,"889":3.936258554458618,"890":-0.4527362883090973,"891":13.761665344238281,"892":4.028915882110596,"893":-7.948953628540039,"894":-0.33849167823791504,"895":-1.063451886177063,"896":3.637387990951538,"897":7.280486583709717,"898":1.0573738813400269,"899":-6.531824588775635,"900":1.8833564519882202,"901":-6.7686848640441895,"902":-13.073905944824219,"903":11.438488006591797,"904":-13.08521842956543,"905":1.045722484588623,"906":-4.0806121826171875,"907":0.8835509419441223,"908":-1.412958025932312,"909":-9.651442527770996,"910":3.015202283859253,"911":3.944474220275879,"912":-11.769363403320312,"913":-0.4633388817310333,"914":12.048377990722656,"915":7.996531963348389,"916":9.298971176147461,"917":-5.8076701164245605,"918":1.8552205562591553,"919":1.6188170909881592,"920":-1.9770514965057373,"921":-3.381150245666504,"922":-5.808097839355469,"923":-5.192854404449463,"924":2.848802089691162,"925":9.6283597946167,"926":4.836824893951416,"927":-2.1424431800842285,"928":-4.207249641418457,"929":-0.8370149731636047,"930":-14.207605361938477,"931":-2.236954689025879,"932":-0.9850008487701416,"933":-11.906349182128906,"934":-1.7216559648513794,"935":-4.935899257659912,"936":0.6791223287582397,"937":-3.643136978149414,"938":-11.465652465820312,"939":-5.540209770202637,"940":-2.194003105163574,"941":-2.8921241760253906,"942":11.576911926269531,"943":-4.174432754516602,"944":4.657076835632324,"945":0.9710803627967834,"946":-4.166898250579834,"947":3.4743471145629883,"948":0.37331271171569824,"949":4.184103965759277,"950":-3.1151609420776367,"951":6.431519985198975,"952":2.62565541267395,"953":1.770042896270752,"954":6.953718185424805,"955":10.287933349609375,"956":2.504558563232422,"957":-3.500002861022949,"958":1.2717456817626953,"959":6.532864093780518,"960":0.11606089025735855,"961":-0.21079693734645844,"962":3.5838205814361572,"963":-8.591131210327148,"964":-5.5797834396362305,"965":-0.4300673007965088,"966":-5.6515936851501465,"967":-0.7433083653450012,"968":-6.6765241622924805,"969":-7.432372093200684,"970":4.648792266845703,"971":-2.9586544036865234,"972":1.0695569515228271,"973":-11.044869422912598,"974":0.3878580927848816,"975":5.767194747924805,"976":-2.3279788494110107,"977":3.1645350456237793,"978":-0.3907301723957062,"979":5.9910807609558105,"980":-5.414432048797607,"981":-7.609772205352783,"982":-5.462593078613281,"983":-1.8110135793685913,"984":-3.1604197025299072,"985":11.516700744628906,"986":2.012596845626831,"987":7.4118733406066895,"988":1.3823591470718384,"989":-1.2118586301803589,"990":-0.3696548044681549,"991":6.924439907073975,"992":6.892689228057861,"993":-1.7965229749679565,"994":0.1546889692544937,"995":9.479170799255371,"996":-5.099985122680664,"997":0.21685682237148285,"998":-4.555469512939453,"999":-1.1401731967926025,"1000":-4.276854991912842,"1001":-2.3685975074768066,"1002":2.146843910217285,"1003":-6.877194404602051,"1004":-4.220544815063477,"1005":-6.567301273345947,"1006":-2.9072275161743164,"1007":4.332849025726318,"1008":9.326343536376953,"1009":-5.309085845947266,"1010":4.017192840576172,"1011":2.1333367824554443,"1012":-3.146289110183716,"1013":-0.6844590902328491,"1014":1.260489821434021,"1015":1.4373209476470947,"1016":0.27943238615989685,"1017":5.03654146194458,"1018":-0.32160475850105286,"1019":4.588164806365967,"1020":-2.594463586807251,"1021":-6.096398830413818,"1022":-6.6203227043151855,"1023":0.16743957996368408,"1024":-0.2996653914451599,"1025":0.5237009525299072,"1026":-3.2294816970825195,"1027":0.32747095823287964,"1028":0.9812000393867493,"1029":0.44272974133491516,"1030":0.6317762136459351,"1031":0.22892476618289948,"1032":-1.351974606513977,"1033":-1.6545414924621582,"1034":0.16554196178913116,"1035":1.4651685953140259,"1036":-2.5960817337036133,"1037":-1.1270174980163574,"1038":-0.08761607110500336,"1039":2.1311440467834473,"1040":0.01734701730310917,"1041":-0.1578073799610138,"1042":1.067979335784912,"1043":2.2710084915161133,"1044":-0.06751088052988052,"1045":-1.1959911584854126,"1046":0.8971934914588928,"1047":0.13212250173091888,"1048":4.538109302520752,"1049":0.1164836660027504,"1050":-0.8041316270828247,"1051":1.1015483140945435,"1052":0.1403723508119583,"1053":0.43128231167793274,"1054":2.1577658653259277,"1055":0.9965766072273254,"1056":0.20799539983272552,"1057":0.07447496056556702,"1058":-0.9093899130821228,"1059":-0.5376041531562805,"1060":-0.7561690807342529,"1061":-1.0581601858139038,"1062":0.7970450520515442,"1063":0.7614611983299255,"1064":-0.40413740277290344,"1065":0.2740602195262909,"1066":-0.05555945262312889,"1067":0.22466668486595154,"1068":1.946344256401062,"1069":-1.6945399045944214,"1070":0.3960988223552704,"1071":-0.21378956735134125,"1072":2.5858542919158936,"1073":0.008074327372014523,"1074":0.2988895773887634,"1075":0.16848154366016388,"1076":-0.34170591831207275,"1077":-1.008601188659668,"1078":-0.5493090748786926,"1079":0.35746729373931885,"1080":1.4359952211380005,"1081":1.340721607208252,"1082":-0.5124328136444092,"1083":0.5395871996879578,"1084":-1.524749994277954,"1085":0.300764799118042,"1086":-0.6022260189056396,"1087":-1.595320701599121,"1088":1.6738837957382202,"1089":0.0517706423997879,"1090":-0.0003374535299371928,"1091":-0.07077101618051529,"1092":0.06890933960676193,"1093":-0.02952026017010212,"1094":-0.06569400429725647,"1095":0.04433038458228111,"1096":-0.05844392627477646,"1097":-0.03176701068878174,"1098":-0.0553077831864357,"1099":-0.004704652354121208,"1100":-0.05356694385409355,"1101":-0.021016810089349747,"1102":-0.06618599593639374,"1103":-0.025151308625936508,"1104":0.0011087105376645923,"1105":0.047255806624889374,"1106":0.05330221354961395,"1107":-0.06916678696870804,"1108":0.04014800116419792,"1109":0.019308578222990036,"1110":-0.06749460846185684,"1111":0.04285706579685211,"1112":-0.05819328501820564,"1113":-0.07482997328042984,"1114":0.022500261664390564,"1115":-0.010079199448227882,"1116":0.057974010705947876,"1117":-0.06904909014701843,"1118":-0.011652668938040733,"1119":0.01658356375992298,"1120":-0.06874655932188034,"1121":-0.022634416818618774}},"hiddenLayers":[{"inputMatrix":{"rows":20,"columns":33,"weights":{"0":0.6781529784202576,"1":-1.348842740058899,"2":-0.3982890248298645,"3":0.05660507082939148,"4":-1.1106675863265991,"5":-0.7515501976013184,"6":-2.1969127655029297,"7":-1.9013479948043823,"8":0.41898268461227417,"9":-1.2543296813964844,"10":-0.265917032957077,"11":-0.5655319094657898,"12":-0.43036729097366333,"13":0.7537347674369812,"14":-1.9376791715621948,"15":0.07900100946426392,"16":-1.1127794981002808,"17":-1.5165016651153564,"18":0.35772231221199036,"19":-1.2579972743988037,"20":1.7567055225372314,"21":-0.2612917423248291,"22":-0.17124713957309723,"23":0.0888700932264328,"24":0.26029327511787415,"25":-0.19774331152439117,"26":-0.2648097276687622,"27":1.3136438131332397,"28":1.2138608694076538,"29":0.011020448990166187,"30":1.7944176197052002,"31":1.8025691509246826,"32":1.0012788772583008,"33":0.02009190246462822,"34":-0.5456659197807312,"35":0.9399964213371277,"36":1.2137013673782349,"37":0.35464945435523987,"38":-0.9635170102119446,"39":1.83768892288208,"40":0.7039380669593811,"41":0.2620167136192322,"42":-0.1891762614250183,"43":0.051545821130275726,"44":1.1062166690826416,"45":0.9240140318870544,"46":-1.3853908777236938,"47":0.9408168792724609,"48":0.4902602434158325,"49":-0.09087222814559937,"50":1.52780020236969,"51":-1.8329987525939941,"52":1.3883991241455078,"53":-1.3026198148727417,"54":0.5805136561393738,"55":-0.087612584233284,"56":-0.4027358889579773,"57":1.3763930797576904,"58":0.6484374403953552,"59":-0.427541047334671,"60":-0.8762984275817871,"61":-1.0499943494796753,"62":-2.008500099182129,"63":-0.6314684748649597,"64":-0.7713781595230103,"65":-0.07927753031253815,"66":0.3249143362045288,"67":1.1222741603851318,"68":-0.38080570101737976,"69":-1.6474381685256958,"70":-1.0047985315322876,"71":2.7374463081359863,"72":-1.0162588357925415,"73":-0.6024492383003235,"74":-1.843785047531128,"75":-1.135427474975586,"76":-1.9951962232589722,"77":-1.9571648836135864,"78":1.319053053855896,"79":-0.4483824074268341,"80":-2.565258264541626,"81":-1.7093998193740845,"82":0.1814367026090622,"83":-0.9380760192871094,"84":1.1392946243286133,"85":-2.2652900218963623,"86":0.8854513764381409,"87":-0.013841814361512661,"88":-1.2156435251235962,"89":0.2879595458507538,"90":0.528506875038147,"91":0.5358731150627136,"92":-1.112111210823059,"93":1.4301050901412964,"94":0.2986223101615906,"95":0.3564673364162445,"96":-0.02894965000450611,"97":-0.14478231966495514,"98":-0.4717263877391815,"99":1.3478498458862305,"100":0.4481297433376312,"101":-0.673324465751648,"102":-0.7930551171302795,"103":-0.49345850944519043,"104":-0.1947210133075714,"105":-1.9672271013259888,"106":-0.1458750218153,"107":0.7863408923149109,"108":-1.398899793624878,"109":-0.13123765587806702,"110":0.5409485101699829,"111":2.1018691062927246,"112":-0.0011926101287826896,"113":-0.19536957144737244,"114":-0.6301059722900391,"115":1.1788668632507324,"116":-1.2665435075759888,"117":1.8522508144378662,"118":-0.5692744255065918,"119":1.0395936965942383,"120":0.2137770801782608,"121":-1.083267092704773,"122":1.3254281282424927,"123":1.5906225442886353,"124":0.9149826765060425,"125":0.012728109955787659,"126":-0.6133193373680115,"127":-0.1608845740556717,"128":0.791882336139679,"129":-0.0013312000082805753,"130":1.1944714784622192,"131":-0.38344961404800415,"132":0.3509047031402588,"133":0.9727867841720581,"134":1.3848084211349487,"135":-1.2895935773849487,"136":0.47083044052124023,"137":0.17742134630680084,"138":1.27817702293396,"139":0.9055158495903015,"140":-0.8474027514457703,"141":1.8556848764419556,"142":0.032279592007398605,"143":0.6026525497436523,"144":-1.384006142616272,"145":-0.3334851562976837,"146":1.1232821941375732,"147":0.10981826484203339,"148":-1.737369179725647,"149":1.3408807516098022,"150":0.30523258447647095,"151":0.633126974105835,"152":-0.43794310092926025,"153":0.634611189365387,"154":2.787411689758301,"155":0.42944538593292236,"156":0.49492570757865906,"157":-1.329079270362854,"158":1.070981740951538,"159":-0.6270545721054077,"160":-0.7817526459693909,"161":1.2812138795852661,"162":-0.4577818512916565,"163":0.28452983498573303,"164":0.907855749130249,"165":-0.23993752896785736,"166":0.6063125133514404,"167":0.24626785516738892,"168":-2.623983144760132,"169":0.29248830676078796,"170":1.6150189638137817,"171":-0.9900598526000977,"172":-0.8878551721572876,"173":-0.8762785196304321,"174":-0.5153475999832153,"175":-1.865673303604126,"176":-1.6717702150344849,"177":-0.06614767014980316,"178":-0.5953871607780457,"179":0.006397904362529516,"180":-1.592690348625183,"181":0.6554787158966064,"182":0.16064803302288055,"183":2.2011265754699707,"184":-1.7428336143493652,"185":0.2881614863872528,"186":0.17291393876075745,"187":0.4850975275039673,"188":0.05454453453421593,"189":-0.49820128083229065,"190":0.5467007160186768,"191":-0.13728733360767365,"192":0.8213285803794861,"193":1.2701358795166016,"194":0.9384550452232361,"195":1.2980161905288696,"196":-0.38961261510849,"197":0.4180327355861664,"198":1.4924489259719849,"199":-0.8306322693824768,"200":0.9959852695465088,"201":2.076887845993042,"202":-0.17779159545898438,"203":-2.760321617126465,"204":-0.1742129921913147,"205":0.5038827657699585,"206":0.48322799801826477,"207":0.5484672784805298,"208":1.0475155115127563,"209":-0.3896488845348358,"210":0.4641607105731964,"211":0.3890666663646698,"212":1.073968768119812,"213":0.6593658328056335,"214":-1.3320058584213257,"215":0.8812198638916016,"216":0.15306356549263,"217":0.835250973701477,"218":-0.27512437105178833,"219":-1.707053542137146,"220":0.22374726831912994,"221":1.5458345413208008,"222":0.6861701607704163,"223":-0.38427308201789856,"224":-1.014732003211975,"225":1.7237383127212524,"226":0.8708332180976868,"227":-1.0545775890350342,"228":-0.02439865842461586,"229":0.4798744320869446,"230":0.10823894292116165,"231":1.008331060409546,"232":-0.2381124496459961,"233":-0.34808599948883057,"234":0.03281939774751663,"235":-1.0485283136367798,"236":0.29924508929252625,"237":1.3312138319015503,"238":1.318241834640503,"239":-0.7457625269889832,"240":1.3255239725112915,"241":-0.08801475912332535,"242":-0.010831772349774837,"243":-0.2582462430000305,"244":-0.5112200975418091,"245":0.6054242849349976,"246":0.25995391607284546,"247":-0.3237641751766205,"248":-0.278522253036499,"249":-0.5238117575645447,"250":1.7813905477523804,"251":-0.6094992160797119,"252":-1.0852144956588745,"253":0.025572312995791435,"254":0.5231090188026428,"255":0.7663183212280273,"256":-0.5964897274971008,"257":-1.0629444122314453,"258":0.8554246425628662,"259":-1.009270429611206,"260":-1.087121605873108,"261":-0.5665860772132874,"262":-1.1447169780731201,"263":1.0791608095169067,"264":0.6070218086242676,"265":0.09527073055505753,"266":1.227168321609497,"267":-0.6651658415794373,"268":0.4404142200946808,"269":0.7710106372833252,"270":1.2555742263793945,"271":1.4611718654632568,"272":-0.8739551305770874,"273":-0.14916352927684784,"274":-0.10383705794811249,"275":0.6596324443817139,"276":0.27185219526290894,"277":-0.6608926653862,"278":-0.1068577915430069,"279":0.5929021835327148,"280":-0.18515178561210632,"281":0.6502057313919067,"282":-0.7294536828994751,"283":1.5451065301895142,"284":0.5797050595283508,"285":-0.2554968297481537,"286":-0.16362866759300232,"287":0.7702174782752991,"288":0.9006889462471008,"289":1.2305749654769897,"290":0.3706000745296478,"291":0.38495445251464844,"292":-0.4694516658782959,"293":-0.19535177946090698,"294":-1.1393568515777588,"295":0.14701536297798157,"296":-1.0787569284439087,"297":0.017133843153715134,"298":1.1855111122131348,"299":0.5333535671234131,"300":-1.1979883909225464,"301":0.50125652551651,"302":2.4192419052124023,"303":-1.397742509841919,"304":-0.5037841200828552,"305":-1.2613437175750732,"306":0.53889000415802,"307":-1.775864601135254,"308":-1.5584384202957153,"309":-0.7950692176818848,"310":0.8705447316169739,"311":-0.9005339741706848,"312":-0.6655174493789673,"313":0.3295971155166626,"314":0.44180136919021606,"315":2.2872025966644287,"316":-1.1833354234695435,"317":-0.015287349000573158,"318":0.371873676776886,"319":0.741820752620697,"320":-0.05622698366641998,"321":-0.3945557475090027,"322":-0.5316786170005798,"323":0.47920647263526917,"324":0.9603854417800903,"325":1.145163893699646,"326":2.0134873390197754,"327":1.7762776613235474,"328":-0.9650997519493103,"329":0.15694238245487213,"330":0.42575427889823914,"331":0.7785063982009888,"332":-1.0717781782150269,"333":-2.9711484909057617,"334":-0.34158414602279663,"335":1.0249873399734497,"336":-0.5407564043998718,"337":-0.5218921899795532,"338":-0.9773616194725037,"339":-1.5947999954223633,"340":-1.5887045860290527,"341":0.2196655422449112,"342":0.6018375754356384,"343":-0.36601918935775757,"344":-2.2023112773895264,"345":-1.490990400314331,"346":1.4375861883163452,"347":-0.15605489909648895,"348":1.5614373683929443,"349":-1.3625930547714233,"350":0.8535495400428772,"351":-0.49686500430107117,"352":-1.5062543153762817,"353":0.46797552704811096,"354":0.04504965618252754,"355":0.7778595685958862,"356":-0.11852248013019562,"357":0.5317170023918152,"358":0.06757911294698715,"359":0.6947523355484009,"360":0.45414990186691284,"361":-0.6513726711273193,"362":-0.2516060173511505,"363":1.239492654800415,"364":1.050824761390686,"365":1.6908677816390991,"366":0.12419711798429489,"367":-1.3134795427322388,"368":0.3020589053630829,"369":-2.061552047729492,"370":-1.6211764812469482,"371":-0.28165194392204285,"372":-0.9706816673278809,"373":-0.6557106971740723,"374":-1.2625051736831665,"375":-0.4271125793457031,"376":0.9876314997673035,"377":-2.1883156299591064,"378":-1.1053588390350342,"379":-3.117385149002075,"380":-0.03297734633088112,"381":0.6743448376655579,"382":-1.1884211301803589,"383":0.9995465874671936,"384":0.9179354310035706,"385":-0.5308001637458801,"386":0.1826450079679489,"387":-0.2381914258003235,"388":-0.5896053314208984,"389":-1.2721425294876099,"390":1.3231977224349976,"391":1.934983491897583,"392":-0.3054446876049042,"393":0.9840389490127563,"394":0.8422519564628601,"395":-1.1852957010269165,"396":1.9054940938949585,"397":0.4383825957775116,"398":-0.3351934552192688,"399":0.27320870757102966,"400":-0.698409914970398,"401":-1.178409457206726,"402":0.9448127746582031,"403":0.5481849312782288,"404":0.37691494822502136,"405":-0.10892414301633835,"406":0.10032904893159866,"407":0.02197299897670746,"408":0.4961780309677124,"409":0.05352767929434776,"410":0.15073402225971222,"411":-0.09566827863454819,"412":-0.3458041250705719,"413":0.3426426649093628,"414":-1.0738649368286133,"415":0.45928430557250977,"416":0.5600945353507996,"417":-0.7757724523544312,"418":-0.04401496797800064,"419":1.7056547403335571,"420":0.8832297325134277,"421":0.008878490887582302,"422":-1.025492548942566,"423":0.10951348394155502,"424":-0.47313085198402405,"425":-0.5652247071266174,"426":-0.3551754355430603,"427":0.3790281414985657,"428":0.32244884967803955,"429":-0.06824877113103867,"430":1.1778974533081055,"431":-0.7949489951133728,"432":0.7589828372001648,"433":-1.9427893161773682,"434":-3.016934394836426,"435":0.06730278581380844,"436":0.3316003680229187,"437":0.3485161066055298,"438":0.2048494517803192,"439":-0.14433744549751282,"440":-0.7188257575035095,"441":1.1937764883041382,"442":1.290118932723999,"443":0.7073540687561035,"444":-0.3896603584289551,"445":-1.5824071168899536,"446":-2.437506675720215,"447":0.49488604068756104,"448":-0.2928563058376312,"449":0.2655182480812073,"450":0.418243944644928,"451":0.6366941332817078,"452":-0.15607322752475739,"453":-0.45039698481559753,"454":-1.8457072973251343,"455":-2.581618547439575,"456":1.1032556295394897,"457":-0.9816780090332031,"458":-0.7414306998252869,"459":0.19719918072223663,"460":-0.6485711932182312,"461":0.7853642106056213,"462":1.2023334503173828,"463":-0.6764902472496033,"464":-0.0945909172296524,"465":-0.09664792567491531,"466":0.5441276431083679,"467":1.3235702514648438,"468":1.6366175413131714,"469":1.0775809288024902,"470":-0.03110998310148716,"471":0.027582604438066483,"472":-0.5490359663963318,"473":1.303784728050232,"474":0.8736863136291504,"475":-1.4727749824523926,"476":-0.21659520268440247,"477":0.2080080211162567,"478":0.7825928330421448,"479":1.0239845514297485,"480":-0.7755330204963684,"481":0.8032634258270264,"482":0.29929813742637634,"483":-1.457664132118225,"484":0.18265898525714874,"485":1.7656545639038086,"486":2.8850176334381104,"487":0.6530697345733643,"488":0.4099917411804199,"489":0.19134432077407837,"490":-0.49869319796562195,"491":-0.2733469009399414,"492":-0.24163365364074707,"493":-1.5598496198654175,"494":-0.5226103663444519,"495":0.1876503974199295,"496":-0.7622768878936768,"497":0.2310323268175125,"498":1.3477363586425781,"499":0.2411556988954544,"500":-1.9084961414337158,"501":1.806944489479065,"502":1.6371893882751465,"503":-0.07947319746017456,"504":0.7532405853271484,"505":1.201894760131836,"506":2.3723130226135254,"507":0.02567405253648758,"508":-0.32561933994293213,"509":1.4725192785263062,"510":1.2960398197174072,"511":0.31210702657699585,"512":1.6100505590438843,"513":-2.3007404804229736,"514":2.4139342308044434,"515":-0.6722904443740845,"516":-0.8334161043167114,"517":-0.0027465883176773787,"518":-0.1484793871641159,"519":0.7220266461372375,"520":0.8638444542884827,"521":0.5055834650993347,"522":-1.9838941097259521,"523":-0.7061042189598083,"524":-0.9378703832626343,"525":-0.3671312630176544,"526":0.11592515558004379,"527":-0.393871933221817,"528":0.5775439739227295,"529":0.09847482293844223,"530":0.31594109535217285,"531":-0.10782188922166824,"532":-0.08003968745470047,"533":0.8831992745399475,"534":-1.6860406398773193,"535":-1.1129995584487915,"536":0.17378559708595276,"537":-0.7033656239509583,"538":-0.4137049913406372,"539":-1.331651210784912,"540":-0.08843012899160385,"541":1.2974357604980469,"542":-1.6240801811218262,"543":-0.6944857239723206,"544":-0.8854008913040161,"545":-0.9438037276268005,"546":1.5618900060653687,"547":-1.5633125305175781,"548":1.221788763999939,"549":0.4961354434490204,"550":-0.102098248898983,"551":0.08355025202035904,"552":0.6028772592544556,"553":-0.8880271911621094,"554":-1.0204887390136719,"555":1.8098170757293701,"556":-0.02818312682211399,"557":0.14485108852386475,"558":0.1272093653678894,"559":0.1478155553340912,"560":-0.9932509660720825,"561":0.3661845922470093,"562":1.2968521118164062,"563":-0.3101874589920044,"564":-1.0806506872177124,"565":-1.4216179847717285,"566":2.5153002738952637,"567":-1.134216070175171,"568":-0.3580201268196106,"569":-1.7269891500473022,"570":-0.5236332416534424,"571":-1.7300310134887695,"572":-0.7630210518836975,"573":0.6135075688362122,"574":0.40390896797180176,"575":-2.0836613178253174,"576":-1.5815703868865967,"577":-0.2580725848674774,"578":-1.1372709274291992,"579":1.2815122604370117,"580":-2.179643154144287,"581":0.25374558568000793,"582":-0.7922576069831848,"583":-1.1065819263458252,"584":0.0920630618929863,"585":0.3354308009147644,"586":0.20570600032806396,"587":-1.3063983917236328,"588":1.8594330549240112,"589":0.690083384513855,"590":1.0354604721069336,"591":0.6858664751052856,"592":-0.6820710301399231,"593":-0.9990112781524658,"594":1.4902235269546509,"595":0.20516155660152435,"596":1.2774089574813843,"597":0.545442521572113,"598":-0.1199209988117218,"599":-1.3276307582855225,"600":0.5606575012207031,"601":0.029172725975513458,"602":0.9707589149475098,"603":0.34713438153266907,"604":2.241071939468384,"605":0.47584232687950134,"606":-0.8205342888832092,"607":0.9697464108467102,"608":1.280167579650879,"609":0.36281442642211914,"610":-1.1797000169754028,"611":0.6809810996055603,"612":-0.619785726070404,"613":0.37293723225593567,"614":0.199393630027771,"615":-0.7244855761528015,"616":1.636423110961914,"617":1.4916778802871704,"618":0.6907024383544922,"619":-1.4093163013458252,"620":-0.001495255040936172,"621":0.35427701473236084,"622":-0.5285335779190063,"623":0.09447537362575531,"624":-0.9760752320289612,"625":0.44086289405822754,"626":0.38082975149154663,"627":0.429714173078537,"628":0.6376649737358093,"629":-1.5204029083251953,"630":1.1560882329940796,"631":-1.6922048330307007,"632":-1.0513675212860107,"633":1.3312610387802124,"634":1.647589087486267,"635":0.30249568819999695,"636":0.48532506823539734,"637":-0.48982203006744385,"638":1.4186663627624512,"639":1.1317025423049927,"640":-0.9242310523986816,"641":0.2315129041671753,"642":0.04881949722766876,"643":0.6545059680938721,"644":-1.0380611419677734,"645":0.24807880818843842,"646":1.0432157516479492,"647":-0.587679386138916,"648":-1.6945081949234009,"649":-0.5926229953765869,"650":0.5416997671127319,"651":-0.06696580350399017,"652":0.46685710549354553,"653":0.05553128570318222,"654":0.13245373964309692,"655":-0.9224418997764587,"656":0.5895330905914307,"657":-0.6662073135375977,"658":-1.2912390232086182,"659":0.5916793942451477}},"inputHidden":{"rows":20,"columns":20,"weights":{"0":-0.6734085083007812,"1":1.7046033143997192,"2":0.6160677075386047,"3":0.5057229399681091,"4":-0.2897498607635498,"5":-1.8560147285461426,"6":2.177743673324585,"7":0.6127905249595642,"8":-2.509913206100464,"9":0.9319198727607727,"10":-0.947003960609436,"11":4.297226905822754,"12":0.9305500388145447,"13":1.7791560888290405,"14":0.27694663405418396,"15":-1.431994080543518,"16":-0.1074782982468605,"17":1.4441369771957397,"18":0.9831680059432983,"19":0.6120977401733398,"20":-1.3434957265853882,"21":0.6138054132461548,"22":-0.20305895805358887,"23":-0.40962859988212585,"24":0.06110605597496033,"25":1.6949325799942017,"26":-0.33244284987449646,"27":0.05561419576406479,"28":-1.4816561937332153,"29":1.8167626857757568,"30":0.26837652921676636,"31":-0.18835869431495667,"32":0.06977896392345428,"33":0.9473167061805725,"34":-1.2120106220245361,"35":-0.4841863811016083,"36":2.9427616596221924,"37":0.8800798654556274,"38":1.0479294061660767,"39":0.73417067527771,"40":1.6602026224136353,"41":0.41191643476486206,"42":0.2671748101711273,"43":0.04912058636546135,"44":0.43072381615638733,"45":-1.663353681564331,"46":-0.5120010375976562,"47":-1.5170425176620483,"48":0.8523978590965271,"49":-1.4594240188598633,"50":-0.7842980623245239,"51":0.48880213499069214,"52":-0.12316900491714478,"53":0.3956071138381958,"54":-0.45104360580444336,"55":0.2839738428592682,"56":-2.228224039077759,"57":-0.5920624732971191,"58":-0.22731654345989227,"59":0.9227900505065918,"60":0.4096054434776306,"61":1.9417985677719116,"62":2.942035675048828,"63":-0.08409164845943451,"64":-1.0082250833511353,"65":0.381355345249176,"66":0.3378087878227234,"67":0.8540813326835632,"68":0.12256612628698349,"69":1.2569750547409058,"70":-1.6854276657104492,"71":-0.8095695972442627,"72":0.8026080131530762,"73":0.5530544519424438,"74":-0.15402409434318542,"75":-1.1671080589294434,"76":0.36247462034225464,"77":2.3277764320373535,"78":-1.0593239068984985,"79":-0.9237297773361206,"80":-0.8060692548751831,"81":0.5338403582572937,"82":-0.6432393193244934,"83":0.9871099591255188,"84":-0.7595959901809692,"85":-0.5873066782951355,"86":-0.5494951605796814,"87":0.35716956853866577,"88":-2.13858962059021,"89":1.3007100820541382,"90":-3.761286497116089,"91":1.7473011016845703,"92":0.9608071446418762,"93":1.1433202028274536,"94":-1.6427783966064453,"95":0.7245970368385315,"96":-2.016233205795288,"97":2.4488024711608887,"98":-2.0389440059661865,"99":-0.19570478796958923,"100":1.6012684106826782,"101":1.4664912223815918,"102":-1.587235450744629,"103":-1.7319071292877197,"104":-0.05437612906098366,"105":0.23402491211891174,"106":0.47004929184913635,"107":-0.7512511610984802,"108":1.463078498840332,"109":-0.8379873633384705,"110":2.302100419998169,"111":0.5951848030090332,"112":0.29478415846824646,"113":0.7659375071525574,"114":2.0085957050323486,"115":-2.4731051921844482,"116":0.048829272389411926,"117":-2.0031375885009766,"118":3.039806604385376,"119":0.6904089450836182,"120":-0.7304973006248474,"121":1.0906039476394653,"122":1.1967144012451172,"123":1.0384000539779663,"124":0.34882256388664246,"125":2.9421401023864746,"126":1.7983518838882446,"127":-0.3752264380455017,"128":0.16468283534049988,"129":2.750798225402832,"130":-0.4582519233226776,"131":-1.4412755966186523,"132":1.7262884378433228,"133":1.334679126739502,"134":-0.44919973611831665,"135":-1.6537901163101196,"136":1.2263460159301758,"137":2.9537301063537598,"138":1.7516554594039917,"139":-0.005651690065860748,"140":-2.784113645553589,"141":1.825474500656128,"142":-0.5559934377670288,"143":0.7151198983192444,"144":-0.386254221200943,"145":-0.0751519724726677,"146":-0.38406437635421753,"147":-1.471646785736084,"148":0.013410828076303005,"149":2.487039566040039,"150":-0.14672863483428955,"151":1.8433972597122192,"152":0.04694779962301254,"153":0.708382248878479,"154":-0.5477961897850037,"155":-0.2669968903064728,"156":-1.4720075130462646,"157":1.97685968875885,"158":1.79430091381073,"159":2.584181547164917,"160":1.9809499979019165,"161":-2.1288857460021973,"162":-0.8891861438751221,"163":-0.7658600807189941,"164":0.9900686144828796,"165":-2.9808077812194824,"166":-1.7457960844039917,"167":-3.382364511489868,"168":-0.5150201916694641,"169":-0.10270681977272034,"170":0.5927469730377197,"171":4.438458442687988,"172":-0.16421499848365784,"173":-4.346797466278076,"174":-1.2836458683013916,"175":0.9739847779273987,"176":-3.6883270740509033,"177":-0.3431575894355774,"178":-1.666282296180725,"179":0.0694555714726448,"180":0.3206526041030884,"181":1.7319952249526978,"182":-1.7616143226623535,"183":-0.1855449080467224,"184":0.5126703381538391,"185":-0.26199278235435486,"186":0.0891445130109787,"187":0.28135859966278076,"188":-0.014999398961663246,"189":-1.271560788154602,"190":0.8424897789955139,"191":2.796168565750122,"192":0.4803166389465332,"193":-0.535154402256012,"194":0.0861920490860939,"195":-0.5441126227378845,"196":-0.8248279094696045,"197":-0.2822842597961426,"198":1.1680387258529663,"199":1.6172829866409302,"200":1.5568739175796509,"201":0.42902883887290955,"202":-0.3678940236568451,"203":-1.2911725044250488,"204":-1.0487723350524902,"205":-0.717502772808075,"206":-0.6827405095100403,"207":0.9601372480392456,"208":1.1640253067016602,"209":-0.8075340390205383,"210":0.4104296863079071,"211":0.23813949525356293,"212":-2.295959234237671,"213":0.9464992880821228,"214":0.7890483140945435,"215":1.6261520385742188,"216":-1.912229061126709,"217":-0.26516443490982056,"218":-0.5326833128929138,"219":-0.18907515704631805,"220":0.8384374976158142,"221":0.1273292899131775,"222":-0.00928923673927784,"223":0.14411504566669464,"224":-0.3825686275959015,"225":0.7886223196983337,"226":0.6168044209480286,"227":-0.46873894333839417,"228":-0.6336478590965271,"229":-0.05736071243882179,"230":-1.6857880353927612,"231":-0.7025125026702881,"232":0.7358754873275757,"233":-0.8516462445259094,"234":-0.805128812789917,"235":-0.23318947851657867,"236":-0.3890819251537323,"237":-0.21810507774353027,"238":0.24466654658317566,"239":0.3809610903263092,"240":-3.2164697647094727,"241":-0.34114593267440796,"242":0.7831065058708191,"243":4.115260601043701,"244":-0.773109495639801,"245":0.839744508266449,"246":1.7471845149993896,"247":0.21659119427204132,"248":1.0233970880508423,"249":6.4415740966796875,"250":-3.143068313598633,"251":-0.1467369645833969,"252":-0.03481946885585785,"253":1.0352749824523926,"254":-2.589700222015381,"255":-0.14047552645206451,"256":-2.588501453399658,"257":2.6021790504455566,"258":0.42425113916397095,"259":-0.7690925598144531,"260":-0.17453181743621826,"261":-2.2107696533203125,"262":-0.3219411373138428,"263":-2.1508235931396484,"264":-1.3123770952224731,"265":-0.006901401095092297,"266":0.12732866406440735,"267":1.8623751401901245,"268":-2.2817044258117676,"269":-0.7435943484306335,"270":1.3699114322662354,"271":2.3134803771972656,"272":-3.5074267387390137,"273":1.245336651802063,"274":-0.11392330378293991,"275":1.5336061716079712,"276":0.5624245405197144,"277":-1.704103946685791,"278":0.5877072215080261,"279":-0.6137863993644714,"280":-1.015209436416626,"281":1.4162347316741943,"282":4.180718898773193,"283":-1.4104480743408203,"284":-0.04659466817975044,"285":-1.8930048942565918,"286":-0.4645908772945404,"287":-0.9279417991638184,"288":0.011363998055458069,"289":2.9671707153320312,"290":-2.0076560974121094,"291":0.26374897360801697,"292":2.916374921798706,"293":5.479193210601807,"294":2.74958872795105,"295":-0.5531816482543945,"296":1.9243016242980957,"297":3.2094218730926514,"298":0.7689775824546814,"299":0.12375905364751816,"300":0.07121633738279343,"301":0.34697696566581726,"302":0.15804991126060486,"303":0.9664506912231445,"304":0.30071723461151123,"305":1.6311458349227905,"306":0.23494867980480194,"307":0.8324241638183594,"308":-0.7225391864776611,"309":0.5099368095397949,"310":0.02083330787718296,"311":-0.5432562828063965,"312":-0.49603378772735596,"313":0.3573566675186157,"314":-0.27326837182044983,"315":0.007647488731890917,"316":0.728634238243103,"317":0.12325040251016617,"318":-0.6014573574066162,"319":1.2620549201965332,"320":-0.09636944532394409,"321":0.7549832463264465,"322":1.4711523056030273,"323":0.2678210437297821,"324":-1.014909267425537,"325":1.3243781328201294,"326":-0.4465920031070709,"327":0.8001958727836609,"328":1.9175785779953003,"329":-1.3621656894683838,"330":0.2756940424442291,"331":-0.16111545264720917,"332":1.0646198987960815,"333":1.0479764938354492,"334":1.293809413909912,"335":-0.795647144317627,"336":0.3654312491416931,"337":0.29276520013809204,"338":0.42983222007751465,"339":-1.4503161907196045,"340":1.1966447830200195,"341":-0.18511545658111572,"342":-1.4658491611480713,"343":-0.9756630063056946,"344":0.3703422248363495,"345":-1.2134637832641602,"346":0.10619998723268509,"347":0.05818193033337593,"348":-0.5782027244567871,"349":-2.364372730255127,"350":0.6809722185134888,"351":0.34466901421546936,"352":2.081711530685425,"353":-0.6861212849617004,"354":1.3421318531036377,"355":-0.16225402057170868,"356":-0.12996016442775726,"357":-2.4685397148132324,"358":1.7096407413482666,"359":1.124354600906372,"360":0.25188305974006653,"361":2.8214738368988037,"362":1.021578073501587,"363":-0.2938533127307892,"364":0.6105005145072937,"365":2.130924701690674,"366":1.0224014520645142,"367":-0.25585851073265076,"368":2.1787097454071045,"369":-0.5784650444984436,"370":0.3503986895084381,"371":-1.5386614799499512,"372":0.4008561372756958,"373":1.219601035118103,"374":1.5192513465881348,"375":-3.229149103164673,"376":0.9545213580131531,"377":-0.5295358896255493,"378":3.0482993125915527,"379":2.321850299835205,"380":-1.8209481239318848,"381":0.25446897745132446,"382":0.5999370813369751,"383":0.006632647477090359,"384":-1.2807252407073975,"385":-0.20078662037849426,"386":-0.6064069271087646,"387":0.8284174799919128,"388":0.6220496892929077,"389":-0.9867587685585022,"390":1.271553635597229,"391":-0.9345433712005615,"392":-1.1125802993774414,"393":-2.499462604522705,"394":-1.5938266515731812,"395":1.4950051307678223,"396":3.6839182376861572,"397":-2.1337239742279053,"398":-0.8559131622314453,"399":-1.2589367628097534}},"inputBias":{"rows":20,"columns":1,"weights":{"0":-0.7305009365081787,"1":1.3737822771072388,"2":-0.30897194147109985,"3":-1.08657968044281,"4":-2.201828956604004,"5":-2.4394571781158447,"6":-0.17770813405513763,"7":-1.625386357307434,"8":0.3397824168205261,"9":-0.8478224873542786,"10":0.07576468586921692,"11":-1.1170648336410522,"12":-1.355403184890747,"13":-0.8353987336158752,"14":-1.9361985921859741,"15":0.24349914491176605,"16":-0.5543335676193237,"17":-0.41484302282333374,"18":-1.7866322994232178,"19":0.6917030215263367}},"forgetMatrix":{"rows":20,"columns":33,"weights":{"0":0.1082201823592186,"1":0.4689234495162964,"2":0.5875442028045654,"3":-1.0080143213272095,"4":0.32254108786582947,"5":0.2088717222213745,"6":-0.7689107656478882,"7":-0.33784565329551697,"8":0.1719466596841812,"9":-0.9876909852027893,"10":0.47968724370002747,"11":-0.27183017134666443,"12":-1.373964548110962,"13":-0.5036517381668091,"14":0.4067331552505493,"15":0.8754988312721252,"16":-1.2393603324890137,"17":-0.028851380571722984,"18":-0.28889960050582886,"19":0.7786872982978821,"20":1.0640968084335327,"21":-0.8964945077896118,"22":1.4366436004638672,"23":0.5141977071762085,"24":0.11375433951616287,"25":-0.462039977312088,"26":0.9703187942504883,"27":-0.6567375659942627,"28":1.7754672765731812,"29":-0.3693806529045105,"30":0.5479997992515564,"31":4.146817207336426,"32":1.374545931816101,"33":-0.6290959119796753,"34":-0.47131723165512085,"35":-0.5173995494842529,"36":0.974696159362793,"37":-0.7126846313476562,"38":-1.6104130744934082,"39":-1.096552848815918,"40":0.16911137104034424,"41":1.6380547285079956,"42":0.6254039406776428,"43":-0.15116551518440247,"44":-0.4946490228176117,"45":1.1206690073013306,"46":2.579435110092163,"47":-0.6881598830223083,"48":-0.2731599509716034,"49":-1.2933727502822876,"50":-1.2654263973236084,"51":0.3178052306175232,"52":-0.0311269611120224,"53":0.09382157772779465,"54":0.7741076946258545,"55":-0.9222409725189209,"56":-1.3639382123947144,"57":-1.5932936668395996,"58":-0.7393514513969421,"59":-0.8122324347496033,"60":0.7797823548316956,"61":-0.10330034792423248,"62":-1.1362701654434204,"63":-0.47904172539711,"64":-0.2618986964225769,"65":-1.4084500074386597,"66":1.1581759452819824,"67":0.9015119075775146,"68":-0.24835272133350372,"69":-1.0548884868621826,"70":-1.489003300666809,"71":0.9205978512763977,"72":-0.6485256552696228,"73":-0.7541099786758423,"74":-0.5100717544555664,"75":-0.20460066199302673,"76":0.5705949664115906,"77":-0.38183602690696716,"78":0.3925876319408417,"79":1.0179004669189453,"80":0.2101197987794876,"81":0.17601370811462402,"82":0.6602538228034973,"83":-1.3534092903137207,"84":1.6666680574417114,"85":-0.6768110394477844,"86":0.4702639877796173,"87":-1.8718016147613525,"88":-0.9623924493789673,"89":0.41606631875038147,"90":-1.756174921989441,"91":-0.18738733232021332,"92":-1.9053597450256348,"93":1.6264053583145142,"94":0.22381165623664856,"95":2.954918146133423,"96":1.4012912511825562,"97":-0.025436636060476303,"98":-0.07676432281732559,"99":-2.00123929977417,"100":-0.15030978620052338,"101":-0.5935031175613403,"102":0.9340630173683167,"103":0.18741847574710846,"104":-1.2979565858840942,"105":-0.6727339029312134,"106":-0.9796748757362366,"107":-1.2801321744918823,"108":0.8893680572509766,"109":-1.8060394525527954,"110":-3.278315782546997,"111":-0.330382376909256,"112":-0.8038097620010376,"113":-0.5695288181304932,"114":-1.1536147594451904,"115":0.5087246894836426,"116":-0.6687345504760742,"117":-0.7413841485977173,"118":-0.52043217420578,"119":-0.8929378986358643,"120":1.053714394569397,"121":-0.8037828207015991,"122":-1.2907723188400269,"123":-1.9648733139038086,"124":0.5334283113479614,"125":-1.5986778736114502,"126":0.44501256942749023,"127":1.9760655164718628,"128":-1.1466881036758423,"129":1.0968053340911865,"130":-0.5312095880508423,"131":1.221449613571167,"132":-0.6801875829696655,"133":0.37193167209625244,"134":0.8710619807243347,"135":0.5234665274620056,"136":2.041705369949341,"137":-0.9509963393211365,"138":-0.024090105667710304,"139":-0.5589622259140015,"140":-0.0893503800034523,"141":0.03566576912999153,"142":0.5751470923423767,"143":-0.7642096877098083,"144":-0.16195279359817505,"145":0.601184606552124,"146":-0.6567865610122681,"147":-0.17457418143749237,"148":-0.9338721036911011,"149":1.6008261442184448,"150":-0.6369645595550537,"151":-0.4318479001522064,"152":0.6082631945610046,"153":1.3872900009155273,"154":0.4968518018722534,"155":-1.347688913345337,"156":-0.4190495014190674,"157":-0.08844579756259918,"158":0.22449909150600433,"159":-0.08148940652608871,"160":-0.015506585128605366,"161":-0.2978743314743042,"162":-0.22897782921791077,"163":0.6890811324119568,"164":-0.832843005657196,"165":-1.1958693265914917,"166":-2.9736196994781494,"167":0.19867973029613495,"168":0.5797305107116699,"169":0.11578042060136795,"170":-1.0283503532409668,"171":-0.28112637996673584,"172":0.5443544387817383,"173":0.756299614906311,"174":-0.33049339056015015,"175":0.08872396498918533,"176":0.0001753495744196698,"177":-1.0772050619125366,"178":0.30967527627944946,"179":-0.703192412853241,"180":1.4738285541534424,"181":-1.2355705499649048,"182":-1.021702766418457,"183":-1.1561886072158813,"184":1.6972914934158325,"185":0.009452047757804394,"186":2.2922937870025635,"187":-0.07012873142957687,"188":-0.5576886534690857,"189":-0.0177115760743618,"190":-0.23351751267910004,"191":-0.21854065358638763,"192":-2.0063624382019043,"193":1.192379355430603,"194":-2.9863200187683105,"195":0.21747244894504547,"196":1.990681529045105,"197":0.2781040370464325,"198":-2.194240093231201,"199":-0.33718618750572205,"200":1.3940412998199463,"201":-0.4828170835971832,"202":2.1428229808807373,"203":1.3987739086151123,"204":0.5238593816757202,"205":-0.3070763349533081,"206":-1.8296730518341064,"207":0.8206406235694885,"208":0.05879602208733559,"209":-0.9031979441642761,"210":-1.3275176286697388,"211":-0.585683286190033,"212":0.0877581462264061,"213":0.5563458204269409,"214":-0.7467288374900818,"215":1.9998551607131958,"216":0.10297639667987823,"217":-0.10129062086343765,"218":-0.8464526534080505,"219":1.4057350158691406,"220":1.284089207649231,"221":-2.0863027572631836,"222":-1.091423511505127,"223":0.07458188384771347,"224":1.3883239030838013,"225":0.008843761868774891,"226":0.21037296950817108,"227":0.3215770125389099,"228":0.9486656785011292,"229":-0.6127138733863831,"230":-0.7259533405303955,"231":0.5529611706733704,"232":0.5838215351104736,"233":-0.37191516160964966,"234":-0.795693039894104,"235":-0.4508872628211975,"236":-2.421588897705078,"237":-1.6630847454071045,"238":-0.0840933695435524,"239":1.386391520500183,"240":-2.0953097343444824,"241":-0.46471309661865234,"242":-0.1792932003736496,"243":0.7291077375411987,"244":0.08647116273641586,"245":-0.6368336081504822,"246":-0.7724519968032837,"247":0.30591052770614624,"248":-0.33047348260879517,"249":2.7443482875823975,"250":-0.47847414016723633,"251":1.118774652481079,"252":0.23990149796009064,"253":-0.8233770728111267,"254":1.044528603553772,"255":0.7223526835441589,"256":0.6216250061988831,"257":-0.22794510424137115,"258":-0.09659751504659653,"259":0.8311255574226379,"260":0.7635214924812317,"261":0.6199772953987122,"262":1.2899723052978516,"263":-0.17500662803649902,"264":-0.4933900535106659,"265":0.2572277784347534,"266":0.14074023067951202,"267":0.02892877720296383,"268":-0.2779816687107086,"269":-1.5854368209838867,"270":-1.3258897066116333,"271":-3.7699718475341797,"272":0.18225198984146118,"273":-1.1556575298309326,"274":-1.6236844062805176,"275":-3.1240944862365723,"276":-0.16365432739257812,"277":-0.959285318851471,"278":0.3623521625995636,"279":-2.7660131454467773,"280":-0.4629542827606201,"281":-0.7195713520050049,"282":0.3917746841907501,"283":-3.3810057640075684,"284":-0.7871540784835815,"285":-0.059861183166503906,"286":0.14165064692497253,"287":-0.4005105793476105,"288":-0.6118638515472412,"289":-0.19868901371955872,"290":-1.1258200407028198,"291":1.973951816558838,"292":0.8132255673408508,"293":-0.36648330092430115,"294":1.205626130104065,"295":-0.36640939116477966,"296":1.4061862230300903,"297":0.6871848106384277,"298":-1.173102855682373,"299":-0.2174699604511261,"300":2.419219970703125,"301":-0.2861940860748291,"302":-1.9019414186477661,"303":0.7240161299705505,"304":0.7681625485420227,"305":1.567163348197937,"306":0.648238480091095,"307":3.085059642791748,"308":0.4903765022754669,"309":-1.043787956237793,"310":-0.07450122386217117,"311":2.324812412261963,"312":1.88933265209198,"313":-0.9000087976455688,"314":-0.506505012512207,"315":-1.9236780405044556,"316":2.7245678901672363,"317":-0.1724301129579544,"318":-0.7888475060462952,"319":0.7661075592041016,"320":-0.16343151032924652,"321":-0.5477864146232605,"322":-1.2690778970718384,"323":0.014333246275782585,"324":-2.1622605323791504,"325":-0.3570498824119568,"326":-1.2568256855010986,"327":-0.1120031327009201,"328":1.265291452407837,"329":-1.0578969717025757,"330":-0.5239633321762085,"331":-0.9034667015075684,"332":2.0123696327209473,"333":0.40844348073005676,"334":0.266142874956131,"335":0.07059479504823685,"336":3.0517005920410156,"337":-0.05837123095989227,"338":0.18247967958450317,"339":0.13118870556354523,"340":0.9471819996833801,"341":1.874661922454834,"342":1.0590667724609375,"343":-1.8328502178192139,"344":0.4710201621055603,"345":0.7678919434547424,"346":-0.17319872975349426,"347":1.0739011764526367,"348":-2.68118953704834,"349":0.6819215416908264,"350":-0.9566341638565063,"351":-0.34697210788726807,"352":-0.39848458766937256,"353":-1.4614923000335693,"354":0.8830808401107788,"355":0.3238912522792816,"356":0.738360583782196,"357":-0.2544175088405609,"358":-1.5385329723358154,"359":-0.2737310826778412,"360":-1.606082558631897,"361":-0.03891822695732117,"362":-1.18813157081604,"363":1.4068355560302734,"364":0.362375944852829,"365":-0.38212403655052185,"366":-0.20371200144290924,"367":-1.8356513977050781,"368":-0.046786531805992126,"369":-1.2174997329711914,"370":-0.001416785642504692,"371":1.4110082387924194,"372":-0.8595209717750549,"373":1.1540969610214233,"374":-0.3369466960430145,"375":-0.40265464782714844,"376":0.5359172224998474,"377":-0.8651407361030579,"378":0.7824503183364868,"379":-2.485879898071289,"380":-2.1616222858428955,"381":0.21620218455791473,"382":0.10044302046298981,"383":1.3499566316604614,"384":-1.9488016366958618,"385":-0.18560145795345306,"386":0.7725638747215271,"387":-1.7193424701690674,"388":-0.7238048315048218,"389":-0.5771198272705078,"390":0.6224523782730103,"391":-0.32659995555877686,"392":0.12389316409826279,"393":0.9077662825584412,"394":2.559467315673828,"395":1.300649642944336,"396":0.3123975694179535,"397":-0.3728269934654236,"398":-0.36994820833206177,"399":1.3358838558197021,"400":0.41701796650886536,"401":-1.6608318090438843,"402":0.27249374985694885,"403":0.7290494441986084,"404":2.257110595703125,"405":0.7233321070671082,"406":1.895984172821045,"407":0.6427974700927734,"408":-0.6892220377922058,"409":0.7241924405097961,"410":0.8558605313301086,"411":1.884631633758545,"412":-0.7959264516830444,"413":-0.29289770126342773,"414":0.005478542298078537,"415":1.5157928466796875,"416":0.5122693777084351,"417":-0.15233734250068665,"418":0.7947399020195007,"419":0.4364747703075409,"420":0.20112760365009308,"421":-0.48832467198371887,"422":1.4312371015548706,"423":-0.38695141673088074,"424":-0.27416250109672546,"425":-1.4284613132476807,"426":-0.6366740465164185,"427":1.156753420829773,"428":-0.2999216914176941,"429":0.4896450936794281,"430":-0.6413635015487671,"431":0.7952101826667786,"432":1.3808099031448364,"433":1.072250247001648,"434":-0.4041634202003479,"435":-0.4388654828071594,"436":1.117221474647522,"437":0.8340490460395813,"438":-0.006955813616514206,"439":0.20858311653137207,"440":3.3802433013916016,"441":-0.09826165437698364,"442":-1.3451958894729614,"443":0.4278145432472229,"444":0.37464478611946106,"445":0.8308846950531006,"446":1.4958301782608032,"447":0.7799676060676575,"448":-0.4553219974040985,"449":-1.5610229969024658,"450":0.03932558745145798,"451":-0.07910825312137604,"452":0.6973325610160828,"453":0.3371184170246124,"454":0.19184105098247528,"455":1.6398972272872925,"456":-0.08166607469320297,"457":-0.13135570287704468,"458":-1.5376898050308228,"459":-1.3396108150482178,"460":-2.6231818199157715,"461":-0.6822459697723389,"462":0.8733057975769043,"463":0.04783935472369194,"464":0.3436322510242462,"465":-0.7726778984069824,"466":-0.7334071397781372,"467":-0.7781236171722412,"468":-1.4659641981124878,"469":0.34413760900497437,"470":2.039289951324463,"471":-0.7132430672645569,"472":1.6407948732376099,"473":0.9970290064811707,"474":0.029900167137384415,"475":2.11476469039917,"476":-0.9429007768630981,"477":1.2646727561950684,"478":2.6103999614715576,"479":-1.2176271677017212,"480":1.7098630666732788,"481":-0.17491184175014496,"482":1.4662446975708008,"483":-0.14394354820251465,"484":0.49020156264305115,"485":0.8330000638961792,"486":0.676705002784729,"487":-0.21960492432117462,"488":-0.20581592619419098,"489":-0.5815358757972717,"490":-0.5737906694412231,"491":0.17545917630195618,"492":1.1624289751052856,"493":1.8776111602783203,"494":1.722599744796753,"495":0.13138152658939362,"496":-0.5654456615447998,"497":0.10747334361076355,"498":2.0851426124572754,"499":-0.3783222734928131,"500":-0.785137951374054,"501":1.2502912282943726,"502":0.7675726413726807,"503":1.2523852586746216,"504":-0.25110748410224915,"505":0.307949423789978,"506":1.945014476776123,"507":1.0007426738739014,"508":-1.1373015642166138,"509":1.3645403385162354,"510":0.2674831449985504,"511":0.4785807430744171,"512":0.14617466926574707,"513":-1.674761414527893,"514":1.1192764043807983,"515":-1.1308437585830688,"516":-0.28168433904647827,"517":-0.15491968393325806,"518":-0.11393751204013824,"519":0.4633886218070984,"520":0.1510578840970993,"521":0.6375402212142944,"522":-1.0648795366287231,"523":-0.4543309509754181,"524":-0.4469583332538605,"525":-1.3054677248001099,"526":-1.8745121955871582,"527":-1.1431784629821777,"528":-0.6818667650222778,"529":1.8014237880706787,"530":0.7218454480171204,"531":0.12651501595973969,"532":1.017033576965332,"533":-0.9916602373123169,"534":-0.38675886392593384,"535":-0.11508230865001678,"536":-0.23519088327884674,"537":-0.5181775689125061,"538":-0.9630917310714722,"539":-2.8961851596832275,"540":-0.5755383372306824,"541":-0.41805049777030945,"542":-0.3377053141593933,"543":-1.0809298753738403,"544":0.6627605557441711,"545":0.5315433144569397,"546":0.35593336820602417,"547":-0.2837042510509491,"548":0.44965896010398865,"549":0.619560718536377,"550":-1.0045374631881714,"551":-0.5156099200248718,"552":-0.8797798752784729,"553":2.283101797103882,"554":-0.4471016526222229,"555":-2.096120834350586,"556":2.4452667236328125,"557":-0.9454247951507568,"558":1.8770530223846436,"559":1.3449100255966187,"560":-0.2906741797924042,"561":0.8158926963806152,"562":-0.8085909485816956,"563":-0.19612573087215424,"564":-0.3949572741985321,"565":-0.6308398246765137,"566":0.8174249529838562,"567":0.2873910069465637,"568":1.2264481782913208,"569":0.8713744282722473,"570":1.1763975620269775,"571":1.5331130027770996,"572":1.2466779947280884,"573":-0.41828539967536926,"574":0.9992185235023499,"575":0.27353712916374207,"576":0.7721644639968872,"577":-1.3982915878295898,"578":-0.22183585166931152,"579":0.47818997502326965,"580":0.7797566056251526,"581":0.43283286690711975,"582":-0.33551374077796936,"583":0.10124019533395767,"584":0.3969780206680298,"585":0.570022702217102,"586":-1.3565146923065186,"587":-0.2669617533683777,"588":0.37052950263023376,"589":-3.1824374198913574,"590":0.41139259934425354,"591":-1.712965965270996,"592":0.18342377245426178,"593":0.7147454023361206,"594":-0.2674974799156189,"595":0.6512169241905212,"596":-1.182518720626831,"597":0.7139838337898254,"598":0.6393299698829651,"599":-0.5227702856063843,"600":1.3911160230636597,"601":0.8342738747596741,"602":1.0128189325332642,"603":0.09203104674816132,"604":-0.5820301175117493,"605":0.8365820050239563,"606":0.7645013928413391,"607":-1.0309218168258667,"608":1.373953938484192,"609":-0.09840665012598038,"610":1.4980970621109009,"611":0.5721451044082642,"612":-0.5628833770751953,"613":0.560822606086731,"614":-1.2400567531585693,"615":0.27852946519851685,"616":0.022465653717517853,"617":-0.014527271501719952,"618":0.4571896195411682,"619":0.9032931923866272,"620":0.9185033440589905,"621":-1.2380666732788086,"622":-0.10383709520101547,"623":-0.49807965755462646,"624":-0.7791376113891602,"625":-1.6706650257110596,"626":-0.40197768807411194,"627":-0.006529555190354586,"628":1.030890703201294,"629":-2.038898229598999,"630":-0.3831055760383606,"631":-0.39088520407676697,"632":-0.07585468888282776,"633":0.21852260828018188,"634":0.8429951071739197,"635":0.2643337547779083,"636":-0.48769745230674744,"637":-0.5435153841972351,"638":-0.17244961857795715,"639":-0.19288094341754913,"640":0.23342162370681763,"641":-0.6707144975662231,"642":-0.07696912437677383,"643":-0.8695957660675049,"644":-1.4657270908355713,"645":-0.6857044100761414,"646":0.2571767270565033,"647":1.068264126777649,"648":-0.9742881059646606,"649":0.6248314380645752,"650":0.42584750056266785,"651":-0.2907771170139313,"652":-0.4796605706214905,"653":0.09658036381006241,"654":-1.392529010772705,"655":-0.20234325528144836,"656":-0.352718323469162,"657":0.16391952335834503,"658":0.49721091985702515,"659":0.9565921425819397}},"forgetHidden":{"rows":20,"columns":20,"weights":{"0":0.11924249678850174,"1":0.6979794502258301,"2":-0.6801624298095703,"3":0.19128915667533875,"4":-2.0813002586364746,"5":-0.8312308192253113,"6":0.9939315319061279,"7":-0.42321714758872986,"8":3.7542006969451904,"9":-1.6692469120025635,"10":-1.4604697227478027,"11":0.587659478187561,"12":1.2005152702331543,"13":0.3468673527240753,"14":-0.35994717478752136,"15":-0.4507673382759094,"16":-2.730349063873291,"17":-1.5791850090026855,"18":-1.1584700345993042,"19":1.686566948890686,"20":0.18923687934875488,"21":-0.445604145526886,"22":1.2597304582595825,"23":0.006853672210127115,"24":0.48304441571235657,"25":-0.2036202847957611,"26":-0.7021469473838806,"27":0.2250690907239914,"28":-0.4244906008243561,"29":-0.25160568952560425,"30":-0.07834570109844208,"31":-0.6729481220245361,"32":-0.7206423878669739,"33":0.30370476841926575,"34":-1.0769463777542114,"35":0.5180485248565674,"36":1.779068946838379,"37":0.22199098765850067,"38":-0.5014780163764954,"39":-0.05146675929427147,"40":-0.670461893081665,"41":1.8316513299942017,"42":0.6075856685638428,"43":-1.6465317010879517,"44":-0.5558021664619446,"45":0.9775034785270691,"46":-0.030427606776356697,"47":1.4804216623306274,"48":0.006524722557514906,"49":-1.0090806484222412,"50":0.5630907416343689,"51":-0.8230542540550232,"52":1.0203776359558105,"53":0.46988794207572937,"54":1.7176249027252197,"55":0.4407242238521576,"56":0.5532482266426086,"57":0.19140151143074036,"58":0.4693625867366791,"59":-1.246573567390442,"60":-1.1031197309494019,"61":0.2408054620027542,"62":-0.32616326212882996,"63":-1.8687829971313477,"64":-0.4017351567745209,"65":0.14963608980178833,"66":-1.3709608316421509,"67":-0.1517484188079834,"68":1.5507298707962036,"69":-1.2508083581924438,"70":0.5765854716300964,"71":-0.20306488871574402,"72":0.053791068494319916,"73":-0.9755189418792725,"74":0.0874871164560318,"75":-0.41014808416366577,"76":-0.37710756063461304,"77":-1.0978130102157593,"78":-0.006904450245201588,"79":0.7272051572799683,"80":-0.5977978110313416,"81":-1.0640469789505005,"82":0.4815494418144226,"83":0.034884724766016006,"84":-0.775122880935669,"85":1.4889675378799438,"86":-0.8672777414321899,"87":-0.24926017224788666,"88":-1.2053968906402588,"89":0.1028967946767807,"90":-0.2571825683116913,"91":0.7540189623832703,"92":-0.6475344896316528,"93":-0.0007501775398850441,"94":0.3058936893939972,"95":1.0532649755477905,"96":0.08814123272895813,"97":0.12970782816410065,"98":-1.0322039127349854,"99":0.8509235382080078,"100":-0.5967295169830322,"101":2.136171579360962,"102":0.4482850730419159,"103":0.6927072405815125,"104":0.8262877464294434,"105":-1.193025827407837,"106":-1.5955796241760254,"107":1.321833848953247,"108":-0.15743526816368103,"109":-0.2657155394554138,"110":-1.477051854133606,"111":0.48694145679473877,"112":-2.751140832901001,"113":0.34533995389938354,"114":-1.220309853553772,"115":-4.8208770751953125,"116":-0.15830013155937195,"117":0.5263344049453735,"118":5.02797794342041,"119":4.365524768829346,"120":-1.2749801874160767,"121":0.4376254379749298,"122":-0.03924407437443733,"123":0.3949909508228302,"124":0.4724673330783844,"125":1.0050288438796997,"126":0.6947322487831116,"127":-0.8968378901481628,"128":0.7313863635063171,"129":0.8593719601631165,"130":-0.5893281698226929,"131":0.24349059164524078,"132":0.857900083065033,"133":0.6808008551597595,"134":-0.3466359078884125,"135":0.1028389111161232,"136":0.5438448786735535,"137":1.2847391366958618,"138":0.3184639513492584,"139":0.0016784174367785454,"140":-0.5843423008918762,"141":-0.789928674697876,"142":1.9971961975097656,"143":0.8271487951278687,"144":-0.016183581203222275,"145":-1.6999022960662842,"146":-0.9920098185539246,"147":-0.9594453573226929,"148":2.2373807430267334,"149":2.1003968715667725,"150":-0.949749767780304,"151":-0.04127124696969986,"152":-0.9583502411842346,"153":-1.1033179759979248,"154":-0.9552955031394958,"155":0.7193219661712646,"156":-0.9190765023231506,"157":1.5762650966644287,"158":0.426606684923172,"159":0.5901981592178345,"160":0.28869596123695374,"161":-0.669919490814209,"162":0.728570282459259,"163":-0.5615364909172058,"164":-0.38278648257255554,"165":0.8175131678581238,"166":3.566107988357544,"167":1.9066585302352905,"168":3.241612434387207,"169":-0.4446026682853699,"170":-1.6861933469772339,"171":-2.5232081413269043,"172":2.5660011768341064,"173":2.8620424270629883,"174":0.301069974899292,"175":-0.32311776280403137,"176":0.6843867897987366,"177":-0.7288699746131897,"178":0.9363705515861511,"179":2.3736393451690674,"180":-1.2030935287475586,"181":-0.035833027213811874,"182":0.5378409028053284,"183":0.6277061700820923,"184":0.1443590521812439,"185":2.554920196533203,"186":0.6585797071456909,"187":0.2649734318256378,"188":1.2352570295333862,"189":-0.13109056651592255,"190":0.9314401149749756,"191":-2.881619453430176,"192":-1.198870062828064,"193":0.1918908655643463,"194":0.4921722710132599,"195":0.8969411849975586,"196":0.4331696331501007,"197":0.20885410904884338,"198":-2.614931106567383,"199":0.3383762240409851,"200":2.59177303314209,"201":-0.7600873708724976,"202":-1.170959711074829,"203":-3.8716533184051514,"204":-0.35906514525413513,"205":-2.0542047023773193,"206":6.484212875366211,"207":-1.9810014963150024,"208":-0.16782213747501373,"209":-0.567768931388855,"210":0.7430512309074402,"211":-0.5023305416107178,"212":-1.2846559286117554,"213":2.0682339668273926,"214":2.073168992996216,"215":0.11709508299827576,"216":0.13491173088550568,"217":-0.12886980175971985,"218":-1.8112356662750244,"219":-0.19285809993743896,"220":-0.567105770111084,"221":-1.4383134841918945,"222":-1.6035308837890625,"223":-0.3538503050804138,"224":-0.8819713592529297,"225":-1.0141199827194214,"226":-1.9366713762283325,"227":-2.462069272994995,"228":-0.72648024559021,"229":-0.7142507433891296,"230":0.9154468774795532,"231":0.9697508215904236,"232":-1.4774304628372192,"233":-3.270324230194092,"234":0.2349347621202469,"235":-0.033085111528635025,"236":0.032066427171230316,"237":-1.804244041442871,"238":0.7408247590065002,"239":0.593244194984436,"240":0.2980237901210785,"241":-1.4797720909118652,"242":1.9096869230270386,"243":0.5729455947875977,"244":0.011161930859088898,"245":0.06027354300022125,"246":-0.7004701495170593,"247":-1.11192786693573,"248":-0.5437235832214355,"249":0.562767744064331,"250":-1.284540057182312,"251":-0.3750813901424408,"252":0.8470051884651184,"253":0.4154496192932129,"254":-0.775627851486206,"255":1.296067237854004,"256":1.3475860357284546,"257":0.11910249292850494,"258":-0.706398069858551,"259":0.8711932897567749,"260":-0.49114787578582764,"261":0.5008053183555603,"262":-0.1267012059688568,"263":0.2327832281589508,"264":0.26232147216796875,"265":0.6190372705459595,"266":0.9978208541870117,"267":0.2847837805747986,"268":-1.5466045141220093,"269":-0.38763079047203064,"270":0.6296743154525757,"271":1.9888373613357544,"272":0.7799589037895203,"273":-0.03785928338766098,"274":-0.8831163644790649,"275":-0.9388095140457153,"276":0.8399707674980164,"277":0.05654925853013992,"278":0.7850935459136963,"279":-1.4418162107467651,"280":-0.7018694877624512,"281":0.23502862453460693,"282":0.015863534063100815,"283":0.5136858820915222,"284":-0.6816089749336243,"285":-3.2738564014434814,"286":-3.8729248046875,"287":1.1647758483886719,"288":0.7529544830322266,"289":0.230350524187088,"290":-1.0739120244979858,"291":1.3789557218551636,"292":-0.5608649253845215,"293":-1.9811418056488037,"294":0.3840871751308441,"295":-1.4305663108825684,"296":-3.103912353515625,"297":-1.295053482055664,"298":0.7708467245101929,"299":-1.7442656755447388,"300":-2.042586326599121,"301":-0.782604455947876,"302":3.2226336002349854,"303":1.877445101737976,"304":1.489914894104004,"305":0.6331871151924133,"306":0.7161475419998169,"307":-0.8964482545852661,"308":0.5560236573219299,"309":-0.031210733577609062,"310":-2.801211357116699,"311":0.05445857346057892,"312":-1.2163169384002686,"313":-0.47022145986557007,"314":-1.9102184772491455,"315":0.6133860349655151,"316":-1.2266263961791992,"317":2.408169746398926,"318":0.7010188102722168,"319":-0.42327040433883667,"320":1.2039674520492554,"321":-0.4862452745437622,"322":-1.7274706363677979,"323":0.19300046563148499,"324":0.7073313593864441,"325":-2.1548426151275635,"326":0.38801074028015137,"327":1.709859848022461,"328":-0.8908328413963318,"329":-1.5242599248886108,"330":-0.24465729296207428,"331":1.1813769340515137,"332":-0.8950256705284119,"333":-0.23594823479652405,"334":-0.016503240913152695,"335":-0.8331555724143982,"336":-1.2388670444488525,"337":-1.6865447759628296,"338":-0.6555745601654053,"339":1.4719674587249756,"340":1.7637913227081299,"341":-1.2925478219985962,"342":-0.2865915298461914,"343":-2.069995164871216,"344":1.2750226259231567,"345":-1.382931113243103,"346":4.718035697937012,"347":-1.7054563760757446,"348":3.1961519718170166,"349":-1.8413262367248535,"350":2.5775654315948486,"351":-1.1612520217895508,"352":-0.4640445113182068,"353":-5.683058738708496,"354":-0.6117324829101562,"355":2.235806465148926,"356":2.124859094619751,"357":-2.005159378051758,"358":-2.9323267936706543,"359":-3.940249443054199,"360":-0.6699405908584595,"361":0.6398931741714478,"362":1.3190504312515259,"363":0.9033693671226501,"364":0.8442537188529968,"365":-0.7411933541297913,"366":-0.09227898716926575,"367":-0.5328479409217834,"368":-0.4611378610134125,"369":0.9947364330291748,"370":-0.5971388220787048,"371":1.0506293773651123,"372":0.03615354374051094,"373":0.15805618464946747,"374":-0.8069887161254883,"375":-0.23912204802036285,"376":0.24129700660705566,"377":0.842969536781311,"378":0.9335496425628662,"379":0.9484392404556274,"380":0.18201994895935059,"381":-1.808115839958191,"382":1.819450855255127,"383":1.1952847242355347,"384":1.5618979930877686,"385":-0.832280695438385,"386":-1.5309315919876099,"387":-1.7326269149780273,"388":1.7504746913909912,"389":0.9544633626937866,"390":-2.668330430984497,"391":-0.5595799088478088,"392":-0.6543718576431274,"393":-0.1589624136686325,"394":-1.0521092414855957,"395":1.2914406061172485,"396":0.17023669183254242,"397":1.872080683708191,"398":-1.311787724494934,"399":0.7978795170783997}},"forgetBias":{"rows":20,"columns":1,"weights":{"0":0,"1":0,"2":0,"3":0,"4":0,"5":0,"6":0,"7":0,"8":0,"9":0,"10":0,"11":0,"12":0,"13":0,"14":0,"15":0,"16":0,"17":0,"18":0,"19":0}},"outputMatrix":{"rows":20,"columns":33,"weights":{"0":1.0818957090377808,"1":1.0720254182815552,"2":-0.4188739061355591,"3":-1.353191614151001,"4":-0.5205177664756775,"5":1.4006909132003784,"6":-0.708439290523529,"7":-0.7504075169563293,"8":-0.9465290307998657,"9":-1.026619553565979,"10":-0.49945706129074097,"11":0.5164884328842163,"12":0.4457211196422577,"13":0.41040438413619995,"14":-1.0133005380630493,"15":-1.1334055662155151,"16":0.7566953897476196,"17":0.3096033036708832,"18":0.4427788257598877,"19":-1.8540061712265015,"20":0.6638933420181274,"21":-0.7073380947113037,"22":-0.8704565167427063,"23":0.6583758592605591,"24":0.9946195483207703,"25":-0.11627130955457687,"26":-0.4311092793941498,"27":1.1145508289337158,"28":-1.4356249570846558,"29":1.8102140426635742,"30":-0.5560437440872192,"31":0.38099756836891174,"32":0.6784696578979492,"33":0.23223787546157837,"34":-0.601276695728302,"35":1.2566471099853516,"36":1.1630905866622925,"37":-0.10971477627754211,"38":0.05604984238743782,"39":1.5541188716888428,"40":0.6866419315338135,"41":-0.07976684719324112,"42":0.9824944734573364,"43":1.3148033618927002,"44":0.7965715527534485,"45":0.18341611325740814,"46":-0.41875144839286804,"47":0.5604813694953918,"48":0.9364880919456482,"49":-1.081144094467163,"50":0.6034258008003235,"51":-1.9557846784591675,"52":1.454478144645691,"53":-1.2888022661209106,"54":0.14801400899887085,"55":0.49374255537986755,"56":-0.42380040884017944,"57":0.5962470769882202,"58":-0.4650638699531555,"59":0.0760219618678093,"60":-0.28868091106414795,"61":-0.6441725492477417,"62":-0.7578496932983398,"63":-1.0506702661514282,"64":-0.04694711044430733,"65":-0.7688814401626587,"66":0.3341689705848694,"67":0.3504446744918823,"68":0.3887707591056824,"69":-0.8304485082626343,"70":-0.6706811785697937,"71":1.0548145771026611,"72":-0.11721573770046234,"73":-0.0033062277361750603,"74":-0.40012115240097046,"75":-0.0997958555817604,"76":-0.6385716795921326,"77":-2.170076847076416,"78":0.12416442483663559,"79":1.819491982460022,"80":-0.9339555501937866,"81":-0.6674131155014038,"82":-1.5056513547897339,"83":-0.700689971446991,"84":1.005165696144104,"85":-0.19437797367572784,"86":1.166710615158081,"87":0.11396005749702454,"88":-0.3394457995891571,"89":0.10647393018007278,"90":-1.0194344520568848,"91":-0.6928902864456177,"92":-1.7405476570129395,"93":1.8444857597351074,"94":1.112879753112793,"95":1.60023033618927,"96":1.3529250621795654,"97":-0.060788705945014954,"98":-1.0300750732421875,"99":0.7299083471298218,"100":0.045655909925699234,"101":0.0050833444111049175,"102":-0.510539710521698,"103":-1.2595596313476562,"104":-0.342828631401062,"105":-1.045105218887329,"106":-0.8473766446113586,"107":0.6370784044265747,"108":-2.1118528842926025,"109":0.6604644060134888,"110":-0.20539994537830353,"111":-0.22397729754447937,"112":-0.40392595529556274,"113":-1.0343871116638184,"114":-0.3813337981700897,"115":0.15997302532196045,"116":-1.5290435552597046,"117":1.4240167140960693,"118":-1.1976912021636963,"119":1.0516061782836914,"120":-0.5311715602874756,"121":-0.5824857950210571,"122":0.34233322739601135,"123":0.5308719277381897,"124":0.19912058115005493,"125":-0.0548630952835083,"126":0.1678372323513031,"127":0.2767895460128784,"128":1.0338878631591797,"129":0.9278514385223389,"130":1.3599332571029663,"131":0.3573135435581207,"132":0.41409820318222046,"133":0.3712490499019623,"134":-0.012281032279133797,"135":0.013232782483100891,"136":0.23395834863185883,"137":-0.4556061923503876,"138":0.2034391164779663,"139":0.5386317372322083,"140":0.5660334825515747,"141":-0.3286268413066864,"142":0.3088677227497101,"143":1.237878441810608,"144":-0.6846444010734558,"145":0.058346498757600784,"146":0.13489067554473877,"147":0.5707476735115051,"148":0.39041945338249207,"149":0.9762004017829895,"150":-0.2876132130622864,"151":-0.0396459624171257,"152":0.08792637288570404,"153":-0.21092712879180908,"154":0.6868060231208801,"155":0.7230925559997559,"156":0.10228689014911652,"157":-0.028262488543987274,"158":0.5258885025978088,"159":-0.5492630004882812,"160":-0.5473579168319702,"161":-0.08536799252033234,"162":0.5380276441574097,"163":0.16060490906238556,"164":0.46992257237434387,"165":0.11644068360328674,"166":0.03444073721766472,"167":0.3016515076160431,"168":-0.6408260464668274,"169":0.8221473693847656,"170":0.9612738490104675,"171":0.11663487553596497,"172":0.03961941972374916,"173":-0.04505721107125282,"174":-0.19227918982505798,"175":-0.13274694979190826,"176":-0.0025265896692872047,"177":-0.051285140216350555,"178":0.39970552921295166,"179":-0.4624558985233307,"180":0.07234152406454086,"181":0.0339159220457077,"182":0.9278128147125244,"183":0.12589572370052338,"184":-0.3093946874141693,"185":0.33124324679374695,"186":0.376501202583313,"187":-0.2688462436199188,"188":0.001292356406338513,"189":0.2741057574748993,"190":0.49043601751327515,"191":0.09452632814645767,"192":-0.5592815279960632,"193":0.0531669557094574,"194":0.047166597098112106,"195":-0.36330097913742065,"196":-0.1359485685825348,"197":0.15152102708816528,"198":0.7295694351196289,"199":0.04756247624754906,"200":-0.6825349926948547,"201":1.6922744512557983,"202":-0.5025987029075623,"203":-3.800762176513672,"204":0.1070077121257782,"205":0.417169451713562,"206":1.5787572860717773,"207":0.4810015857219696,"208":0.8915370106697083,"209":1.2846722602844238,"210":1.347258448600769,"211":0.2178099900484085,"212":1.0817029476165771,"213":0.3358134627342224,"214":0.4646432101726532,"215":-0.35182324051856995,"216":-0.5907394289970398,"217":0.8309340476989746,"218":-0.7720988392829895,"219":-0.41641610860824585,"220":-0.9225598573684692,"221":0.18800784647464752,"222":-0.4833161234855652,"223":0.3699042499065399,"224":-0.12471281737089157,"225":-0.14809449017047882,"226":-0.047598548233509064,"227":-0.5000929236412048,"228":-0.30577969551086426,"229":-0.2629910111427307,"230":0.24431349337100983,"231":0.47342449426651,"232":-0.0070473807863891125,"233":-1.1245497465133667,"234":0.2602388560771942,"235":-1.360239863395691,"236":-0.45204097032546997,"237":2.619915723800659,"238":1.1775060892105103,"239":-1.1562676429748535,"240":1.4615545272827148,"241":-0.12629401683807373,"242":-0.48050951957702637,"243":-0.2191609889268875,"244":-0.8230980634689331,"245":1.8186360597610474,"246":-0.2383280098438263,"247":-0.5001646280288696,"248":-0.8510715961456299,"249":-0.6194970607757568,"250":0.6272026896476746,"251":-1.029031753540039,"252":-1.5848721265792847,"253":0.5394662618637085,"254":0.1470663845539093,"255":0.5678264498710632,"256":-0.5756354928016663,"257":-0.5145211815834045,"258":1.087699294090271,"259":-3.004171133041382,"260":-0.6027041077613831,"261":-1.055763840675354,"262":-0.9220567345619202,"263":2.1932122707366943,"264":0.5813785791397095,"265":0.38618946075439453,"266":0.9298532605171204,"267":0.413427472114563,"268":-0.2676803767681122,"269":-0.07477029412984848,"270":-0.14035320281982422,"271":0.8597805500030518,"272":0.10453172028064728,"273":-0.2677972614765167,"274":-0.9090210199356079,"275":-0.4541182518005371,"276":1.4649277925491333,"277":-0.9232386350631714,"278":-0.8311335444450378,"279":-0.7354759573936462,"280":-0.3404702842235565,"281":-0.1699862778186798,"282":0.20891480147838593,"283":0.40410083532333374,"284":0.5800772905349731,"285":0.020988602191209793,"286":-0.4983596205711365,"287":0.4594529867172241,"288":0.8517453074455261,"289":0.23657111823558807,"290":-0.6397534012794495,"291":1.3777815103530884,"292":-0.21359017491340637,"293":-1.5462138652801514,"294":-1.3465322256088257,"295":0.02269185334444046,"296":-0.5942511558532715,"297":-0.29320278763771057,"298":0.21877209842205048,"299":0.9111928343772888,"300":-0.46407151222229004,"301":0.3926171362400055,"302":0.21202248334884644,"303":-0.5694944858551025,"304":0.04483720660209656,"305":-0.40815895795822144,"306":-0.5948683619499207,"307":-0.6788695454597473,"308":-3.069199800491333,"309":-0.18967248499393463,"310":1.339282751083374,"311":-1.7130095958709717,"312":-0.9651443958282471,"313":-1.2336699962615967,"314":0.3785649538040161,"315":0.7935329079627991,"316":-0.42481058835983276,"317":1.0342291593551636,"318":0.6221468448638916,"319":0.15667645633220673,"320":-0.15437258780002594,"321":0.6848819255828857,"322":-0.9714062809944153,"323":-2.214799165725708,"324":2.00921893119812,"325":-0.01916206069290638,"326":0.420421302318573,"327":1.0936821699142456,"328":0.8829566240310669,"329":0.20062299072742462,"330":1.8057756423950195,"331":0.3769107162952423,"332":-0.7831839323043823,"333":-0.837470531463623,"334":-1.3035489320755005,"335":-1.129270076751709,"336":0.019470369443297386,"337":0.2163233608007431,"338":0.4371813237667084,"339":-0.05933311581611633,"340":-0.5896642804145813,"341":0.2170882225036621,"342":1.409232497215271,"343":0.42770692706108093,"344":0.4569849669933319,"345":-0.43489882349967957,"346":-0.44486892223358154,"347":-1.417264461517334,"348":0.7949743270874023,"349":0.5772974491119385,"350":1.4338937997817993,"351":-2.9111974239349365,"352":-0.651089072227478,"353":1.7872414588928223,"354":-0.3582140803337097,"355":0.5113434791564941,"356":-1.517946481704712,"357":1.2770973443984985,"358":0.614398181438446,"359":0.08320435881614685,"360":0.725091278553009,"361":0.47358882427215576,"362":1.1046044826507568,"363":-1.396036148071289,"364":0.3426085412502289,"365":2.4630701541900635,"366":-0.2727722227573395,"367":0.8044236302375793,"368":1.404268741607666,"369":-0.8511315584182739,"370":-2.596501350402832,"371":-1.1556161642074585,"372":-0.4047980010509491,"373":1.9321521520614624,"374":-0.3368913233280182,"375":-1.019985556602478,"376":0.18767501413822174,"377":-0.47852644324302673,"378":0.5187025666236877,"379":-0.5774204134941101,"380":1.3597521781921387,"381":0.11638806760311127,"382":-1.114761471748352,"383":0.14998465776443481,"384":0.432407945394516,"385":0.49287909269332886,"386":-1.3403185606002808,"387":-1.2080684900283813,"388":-0.7560547590255737,"389":0.7847461700439453,"390":0.9273658990859985,"391":0.5456446409225464,"392":0.3953406810760498,"393":0.4836311638355255,"394":1.6330804824829102,"395":-0.7810564637184143,"396":-0.31088870763778687,"397":-1.3722561597824097,"398":1.6280949115753174,"399":1.2283899784088135,"400":1.1292637586593628,"401":-1.2357614040374756,"402":1.0498857498168945,"403":0.15418872237205505,"404":0.7375399470329285,"405":1.00304114818573,"406":1.4776848554611206,"407":0.3974834382534027,"408":-0.5819423198699951,"409":0.6318569183349609,"410":2.065000295639038,"411":1.111343502998352,"412":-0.7173847556114197,"413":1.5833615064620972,"414":-0.7018899321556091,"415":0.7169419527053833,"416":-1.1774256229400635,"417":0.45562461018562317,"418":1.4837058782577515,"419":-0.03950021043419838,"420":-0.4016443192958832,"421":-0.860117495059967,"422":0.9182818531990051,"423":-1.0731528997421265,"424":-0.39559322595596313,"425":-0.44095635414123535,"426":-0.6467897295951843,"427":-0.40457814931869507,"428":-0.007097715977579355,"429":1.0887283086776733,"430":1.0711127519607544,"431":-2.4426491260528564,"432":-0.17501004040241241,"433":-0.6106714606285095,"434":-1.5985472202301025,"435":0.8003816604614258,"436":1.759760856628418,"437":0.023031601682305336,"438":0.6434586644172668,"439":-1.5812467336654663,"440":-0.309043288230896,"441":2.392505407333374,"442":0.27081015706062317,"443":0.4128149151802063,"444":-1.1374012231826782,"445":1.8807705640792847,"446":-0.9756385684013367,"447":0.582699716091156,"448":0.7080605030059814,"449":0.568593442440033,"450":-1.09503972530365,"451":-0.7729056477546692,"452":0.8026845455169678,"453":0.43678930401802063,"454":0.7523646950721741,"455":-1.5723696947097778,"456":0.33273372054100037,"457":-0.9528744220733643,"458":0.07175491005182266,"459":-0.4117860496044159,"460":-1.744667649269104,"461":0.11655011028051376,"462":-0.2781921923160553,"463":1.396912693977356,"464":-0.802107572555542,"465":-2.5041232109069824,"466":0.033494580537080765,"467":1.63406240940094,"468":-0.527259886264801,"469":-0.5386728644371033,"470":-0.9850223064422607,"471":-0.33402544260025024,"472":-2.3237226009368896,"473":-0.4785913825035095,"474":0.841504693031311,"475":0.13032791018486023,"476":-1.197250247001648,"477":-1.2014782428741455,"478":1.9907087087631226,"479":0.010495374910533428,"480":1.7528975009918213,"481":-1.4582101106643677,"482":0.7002686858177185,"483":0.18903617560863495,"484":0.12059587985277176,"485":-0.18959972262382507,"486":-0.8164383172988892,"487":0.29836219549179077,"488":0.2909722924232483,"489":1.2597802877426147,"490":-0.3813275396823883,"491":3.052426338195801,"492":0.12409455329179764,"493":-0.2744123041629791,"494":1.4099019765853882,"495":0.4996110200881958,"496":0.34556493163108826,"497":-0.40934136509895325,"498":1.2506728172302246,"499":-1.911843180656433,"500":-2.928858995437622,"501":0.5112643837928772,"502":1.3067152500152588,"503":0.6851194500923157,"504":1.174983024597168,"505":1.0632590055465698,"506":-0.7811120748519897,"507":-0.04212447628378868,"508":0.6479474306106567,"509":0.27266353368759155,"510":0.17814034223556519,"511":-0.7316976189613342,"512":-1.2527961730957031,"513":-0.8091993927955627,"514":1.5834847688674927,"515":0.1902405172586441,"516":-1.2751785516738892,"517":0.2750605344772339,"518":0.3477887809276581,"519":0.27762413024902344,"520":-1.3876978158950806,"521":-1.8573548793792725,"522":0.8401489853858948,"523":-1.68682062625885,"524":-0.6856706738471985,"525":-1.1097078323364258,"526":0.6852590441703796,"527":1.6536335945129395,"528":0.1302630603313446,"529":0.3168155550956726,"530":-1.1074987649917603,"531":-0.619705319404602,"532":-0.888310968875885,"533":1.4747768640518188,"534":-0.32317280769348145,"535":-0.6479492783546448,"536":-0.22468525171279907,"537":0.11765014380216599,"538":-1.1387436389923096,"539":-0.3349323868751526,"540":0.4455890357494354,"541":-0.038597557693719864,"542":-0.16757111251354218,"543":-0.2872850298881531,"544":0.9790347814559937,"545":-1.4393912553787231,"546":0.2861173450946808,"547":-0.40200740098953247,"548":0.773523211479187,"549":-0.9993508458137512,"550":-0.01580149121582508,"551":0.16756846010684967,"552":-1.5377017259597778,"553":-0.4233895540237427,"554":-0.42985138297080994,"555":1.2555392980575562,"556":0.22265858948230743,"557":1.4628511667251587,"558":0.589722216129303,"559":-1.4916306734085083,"560":0.30813097953796387,"561":0.42586642503738403,"562":-0.28166189789772034,"563":-0.3072613477706909,"564":0.47752970457077026,"565":-0.5507187843322754,"566":-0.13315947353839874,"567":-1.706243872642517,"568":0.38225194811820984,"569":0.5975767970085144,"570":0.0160371083766222,"571":-0.48255735635757446,"572":0.0026248281355947256,"573":0.800048291683197,"574":2.3286030292510986,"575":-0.8905375003814697,"576":-0.1541353017091751,"577":-0.812457799911499,"578":-1.450981616973877,"579":1.2422494888305664,"580":0.025448471307754517,"581":0.6180037260055542,"582":-0.46010610461235046,"583":-0.5152736902236938,"584":0.15931656956672668,"585":-0.32418179512023926,"586":-0.9626010060310364,"587":-0.45703744888305664,"588":0.6014773845672607,"589":-0.17996494472026825,"590":-0.9293763041496277,"591":-0.13327905535697937,